/*
 * model_parameters_vad.c
 *
 *  Created on: 2025年7月21日
 *      Author: 廖先强
 */

#include <model_parameters_vad.h>

// Auto-generated weights from PyTorch model

const float model_0_conv1_weight[] = {
-0.307169f, 0.194958f, 0.142042f, 0.072146f, -0.081375f, 0.162727f, -0.203289f, -0.045925f, 0.224263f, -0.168728f, 0.208849f, -0.283801f, 0.125542f, -0.061686f, 0.222918f,
0.185319f, -0.234482f, -0.480672f, -0.037498f, -0.284946f, 0.088335f, 0.212329f, -0.195284f, 0.310246f, -0.186098f, 0.129336f, 0.248728f, -0.212884f, 0.092680f, 0.141010f,
-0.040407f, -0.129825f, 0.189627f, -0.089358f, -0.308320f, 0.083600f, 0.205980f, -0.003229f, 0.283139f, 0.083209f, -0.121741f, -0.258438f, -0.075344f, 0.231079f, 0.052644f,
-0.208881f, 0.342659f, 0.298375f, -0.156953f, 0.067322f, 0.125380f, -0.162640f, -0.158370f, 0.096565f, 0.105338f, -0.230903f, 0.204020f, 0.223924f, 0.337024f, 0.038732f,
-0.333516f, 0.224138f, -0.278046f, -0.257918f, -0.128814f, 0.116059f, -0.189057f, 0.231004f, 0.248608f, -0.038822f, 0.274909f, 0.252996f
};
const float model_0_bn1_weight[] = {
1.006144f, 0.973133f, 0.889896f, 0.966728f, 0.984917f, 1.010742f, 1.000588f, 0.948297f
};
const float model_0_bn1_bias[] = {
-0.126625f, 0.403493f, 0.232258f, 0.211572f, 0.191919f, 0.205161f, 0.037179f, -0.161960f
};
const float model_0_bn1_running_mean[] = {
0.001027f, -0.005075f, -0.008781f, 0.001442f, 0.013464f, 0.013820f, 0.002806f, -0.009738f
};
const float model_0_bn1_running_var[] = {
0.122970f, 0.242971f, 0.148944f, 0.145444f, 0.132788f, 0.222213f, 0.162319f, 0.425028f
};
const float model_0_bn1_num_batches_tracked[] = {
3655.000000f
};
const float model_0_conv2_weight[] = {
0.036230f, 0.000140f, 0.013706f, -0.032710f, 0.187261f, 0.038238f, -0.028390f, -0.001083f, 0.043229f, -0.056335f, -0.006163f, 0.003743f, 0.098519f, 0.079732f, 0.055574f,
-0.025430f, 0.001021f, 0.008638f, -0.111820f, -0.065634f, -0.031039f, 0.030318f, 0.117401f, -0.079140f, -0.069658f, 0.058073f, -0.050526f, 0.044355f, 0.032630f, 0.063569f,
-0.048601f, 0.078181f, 0.054795f, -0.032845f, -0.098518f, -0.059576f, -0.007526f, -0.085680f, -0.034390f, -0.019595f, 0.022196f, -0.087982f, -0.083261f, 0.179058f, -0.045711f,
-0.014842f, 0.075414f, -0.023714f, 0.017822f, -0.087757f, -0.028267f, 0.014507f, -0.012792f, 0.103369f, 0.128739f, -0.161427f, 0.113360f, -0.033869f, -0.031644f, 0.047190f,
0.045847f, 0.055881f, -0.136526f, -0.028206f, 0.008663f, -0.140065f, -0.022086f, -0.068064f, 0.002168f, 0.065140f, 0.088698f, 0.097649f, -0.024695f, 0.020463f, 0.039886f,
-0.208961f, -0.029799f, 0.082337f, -0.066661f, 0.044536f, 0.197207f, 0.045048f, 0.037492f, 0.087813f, -0.079199f, 0.015336f, 0.061658f, 0.009351f, -0.136599f, 0.092218f,
-0.070384f, 0.027870f, -0.032236f, -0.003096f, 0.019563f, 0.047521f, -0.123212f, -0.097019f, -0.033805f, -0.073438f, 0.086897f, -0.041972f, 0.066286f, 0.043933f, -0.001287f,
-0.096989f, -0.042615f, -0.069922f, 0.121420f, 0.017158f, -0.057162f, -0.005252f, -0.018140f, -0.035604f, 0.014013f, -0.051695f, -0.032236f, -0.030528f, 0.003483f, -0.183396f,
0.092282f, 0.056094f, -0.157329f, -0.211751f, -0.235572f, -0.167079f, 0.104953f, -0.033626f, 0.049847f, -0.020873f, 0.010758f, 0.030551f, 0.098298f, 0.087082f, 0.001808f,
-0.021070f, 0.018772f, 0.059087f, -0.066712f, -0.019610f, -0.047349f, 0.037530f, 0.022496f, 0.066882f, 0.018559f, -0.065369f, -0.092740f, 0.048233f, 0.017431f, 0.019651f,
0.104301f, 0.142743f, -0.038065f, -0.150889f, -0.118560f, -0.027810f, -0.192190f, 0.070027f, 0.145640f, -0.098656f, 0.113835f, 0.025327f, -0.067782f, -0.129427f, 0.045680f,
0.008634f, -0.110057f, 0.050112f, -0.132853f, -0.066424f, -0.023757f, -0.165713f, -0.098845f, -0.008201f, 0.041175f, 0.011596f, -0.004888f, -0.051560f, 0.036364f, 0.061456f,
0.074382f, -0.045344f, 0.123462f, 0.081183f, 0.026660f, -0.001912f, 0.047441f, -0.011349f, 0.068329f, -0.107626f, -0.113317f, -0.150186f, 0.012062f, 0.038845f, -0.011882f,
-0.033123f, -0.031630f, 0.000320f, -0.024470f, -0.047406f, 0.098385f, -0.044223f, -0.008410f, 0.011213f, 0.064553f, 0.048503f, -0.144860f, 0.020055f, 0.085689f, -0.033023f,
0.098701f, 0.112800f, -0.118733f, 0.034336f, -0.147369f, -0.058216f, 0.084570f, -0.106299f, 0.039518f, 0.028275f, 0.010764f, -0.111945f, -0.100987f, -0.154905f, -0.020593f,
0.123679f, 0.093483f, 0.088690f, 0.001374f, 0.091790f, -0.181009f, 0.057007f, 0.054618f, 0.013707f, 0.053588f, 0.059260f, -0.019894f, -0.012590f, -0.043039f, -0.076874f,
0.109637f, 0.055546f, 0.122355f, 0.018819f, 0.095644f, 0.028940f, -0.075765f, 0.118408f, -0.144382f, -0.089821f, -0.129677f, 0.049797f, 0.005141f, 0.165366f, 0.043392f,
0.115251f, -0.024946f, -0.035564f, -0.055542f, -0.023100f, -0.119761f, -0.046452f, 0.032434f, -0.000941f, 0.126027f, 0.101178f, 0.081775f, -0.039041f, -0.144600f, 0.015847f,
-0.014572f, -0.035618f, 0.040717f, 0.001721f, 0.124514f, 0.040851f, 0.042169f, -0.046557f, 0.081160f, 0.053369f, 0.058849f, -0.043389f, -0.035570f, -0.125598f, -0.130439f,
-0.019342f, 0.061562f, 0.039582f, 0.065343f, -0.097682f, -0.076942f, -0.197215f, -0.119011f, -0.004025f, 0.027798f, 0.103335f, 0.089372f, -0.098231f, -0.116498f, -0.086645f,
-0.098100f, -0.040876f, 0.007415f, -0.113900f, -0.119762f, 0.038111f, -0.023826f, -0.151437f, 0.024056f, 0.061853f, -0.010735f, -0.030534f, 0.019843f, 0.140455f, 0.029532f,
0.127057f, 0.139809f, 0.017169f, 0.036305f, 0.058515f, 0.084338f, -0.005257f, -0.124551f, -0.177386f, -0.042893f, -0.116979f, -0.015132f, 0.047498f, -0.084332f, -0.109826f,
-0.081099f, 0.006283f, -0.054617f, -0.119856f, -0.042884f, 0.092766f, 0.053321f, -0.082311f, 0.138795f, -0.022382f, -0.035667f, 0.038556f, 0.106107f, 0.125497f, 0.060688f,
-0.154232f, -0.046120f, -0.019511f, 0.113307f, 0.108660f, 0.021664f, 0.023285f, 0.031103f, 0.010756f, 0.047282f, 0.054921f, -0.065780f, -0.097192f, -0.108029f, -0.042484f,
0.019224f, 0.043513f, 0.153154f, -0.016294f, -0.063802f, -0.015578f, 0.050247f, 0.122284f, 0.011496f, -0.008215f, 0.082798f, -0.099770f, -0.045258f, -0.154649f, -0.125949f,
-0.092815f, -0.171246f, -0.120867f, -0.047997f, -0.076152f, -0.004503f, -0.079420f, 0.033061f, 0.045188f, 0.010816f, 0.007410f, 0.112927f, -0.086839f, 0.084170f, -0.124275f,
-0.080772f, 0.081038f, -0.130081f, 0.012169f, -0.089631f, -0.083487f, -0.028438f, 0.008304f, -0.032514f, -0.020563f, 0.077503f, 0.068357f, 0.009047f, 0.043835f, 0.028124f,
0.147396f, -0.028752f, 0.124443f, 0.089580f, 0.034164f, 0.179546f, 0.000370f, 0.049123f, -0.044609f, -0.011495f, -0.106477f, 0.067120f, -0.090605f, -0.000805f, -0.093188f,
0.102386f, 0.089700f, 0.107453f, 0.076433f, -0.015165f, 0.078139f, 0.022662f, -0.039457f, 0.120898f, 0.014762f, 0.100974f, 0.023615f, 0.090379f, 0.110063f, -0.051795f,
-0.051917f, -0.044784f, -0.032865f, -0.008279f, 0.066052f, 0.052500f, -0.220461f, -0.126433f, -0.093093f, 0.115582f, -0.095261f, -0.065258f, -0.076592f, -0.096254f, -0.066672f,
-0.026460f, -0.077933f, -0.017923f, 0.150065f, -0.033931f, -0.050451f, -0.040237f, 0.041148f, 0.044407f, 0.034922f, 0.068838f, 0.012450f, 0.111384f, 0.025677f, -0.007383f,
0.152675f, 0.183969f, 0.076593f, -0.043192f, -0.147381f, -0.090524f, -0.119475f, -0.039724f, 0.008810f, -0.053197f, -0.021089f, -0.007132f, -0.092218f, 0.003724f, -0.030831f,
0.036239f, 0.064093f, 0.129423f, 0.075208f, -0.005392f, -0.078529f, -0.125281f, -0.065465f, -0.054386f, -0.099167f, 0.017271f, 0.062862f, 0.191450f, -0.086401f, 0.058478f,
0.015252f, 0.045154f, -0.045309f, 0.040417f, -0.017992f, -0.015406f, 0.052899f, -0.134682f, 0.025429f, 0.132728f, 0.074479f, 0.016130f, -0.146615f, -0.044038f, 0.129948f,
-0.083832f, 0.107104f, 0.044915f, 0.114300f, 0.152383f, 0.059097f, 0.019625f, 0.063395f, 0.042397f, -0.001128f, 0.020973f, 0.022668f, -0.058852f, -0.106078f, 0.028279f,
-0.026575f, 0.124032f, -0.052614f, 0.071891f, 0.055805f, -0.029917f, -0.054713f, 0.033800f, -0.064939f, -0.050131f, -0.086557f, -0.025808f, -0.054158f, 0.011106f, -0.000900f,
0.089064f, 0.144690f, 0.049531f, 0.030659f, -0.072265f, -0.103432f, -0.021923f, -0.086118f, 0.036895f, -0.009446f, -0.006121f, -0.133514f, 0.042664f, -0.082067f, 0.038376f,
0.104552f, 0.004729f, -0.132509f, 0.058785f, 0.061191f, 0.041157f, -0.006882f, 0.034713f, -0.032588f, 0.044981f, 0.022697f, -0.065022f, 0.058763f, -0.017376f, 0.022156f,
-0.075635f, -0.032344f, 0.109566f, 0.131673f, -0.003922f, -0.009732f
};
const float model_0_bn2_weight[] = {
1.029172f, 1.154264f, 1.133287f, 1.114986f, 0.982054f, 0.916528f, 1.057565f, 1.029620f
};
const float model_0_bn2_bias[] = {
-0.076709f, -0.009126f, 0.019585f, 0.146432f, 0.201861f, 0.018528f, 0.199588f, 0.134935f
};
const float model_0_bn2_running_mean[] = {
0.059360f, -0.354101f, -0.390924f, 0.299404f, -0.482977f, -0.095884f, -0.340458f, 0.304121f
};
const float model_0_bn2_running_var[] = {
0.091912f, 0.331307f, 0.274903f, 0.145948f, 0.122104f, 0.967742f, 0.343367f, 0.086229f
};
const float model_0_bn2_num_batches_tracked[] = {
3655.000000f
};
const float model_0_shortcut_0_weight[] = {
0.412632f, 0.568302f, -0.928427f, 0.297874f, 0.674248f, 0.763636f, -0.019357f, 0.555320f
};
const float model_0_shortcut_1_weight[] = {
0.887729f, 0.975427f, 0.966128f, 0.971774f, 0.956623f, 0.901595f, 0.910683f, 0.849259f
};
const float model_0_shortcut_1_bias[] = {
-0.076709f, -0.009126f, 0.019585f, 0.146432f, 0.201861f, 0.018528f, 0.199588f, 0.134935f
};
const float model_0_shortcut_1_running_mean[] = {
-0.000000f, -0.000000f, 0.000000f, -0.000000f, -0.000000f, -0.000000f, 0.000000f, -0.000000f
};
const float model_0_shortcut_1_running_var[] = {
0.169932f, 0.321715f, 0.859377f, 0.088289f, 0.453740f, 0.581913f, 0.000375f, 0.307779f
};
const float model_0_shortcut_1_num_batches_tracked[] = {
3655.000000f
};
const float model_2_conv1_weight[] = {
-0.050810f, -0.060618f, -0.093454f, 0.026854f, 0.073932f, -0.072913f, -0.048903f, -0.039610f, -0.108248f, 0.087887f, 0.052588f, -0.002048f, 0.115483f, -0.101507f, 0.065138f,
0.067160f, -0.075772f, -0.091970f, 0.078891f, -0.026926f, -0.169235f, 0.153654f, -0.012801f, -0.151887f, 0.137646f, -0.101699f, -0.279748f, 0.095368f, -0.029153f, -0.039990f,
-0.024954f, -0.008155f, 0.052260f, -0.137830f, -0.128343f, 0.017720f, -0.062747f, 0.034073f, -0.117517f, 0.004452f, 0.093825f, 0.068917f, -0.119918f, -0.029173f, 0.050434f,
-0.044199f, 0.006970f, 0.069023f, 0.036683f, 0.114065f, -0.001867f, 0.017763f, 0.066166f, 0.043434f, -0.010837f, 0.014687f, -0.012490f, -0.120177f, 0.074148f, 0.010692f,
0.057836f, 0.175841f, 0.009481f, 0.047560f, -0.034230f, 0.026977f, 0.062281f, -0.068288f, -0.003810f, 0.034355f, 0.043758f, -0.089041f, -0.037105f, -0.039553f, 0.007379f,
-0.056550f, -0.048007f, -0.034202f, -0.109786f, -0.011862f, -0.107034f, -0.073102f, 0.010023f, -0.105796f, 0.094007f, -0.111660f, -0.095783f, -0.036189f, 0.163882f, 0.021262f,
0.046668f, 0.012017f, -0.130350f, 0.071284f, 0.020432f, -0.022919f, -0.100251f, -0.035640f, -0.006222f, -0.035996f, -0.029991f, -0.110550f, -0.040356f, -0.022917f, -0.003571f,
-0.063940f, -0.119395f, -0.143511f, 0.026998f, 0.030504f, 0.042424f, -0.025370f, -0.033091f, 0.081570f, -0.048044f, -0.084314f, 0.047767f, 0.002267f, 0.099309f, -0.118637f,
-0.024192f, -0.020066f, -0.038209f, 0.293143f, -0.045492f, -0.161571f, -0.139457f, -0.054080f, -0.119561f, 0.037887f, -0.015096f, 0.042566f, 0.010150f, -0.079802f, -0.047885f,
-0.014813f, 0.069559f, 0.034161f, 0.050680f, 0.095614f, 0.091162f, -0.105231f, -0.054508f, -0.076284f, 0.168111f, 0.061343f, -0.028529f, 0.127012f, -0.030049f, 0.043847f,
0.080882f, 0.088892f, 0.055055f, -0.073505f, 0.054420f, 0.070401f, 0.011485f, 0.031914f, 0.038773f, 0.039714f, 0.031641f, -0.064264f, 0.161750f, 0.143497f, 0.006362f,
-0.051089f, 0.066164f, 0.004657f, 0.118540f, 0.109734f, -0.048527f, -0.027571f, -0.019502f, -0.025092f, 0.103152f, 0.108088f, -0.017977f, 0.070278f, 0.039775f, 0.062086f,
0.091497f, 0.001062f, -0.033162f, 0.009874f, 0.067274f, -0.095778f, 0.103324f, -0.035102f, 0.102274f, -0.065579f, -0.010918f, 0.010020f, -0.006509f, 0.129727f, 0.010828f,
0.055562f, -0.010166f, 0.178573f, 0.078394f, 0.147913f, -0.072339f, -0.079894f, -0.016799f, -0.076407f, -0.077705f, -0.025947f, -0.040739f, -0.052630f, 0.091806f, -0.082247f,
-0.028603f, -0.090297f, -0.025835f, -0.054785f, 0.065057f, 0.038223f, -0.082347f, -0.047826f, -0.020844f, -0.070730f, -0.087353f, 0.013937f, -0.042684f, -0.070024f, -0.115955f,
0.064012f, 0.181749f, 0.194159f, 0.087523f, 0.152758f, 0.156851f, -0.100034f, 0.118001f, -0.011112f, 0.016898f, 0.115334f, -0.001372f, -0.089111f, 0.004148f, 0.011830f,
0.031441f, -0.081235f, 0.045238f, 0.043454f, 0.039271f, -0.057872f, 0.034559f, -0.050023f, -0.108956f, -0.057374f, -0.119954f, -0.177623f, -0.046774f, 0.103112f, 0.081282f,
-0.068525f, 0.085364f, 0.049752f, -0.021912f, 0.041158f, 0.052424f, -0.043019f, -0.016472f, -0.126567f, 0.041046f, 0.026077f, -0.041604f, -0.034178f, -0.037655f, -0.053846f,
0.073625f, -0.032414f, 0.040780f, -0.052994f, 0.010971f, 0.075987f, -0.007962f, 0.064429f, -0.081236f, 0.011248f, 0.087077f, -0.003332f, 0.035139f, 0.078864f, -0.070322f,
0.044346f, -0.056231f, -0.119478f, -0.148361f, -0.016833f, -0.083736f, -0.034472f, -0.045087f, -0.000564f, 0.029465f, 0.039129f, 0.015043f, -0.046215f, -0.047891f, 0.016993f,
-0.019959f, -0.039135f, -0.073767f, -0.111991f, 0.004088f, -0.092917f, -0.143698f, -0.048045f, -0.249641f, -0.056716f, -0.141641f, -0.131202f, -0.067091f, -0.160794f, -0.077884f,
-0.029490f, 0.146756f, 0.006914f, 0.062816f, -0.045084f, -0.109773f, 0.055772f, -0.053707f, 0.073954f, 0.044579f, 0.028687f, -0.062884f, 0.022530f, -0.001207f, -0.093523f,
-0.051918f, -0.016707f, 0.095549f, -0.055468f, -0.056900f, -0.077854f, 0.001620f, -0.005590f, -0.144006f, -0.001840f, 0.014571f, 0.103384f, -0.060538f, -0.019762f, 0.091348f,
-0.065125f, -0.218036f, -0.100976f, -0.132255f, -0.074844f, -0.008742f, -0.021651f, -0.092941f, 0.014538f, -0.060948f, -0.073368f, -0.109245f, 0.028799f, -0.028484f, -0.055593f,
-0.164700f, -0.120314f, 0.040867f, -0.033366f, -0.037270f, -0.030400f, -0.012679f, -0.023857f, 0.033817f, -0.233736f, -0.123544f, -0.119417f, -0.075483f, -0.011432f, -0.048323f,
0.148945f, 0.132173f, 0.087982f, -0.056177f, -0.058374f, -0.049352f, 0.078394f, 0.010790f, -0.006088f, 0.000480f, 0.152230f, 0.119171f, -0.110655f, -0.009242f, -0.009599f,
-0.053848f, 0.052539f, -0.032471f, 0.072816f, 0.108920f, 0.068700f, 0.046773f, -0.022558f, -0.046931f, 0.013206f, -0.081854f, 0.027142f, -0.089871f, 0.096498f, -0.005132f,
0.083735f, 0.000444f, -0.001462f, 0.028728f, -0.008035f, -0.036595f, -0.061410f, -0.068869f, 0.004605f, 0.025509f, 0.076717f, 0.014405f, -0.053381f, -0.010093f, -0.056579f,
0.004803f, 0.055236f, -0.030464f, 0.033765f, -0.070218f, -0.075290f, 0.046841f, 0.032784f, 0.127559f, 0.103887f, 0.055116f, 0.022829f, 0.034632f, -0.064021f, 0.020162f,
-0.091874f, 0.006873f, -0.030407f, -0.039906f, -0.062188f, -0.085589f, -0.036931f, -0.074460f, -0.080230f, -0.165902f, -0.041238f, -0.016024f, -0.050807f, -0.003896f, 0.088959f,
-0.098615f, -0.135745f, -0.117947f, -0.058699f, -0.104580f, -0.070190f, -0.035610f, -0.078217f, -0.035471f, -0.033901f, -0.078117f, -0.236295f, -0.057053f, -0.106631f, -0.068146f,
0.008950f, 0.022983f, 0.015397f, -0.019311f, -0.005885f, -0.210338f, -0.009564f, 0.016435f, -0.089740f, 0.063892f, 0.013979f, -0.006152f, 0.129765f, 0.095385f, -0.016334f,
0.095742f, 0.061679f, 0.007875f, 0.006177f, -0.050201f, -0.116689f, -0.181564f, -0.078216f, -0.139401f, 0.092239f, -0.028901f, -0.099653f, 0.009509f, 0.071394f, -0.015491f,
-0.004874f, 0.041255f, -0.124369f, -0.130259f, -0.105652f, -0.056541f, 0.081632f, 0.031691f, -0.058479f, 0.017375f, -0.149225f, -0.138634f, 0.057863f, -0.057772f, -0.021090f,
-0.119491f, 0.034493f, 0.018842f, 0.083782f, -0.024454f, -0.091187f, -0.028564f, 0.054764f, -0.049149f, 0.044166f, 0.069745f, 0.270416f, -0.056041f, -0.012137f, -0.045920f,
-0.090444f, 0.024630f, -0.066446f, -0.007327f, -0.087881f, 0.046561f, -0.140741f, -0.113390f, -0.126339f, -0.107662f, -0.060092f, -0.073582f, 0.014954f, 0.046256f, 0.117552f,
0.062403f, 0.033297f, -0.006371f, 0.064208f, -0.114349f, 0.034980f, -0.061694f, 0.066283f, 0.104854f, -0.023414f, -0.007993f, -0.137985f, 0.072549f, 0.075899f, 0.053883f,
0.070230f, -0.039082f, 0.094130f, -0.053290f, -0.031921f, 0.091317f, 0.028608f, 0.099035f, 0.032108f, 0.022631f, 0.058161f, -0.104305f, 0.044171f, 0.060858f, 0.112906f,
0.111828f, -0.108122f, -0.049420f, 0.011445f, -0.030381f, -0.017685f, -0.038286f, 0.047977f, -0.032619f, -0.114766f, -0.207787f, -0.109393f, 0.038822f, 0.012240f, 0.086237f,
0.144141f, -0.030058f, -0.028525f, 0.016027f, 0.097474f, 0.067111f, 0.117368f, 0.112766f, 0.034837f, 0.184902f, -0.041106f, -0.048591f, 0.136098f, -0.033984f, 0.017458f,
0.013723f, -0.096610f, -0.087944f, 0.148656f, 0.052912f, -0.041903f, 0.082055f, -0.150377f, -0.208389f, -0.019073f, -0.015376f, -0.016990f, -0.086890f, 0.094676f, 0.055590f,
-0.087870f, -0.022095f, -0.096454f, 0.043412f, -0.073031f, 0.057807f, 0.101776f, -0.058281f, -0.009374f, -0.029390f, 0.039603f, -0.006193f, -0.012584f, 0.066706f, 0.146694f,
0.051588f, 0.173228f, 0.037183f, -0.025620f, 0.062784f, -0.016008f, -0.074698f, 0.026995f, -0.091625f, -0.085403f, 0.071019f, -0.105218f, 0.061396f, 0.050912f, -0.051047f,
0.017691f, -0.049998f, 0.046332f, 0.090740f, -0.055527f, 0.026386f, -0.164004f, -0.162223f, -0.116221f, -0.013767f, -0.006798f, 0.031698f, 0.066356f, -0.004574f, 0.007459f,
0.127484f, -0.067024f, -0.037451f, 0.105751f, 0.106343f, 0.058748f, -0.084142f, -0.167159f, -0.132998f, 0.039863f, 0.008866f, -0.044324f, 0.217010f, 0.049691f, 0.035589f,
-0.148385f, -0.027280f, -0.021470f, -0.082669f, -0.053622f, 0.063242f, -0.052546f, 0.025689f, 0.078174f, 0.023589f, 0.073838f, -0.023559f, 0.006559f, 0.010611f, -0.039286f,
-0.146946f, 0.104658f, 0.036553f, -0.111181f, 0.008575f, -0.018614f, -0.050922f, 0.045303f, 0.065728f, -0.162418f, -0.083170f, -0.046532f, -0.043661f, 0.123138f, -0.017226f,
0.016224f, -0.040380f, 0.015432f, -0.053433f, 0.071320f, -0.101298f, 0.092275f, 0.175049f, 0.075796f, -0.071304f, 0.088534f, 0.035389f, 0.000358f, 0.002459f, -0.129924f,
-0.013348f, 0.124020f, 0.099105f, 0.073758f, 0.020793f, 0.211451f, -0.023111f, 0.020058f, 0.100241f, 0.070910f, -0.065307f, -0.056336f, -0.046859f, 0.083611f, 0.046756f,
0.098475f, 0.036688f, -0.057432f, 0.024340f, 0.011869f, 0.144208f, 0.028619f, 0.136204f, 0.011174f, 0.080981f, 0.179276f, 0.091991f, 0.110158f, -0.042427f, 0.080375f,
0.068300f, 0.068888f, -0.008502f, 0.115442f, -0.060341f, -0.106483f, -0.007796f, 0.043299f, 0.061892f, 0.049078f, -0.058502f, 0.110923f, 0.026346f, -0.179001f, -0.037542f,
0.051463f, 0.016198f, 0.156984f, -0.095479f, -0.001529f, 0.096968f, 0.090972f, -0.056562f, -0.013683f, -0.091068f, 0.070584f, 0.078512f, -0.014432f, -0.159170f, 0.043836f,
-0.084169f, 0.064179f, -0.053470f, -0.017630f, -0.024698f, 0.088271f, 0.022250f, -0.092259f, 0.059236f, 0.033242f, 0.030701f, 0.004089f, 0.068656f, -0.041693f, -0.040525f,
0.108935f, -0.081051f, -0.066037f, -0.030769f, -0.058372f, -0.056202f, 0.035051f, -0.019874f, 0.007449f, -0.112582f, -0.044141f, -0.076514f, -0.119990f, 0.046309f, 0.049458f,
0.114284f, 0.016283f, 0.036809f, -0.075035f, 0.078554f, 0.075971f, 0.070605f, 0.097161f, -0.077320f, -0.009624f, -0.022913f, -0.099460f, -0.083715f, 0.047761f, 0.058086f,
-0.066136f, -0.009362f, 0.037148f, -0.025793f, -0.014616f, 0.011459f, -0.048866f, -0.086619f, 0.080367f, -0.099917f, 0.042036f, 0.123370f, -0.034290f, 0.029209f, -0.121145f,
0.009464f, -0.049319f, 0.051718f, -0.132906f, -0.107196f, 0.108537f, -0.113276f, -0.137210f, 0.149052f, -0.071812f, 0.052597f, -0.073633f, 0.054137f, 0.015989f, -0.072495f,
0.007583f, 0.021197f, 0.174652f, -0.061647f, 0.048683f, 0.012333f, -0.009994f, 0.120768f, 0.116527f, -0.042041f, -0.046528f, 0.032849f, -0.014102f, 0.003548f, -0.056500f,
0.058988f, -0.112676f, 0.090714f, 0.112169f, -0.020488f, -0.001279f, -0.067024f, 0.013667f, -0.021112f, -0.113752f, -0.023384f, 0.079271f, 0.222477f, 0.007883f, -0.184924f,
0.003109f, -0.003475f, -0.112277f, 0.069683f, 0.013060f, -0.084151f, 0.061982f, -0.004206f, -0.044741f, 0.163457f, 0.135384f, 0.071516f, 0.008312f, 0.037521f, -0.000541f,
0.083486f, 0.080438f, 0.051652f, -0.093885f, -0.036131f, -0.037316f, -0.071439f, 0.011218f, 0.159693f, 0.049816f, 0.071733f, -0.015685f, 0.022548f, 0.092716f, 0.031506f,
-0.085612f, -0.067515f, 0.007711f, 0.027609f, 0.139803f, 0.064720f, -0.174999f, 0.007719f, 0.077338f, -0.002336f, 0.143132f, 0.170989f, 0.090594f, 0.085894f, 0.062435f,
-0.073449f, 0.013335f, 0.085699f, -0.087037f, -0.073137f, -0.053216f, -0.003623f, 0.009474f, -0.107342f, -0.110702f, 0.006362f, 0.095814f, -0.040512f, -0.087568f, 0.014564f,
-0.109734f, 0.097489f, 0.114996f, -0.179164f, -0.080698f, 0.041438f, -0.038536f, -0.081573f, 0.116350f, -0.105414f, -0.037951f, 0.000959f, -0.080375f, 0.019369f, -0.036326f,
0.049512f, 0.065806f, 0.018475f, 0.072421f, -0.001514f, 0.005436f, -0.077347f, 0.022349f, -0.008223f, 0.040929f, 0.081997f, -0.090812f, 0.009109f, 0.035593f, -0.093211f,
-0.032553f, 0.034587f, -0.099474f, 0.028673f, -0.027592f, -0.132046f, 0.040741f, 0.012781f, 0.060224f, -0.008775f, -0.099037f, 0.076405f, 0.081177f, 0.116503f, -0.003197f,
0.124464f, 0.018024f, -0.069265f, -0.079643f, -0.003766f, 0.016477f, -0.130565f, -0.054626f, 0.074132f, 0.013465f, -0.071511f, 0.079796f, -0.127742f, -0.137778f, -0.015957f,
-0.121789f, -0.047524f, -0.042914f, -0.040788f, -0.021389f, -0.144764f, 0.005928f, 0.001208f, -0.144944f, -0.064292f, -0.000867f, -0.008091f, 0.094318f, 0.022253f, -0.016627f,
-0.004090f, -0.041399f, 0.142774f, -0.174510f, -0.120733f, 0.146476f, 0.047022f, 0.086738f, -0.066613f, -0.052756f, -0.060590f, -0.040557f, 0.044304f, 0.040134f, -0.056166f,
0.073885f, -0.116193f, -0.121463f, -0.085071f, -0.062970f, -0.013514f, -0.005052f, -0.157125f, 0.062045f, 0.062124f, 0.067628f, 0.021506f, 0.087021f, 0.019939f, -0.097318f,
-0.135253f, -0.017832f, 0.126745f, -0.008447f, -0.005306f, -0.127212f, 0.048285f, 0.044006f, -0.044489f, 0.009216f, 0.109878f, 0.120772f, 0.004370f, -0.074694f, -0.126072f,
-0.070925f, 0.026604f, 0.096193f, 0.044273f, 0.021293f, 0.050493f, 0.108064f, 0.143510f, -0.011391f, 0.044910f, 0.039207f, 0.002849f, -0.067637f, -0.084274f, 0.062122f,
0.016544f, -0.039427f, -0.043103f, 0.064054f, 0.075166f, 0.097163f, 0.075813f, -0.060590f, -0.028005f, 0.082442f, -0.016551f, 0.071392f, -0.020804f, -0.054838f, -0.092127f,
0.147765f, -0.050108f, -0.126158f, 0.126094f, 0.155781f, 0.079405f, -0.037472f, -0.091016f, -0.123276f, -0.001613f, 0.060231f, 0.066796f, -0.003368f, 0.064072f, -0.008912f,
0.046053f, 0.055956f, -0.057433f, 0.124095f, 0.074236f, -0.031606f, 0.249831f, 0.140478f, 0.110974f, 0.086458f, -0.044051f, 0.132233f, -0.167598f, 0.046173f, -0.068205f,
0.013777f, -0.018377f, 0.043829f, -0.012339f, -0.016604f, 0.073664f, 0.016178f, 0.068688f, -0.085687f, -0.027662f, 0.037792f, 0.132961f, -0.017419f, -0.062133f, -0.107273f,
0.065858f, 0.030587f, 0.039819f, 0.058820f, 0.022634f, 0.025053f, 0.075064f, -0.004911f, 0.074869f, -0.147372f, -0.123583f, -0.092362f, -0.032881f, 0.032456f, -0.040191f,
0.012523f, -0.037433f, -0.026954f, 0.129430f, 0.062725f, 0.096169f, -0.164985f, -0.077182f, -0.082796f, -0.133207f, -0.116417f, -0.012856f, -0.190679f, -0.035595f, 0.013210f,
-0.086977f, -0.142892f, 0.000557f, -0.001605f, 0.036613f, 0.230161f, 0.043111f, -0.027520f, 0.205838f, -0.132178f, -0.008733f, -0.150024f, 0.070807f, 0.033173f, -0.008649f,
0.026670f, -0.154956f, 0.001148f, -0.000769f, 0.077203f, 0.036278f, 0.019456f, 0.033347f, -0.062516f, -0.131121f, 0.012247f, -0.023279f, 0.010850f, 0.027350f, 0.008988f,
0.160887f, 0.026375f, 0.149247f, -0.000263f, -0.022097f, 0.056765f, -0.112168f, -0.081044f, -0.130518f, 0.101583f, 0.046057f, 0.126631f, 0.021294f, -0.092468f, 0.002078f,
-0.084025f, -0.098612f, -0.083400f, 0.083360f, 0.042765f, -0.027361f, -0.116760f, -0.019364f, 0.015705f, -0.125748f, -0.091124f, 0.011030f, -0.047378f, -0.103358f, 0.085296f,
-0.133544f, -0.145504f, -0.064734f, 0.011722f, -0.010594f, -0.066492f, 0.141485f, -0.044563f, -0.073323f, 0.074036f, -0.020176f, -0.150777f, 0.085131f, 0.033365f, 0.096819f,
0.030576f, 0.119507f, 0.094754f, 0.145621f, 0.192448f, 0.011811f, 0.063756f, -0.110630f, 0.051627f, -0.025175f, -0.110628f, 0.059304f, 0.084414f, 0.017129f, -0.009049f,
-0.023690f, 0.019177f, -0.102541f, 0.114638f, -0.037777f, -0.095735f, -0.047313f, 0.065666f, 0.057244f, -0.043995f, -0.044192f, 0.094172f, 0.111446f, -0.089499f, 0.078563f,
0.089845f, 0.007285f, 0.071978f, -0.029782f, 0.083383f, -0.003234f, -0.154354f, -0.022456f, 0.048355f, -0.153043f, 0.063284f, -0.031491f, 0.164865f, 0.052696f, -0.107149f,
0.103770f, 0.035211f, -0.058479f, 0.071728f, 0.013386f, -0.012399f, -0.118865f, -0.125640f, -0.082401f, -0.123317f, -0.184216f, -0.110771f, -0.072792f, 0.103066f, -0.048220f,
0.043235f, -0.050861f, -0.001273f, -0.095967f, -0.052155f, 0.038468f, -0.042181f, -0.137901f, -0.108735f, -0.088656f, -0.018069f, -0.069541f, -0.082834f, 0.089569f, -0.125500f,
0.036845f, 0.110706f, -0.042787f, -0.118308f, 0.011492f, -0.064025f, 0.004513f, 0.100530f, -0.018067f, 0.083332f, 0.066256f, 0.018468f, 0.099165f, 0.039431f, 0.018508f,
0.028340f, 0.043597f, 0.047000f, 0.025839f, -0.108663f, -0.115841f, 0.103413f, 0.145099f, 0.064910f, 0.071454f, -0.065978f, 0.039623f, -0.155151f, -0.058680f, -0.094287f,
-0.080647f, -0.009346f, 0.005550f, -0.083035f, 0.051295f, -0.002043f, -0.189270f, -0.080158f, 0.059838f, 0.001703f, 0.095824f, 0.035321f, 0.024314f, -0.046977f, -0.046502f,
0.045131f, 0.047180f, -0.047389f, -0.077899f, 0.069428f, 0.064538f, 0.074771f, 0.017493f, 0.052334f, -0.069929f, -0.094028f, -0.048416f, -0.096340f, -0.102277f, -0.035039f,
-0.068580f, 0.100300f, 0.076888f, 0.113537f, 0.110393f, -0.019873f, 0.067747f, 0.031009f, 0.074178f, 0.018843f, -0.058849f, -0.007665f, -0.161182f, 0.174848f, 0.066438f,
-0.207948f, 0.017266f, 0.062832f, -0.113161f, 0.019398f, -0.005485f, 0.033046f, 0.023417f, -0.042039f, -0.022701f, 0.053812f, 0.086757f, 0.017318f, -0.005353f, 0.030150f,
0.081083f, 0.011783f, -0.081788f, -0.041460f, -0.008094f, 0.035306f, -0.139100f, 0.048657f, 0.085480f, 0.102313f, 0.052426f, -0.042724f, 0.017378f, -0.079069f, 0.031353f,
0.083287f, 0.026182f, 0.056493f, 0.010681f, -0.055182f, -0.103096f, -0.059789f, -0.029798f, -0.025182f, -0.051160f, 0.020893f, 0.046390f, 0.053080f, 0.056572f, 0.087080f,
0.030942f, 0.116801f, 0.182821f, 0.025943f, -0.097125f, -0.041587f, -0.143052f, 0.031486f, -0.022601f, 0.115008f, -0.018183f, 0.064470f, -0.045751f, 0.085536f, -0.007714f,
0.135800f, 0.057931f, 0.078300f, -0.011956f, -0.098034f, 0.038028f, 0.228983f, 0.023066f, -0.031867f, 0.143816f, -0.023130f, -0.113766f, -0.077223f, 0.006457f, -0.065009f,
-0.032324f, 0.013210f, 0.046582f, -0.004997f, 0.044830f, -0.017599f, -0.181871f, 0.042704f, -0.109190f, -0.022193f, 0.018408f, -0.013037f, 0.131011f, 0.066616f, 0.061045f,
-0.055531f, 0.028757f, -0.047174f, -0.003393f, -0.033480f, -0.056134f, 0.018193f, -0.056302f, 0.026935f, 0.016860f, -0.000849f, 0.066207f, 0.127062f, 0.018013f, 0.029058f,
0.126222f, -0.061390f, -0.037010f, -0.033088f, 0.026902f, -0.073354f, -0.034145f, 0.077869f, 0.101249f, 0.057630f, -0.043073f, -0.001218f, -0.012705f, -0.054621f, -0.087625f,
-0.032183f, -0.062809f, 0.026644f, 0.088942f, 0.042824f, 0.006536f, 0.056338f, -0.132802f, -0.014557f, 0.051459f, -0.006197f, -0.041582f, 0.008308f, 0.121363f, 0.135603f,
-0.086417f, -0.131780f, -0.055067f, 0.023655f, -0.051531f, 0.073068f, -0.228967f, -0.058456f, 0.124879f, -0.092863f, 0.039365f, -0.012647f, 0.040325f, -0.103831f, 0.078927f,
-0.105784f, 0.057653f, -0.052838f, 0.036305f, 0.006770f, 0.144376f, 0.075924f, -0.033409f, 0.057853f, -0.117722f, 0.007461f, -0.169864f, -0.105500f, 0.065416f, 0.087864f,
-0.088277f, 0.041040f, -0.005428f, -0.025694f, -0.069129f, -0.035409f, 0.068115f, 0.112814f, 0.080835f, 0.018743f, -0.110726f, 0.107419f, -0.114343f, -0.160346f, 0.013359f,
-0.182957f, 0.003133f, 0.059758f, 0.065317f, 0.065324f, 0.023818f, 0.029912f, -0.004168f, -0.011356f, 0.026039f, 0.052008f, -0.164834f, 0.063576f, -0.070514f, 0.002171f,
0.203673f, 0.063920f, 0.149559f, -0.015989f, 0.044985f, -0.004019f, 0.014403f, 0.084952f, 0.032227f, -0.102983f, 0.039033f, 0.036435f, -0.082852f, -0.157121f, -0.144336f,
-0.016364f, -0.008905f, 0.014875f, -0.094953f, -0.014198f, -0.064146f, 0.012690f, 0.019475f, -0.035182f, 0.032427f, -0.077414f, 0.043352f, 0.099556f, 0.128256f, 0.140402f,
-0.115328f, -0.039662f, -0.029057f, -0.141815f, 0.029610f, -0.037245f, -0.007023f, 0.106524f, 0.087848f, 0.049614f, 0.080471f, -0.037487f, -0.032977f, -0.090180f, -0.120776f,
0.110545f, -0.065049f, -0.194352f, -0.165227f, 0.046101f, -0.038438f, -0.117581f, 0.062510f, -0.027830f, 0.065329f, 0.129586f, -0.044311f, 0.036086f, 0.044273f, 0.013533f,
0.035878f, -0.075197f, 0.039377f, 0.117075f, 0.008607f, 0.047716f, -0.065425f, -0.111226f, -0.110339f, -0.046274f, 0.038174f, -0.048808f, 0.020986f, 0.079179f, -0.044266f,
-0.024150f, -0.057563f, -0.027013f, -0.096917f, 0.013288f, 0.020612f, -0.068901f, -0.011095f, -0.067873f, -0.034482f, -0.036567f, 0.130426f, 0.092312f, -0.075268f, 0.095253f,
-0.015566f, -0.019096f, 0.095995f, -0.111977f, -0.058139f, -0.026162f, -0.063369f, -0.100749f, -0.071886f, -0.089961f, 0.067740f, 0.045345f, 0.040359f, 0.128057f, -0.005630f,
0.044565f, 0.053068f, 0.006274f, -0.225140f, 0.121260f, 0.015451f, -0.026179f, 0.011435f, -0.158097f, -0.154009f, 0.047534f, -0.131478f, 0.012219f, 0.123238f, -0.130256f,
0.012797f, -0.019566f, -0.006673f, -0.065944f, 0.092123f, 0.111287f, -0.096341f, 0.039608f, 0.043238f, -0.002605f, -0.055188f, -0.000503f, -0.027090f, -0.097786f, 0.026872f,
-0.116755f, -0.002490f, 0.138391f
};
const float model_2_bn1_weight[] = {
1.039886f, 1.084792f, 0.902861f, 0.979163f, 1.053991f, 1.056067f, 1.121654f, 0.860968f, 0.988018f, 0.982404f, 0.876418f, 0.949437f, 0.937486f, 1.012668f, 0.970850f,
0.865229f, 1.127012f, 0.957602f, 0.941727f, 0.949632f, 0.995984f, 1.070431f, 0.979967f, 1.016295f
};
const float model_2_bn1_bias[] = {
-0.145235f, -0.117643f, -0.048287f, -0.016872f, 0.038700f, -0.119689f, -0.106057f, -0.060777f, 0.097345f, -0.031384f, -0.032083f, -0.251284f, -0.158122f, -0.144913f, -0.162505f,
0.016691f, -0.132459f, -0.052812f, -0.093022f, -0.297925f, -0.248266f, -0.152883f, -0.095129f, 0.080401f
};
const float model_2_bn1_running_mean[] = {
-0.029350f, -1.030879f, 1.071524f, 0.053815f, -2.067733f, 0.078250f, -1.992812f, -0.000193f, 0.165203f, -0.191345f, 1.091365f, -0.147873f, 1.069482f, -0.784205f, -0.107717f,
1.005920f, -0.539493f, 0.398044f, -0.570256f, 0.315376f, 0.479741f, -0.359794f, -0.055227f, -0.646807f
};
const float model_2_bn1_running_var[] = {
0.610326f, 0.312745f, 0.615752f, 0.584439f, 0.448222f, 0.170774f, 0.651450f, 0.348005f, 0.405452f, 0.285193f, 0.668452f, 0.240358f, 0.691288f, 0.267342f, 0.183601f,
0.546123f, 0.322652f, 0.842532f, 0.485307f, 0.384732f, 0.213178f, 0.246529f, 0.413058f, 1.006268f
};
const float model_2_bn1_num_batches_tracked[] = {
3655.000000f
};
const float model_2_conv2_weight[] = {
-0.039242f, 0.018817f, 0.025366f, 0.017517f, 0.070497f, 0.040269f, 0.119404f, 0.131908f, 0.102211f, -0.016526f, -0.082032f, -0.091356f, 0.030656f, 0.069945f, 0.001100f,
0.117287f, 0.102331f, 0.031989f, 0.014723f, -0.039079f, 0.032435f, 0.002946f, -0.032647f, -0.034104f, 0.040577f, 0.082227f, 0.070242f, 0.100599f, 0.018117f, 0.009157f,
-0.014207f, -0.038413f, 0.014855f, 0.012769f, -0.009173f, 0.013881f, -0.130718f, 0.008738f, -0.065425f, -0.006175f, 0.023023f, -0.074472f, -0.047273f, -0.098066f, -0.102417f,
0.101949f, -0.067768f, 0.023163f, 0.025466f, -0.026407f, 0.076039f, 0.036703f, 0.005306f, -0.035204f, 0.212334f, 0.131588f, 0.089161f, 0.034979f, 0.086139f, -0.002518f,
-0.071356f, 0.038869f, 0.066735f, -0.014024f, 0.014705f, 0.008580f, -0.031418f, -0.018362f, 0.085471f, 0.027172f, 0.002724f, -0.005845f, -0.089834f, -0.070889f, -0.070348f,
-0.052475f, -0.030626f, -0.003575f, -0.007743f, -0.025337f, 0.008533f, -0.061386f, -0.085197f, -0.098670f, -0.020700f, -0.017003f, -0.103364f, 0.021870f, -0.105653f, -0.018702f,
-0.059861f, -0.027591f, -0.039888f, -0.073743f, -0.069769f, 0.024955f, -0.018016f, 0.069667f, 0.078368f, 0.057670f, 0.019488f, -0.025241f, 0.032720f, 0.068633f, 0.044957f,
-0.035399f, -0.006245f, 0.016396f, -0.004642f, -0.042170f, 0.027416f, -0.020157f, -0.031570f, -0.016065f, -0.028709f, -0.078117f, -0.058516f, -0.004940f, 0.023292f, 0.036774f,
0.045153f, 0.018219f, -0.013634f, -0.010165f, 0.023144f, -0.053264f, 0.060855f, 0.065603f, 0.048252f, 0.047835f, 0.027857f, 0.024207f, -0.021652f, -0.008632f, -0.018562f,
0.068860f, -0.008051f, 0.035892f, 0.004605f, 0.013250f, -0.068630f, -0.034784f, 0.001262f, 0.000205f, -0.070768f, -0.035300f, -0.038238f, -0.024432f, -0.084413f, -0.109073f,
-0.019038f, 0.012173f, -0.051326f, 0.059306f, -0.070439f, -0.099779f, 0.141983f, 0.027732f, 0.050526f, 0.057120f, 0.022870f, -0.003661f, 0.107402f, 0.054860f, -0.003057f,
0.055809f, -0.017505f, -0.034348f, -0.025719f, -0.051858f, -0.018508f, 0.032411f, 0.028798f, 0.032089f, -0.065257f, -0.060344f, -0.050954f, -0.091986f, -0.103799f, -0.095268f,
0.069802f, 0.019455f, -0.018326f, 0.048529f, -0.046407f, 0.016404f, 0.010929f, -0.044088f, 0.032799f, 0.087377f, 0.057383f, 0.037160f, 0.021770f, 0.035892f, 0.021558f,
-0.037534f, 0.057019f, 0.078678f, -0.001536f, -0.040488f, 0.003542f, -0.015634f, -0.038897f, -0.095647f, -0.045990f, -0.026199f, 0.003636f, -0.011478f, -0.000968f, 0.032103f,
0.011125f, -0.005901f, 0.022927f, -0.018126f, -0.042015f, -0.058467f, -0.077752f, -0.016810f, -0.046775f, 0.010106f, -0.076739f, 0.012105f, -0.032480f, -0.010015f, -0.021323f,
-0.030402f, 0.009813f, -0.100159f, 0.088973f, 0.105483f, 0.098946f, 0.097870f, 0.078981f, -0.024637f, 0.008034f, -0.034495f, -0.059318f, 0.041518f, 0.022271f, -0.014659f,
-0.065036f, -0.024480f, -0.050081f, -0.045255f, -0.044625f, 0.032882f, -0.023392f, -0.062617f, -0.082556f, -0.005069f, -0.045572f, -0.010315f, 0.026896f, -0.001826f, 0.027220f,
0.039071f, 0.030427f, -0.097538f, 0.059329f, 0.014992f, 0.015753f, -0.036804f, -0.037350f, -0.026408f, -0.056782f, -0.033339f, -0.038177f, -0.060556f, -0.042492f, -0.021487f,
-0.078459f, -0.029114f, -0.053508f, 0.016844f, 0.106079f, -0.016520f, 0.025126f, -0.024185f, -0.065844f, -0.021450f, 0.014672f, -0.013347f, -0.037528f, -0.012100f, -0.038171f,
0.004760f, -0.062418f, -0.010293f, 0.014070f, 0.069506f, 0.023513f, 0.089501f, 0.055549f, 0.065210f, 0.000714f, 0.053332f, 0.017582f, 0.015953f, -0.017283f, 0.030320f,
0.001996f, 0.030801f, 0.014799f, 0.057144f, 0.015168f, 0.022124f, 0.035037f, 0.002134f, -0.035127f, 0.011725f, 0.025479f, 0.014862f, -0.035165f, 0.052557f, -0.064302f,
-0.036884f, -0.032847f, -0.033396f, -0.069166f, -0.025644f, -0.025192f, -0.047902f, -0.038841f, -0.101283f, 0.005576f, 0.005152f, 0.107932f, -0.041361f, 0.018037f, 0.010509f,
0.014931f, -0.030097f, 0.020338f, -0.079656f, -0.075181f, -0.101356f, -0.050461f, -0.000834f, -0.059947f, -0.017561f, -0.010482f, -0.098449f, -0.053644f, -0.057903f, -0.023777f,
-0.046696f, -0.063034f, -0.066711f, -0.042527f, -0.001545f, -0.042830f, 0.008386f, -0.072598f, -0.115823f, 0.018523f, -0.021816f, -0.062500f, 0.011533f, 0.027624f, -0.048920f,
0.023312f, 0.081886f, 0.039361f, 0.065648f, 0.009746f, 0.042264f, 0.020108f, 0.064625f, 0.003371f, -0.054286f, -0.002111f, 0.007354f, -0.020876f, -0.033622f, 0.016444f,
-0.044935f, -0.017294f, 0.024724f, -0.000783f, 0.045048f, -0.008144f, 0.029604f, -0.026034f, 0.003203f, -0.002377f, -0.034547f, -0.015702f, 0.026613f, 0.030603f, 0.020501f,
-0.008961f, 0.027599f, 0.010301f, 0.050678f, -0.033992f, 0.036506f, -0.005857f, -0.046797f, -0.009678f, -0.048138f, 0.028484f, -0.055992f, -0.097821f, -0.026549f, -0.064118f,
-0.014402f, -0.046543f, -0.053774f, -0.032599f, -0.064762f, -0.120754f, -0.066253f, -0.068137f, -0.036297f, 0.011288f, 0.002579f, 0.050450f, -0.029292f, -0.004422f, -0.017745f,
0.048496f, 0.077308f, 0.065677f, 0.026193f, -0.010096f, 0.020298f, 0.069939f, 0.032872f, 0.025490f, 0.068434f, 0.083080f, 0.069379f, 0.059728f, 0.003643f, 0.044277f,
0.022539f, 0.042667f, 0.072005f, 0.132513f, 0.117793f, 0.098045f, 0.072735f, -0.012513f, -0.107896f, 0.013044f, 0.042839f, -0.074664f, 0.113821f, 0.025548f, -0.027725f,
-0.035514f, -0.021535f, 0.041331f, 0.063602f, 0.065334f, 0.047378f, 0.048887f, -0.016426f, -0.000250f, 0.005351f, -0.000906f, 0.041540f, 0.065169f, -0.016400f, 0.032503f,
0.025547f, 0.009456f, 0.058953f, -0.082860f, -0.033407f, -0.019732f, -0.071270f, -0.000578f, -0.030614f, -0.027693f, -0.038225f, -0.052511f, 0.014388f, 0.019753f, -0.023074f,
-0.021252f, -0.022798f, -0.009645f, 0.099072f, 0.018424f, 0.014486f, 0.097788f, 0.074781f, 0.059825f, 0.139273f, 0.118367f, 0.114950f, -0.061373f, -0.005346f, -0.061068f,
0.001909f, -0.016491f, -0.039346f, -0.003182f, 0.025824f, 0.006994f, 0.064213f, 0.050574f, 0.042415f, -0.061997f, -0.040854f, -0.066721f, -0.034470f, -0.088250f, -0.061636f,
-0.015500f, -0.000579f, 0.003028f, -0.069504f, -0.051978f, -0.080129f, -0.088028f, -0.039898f, -0.065611f, -0.026958f, -0.051477f, -0.103754f, -0.072255f, -0.132263f, -0.006553f,
-0.028593f, 0.021218f, 0.020671f, -0.019450f, -0.044648f, 0.031267f, 0.086467f, 0.004237f, 0.031987f, 0.047665f, 0.024041f, 0.039388f, 0.015502f, 0.003658f, 0.022290f,
0.015383f, -0.046206f, -0.011224f, 0.014447f, -0.012385f, 0.021172f, -0.010421f, -0.073802f, -0.070806f, -0.015720f, -0.006490f, 0.014109f, 0.014270f, 0.046241f, 0.005210f,
0.010384f, 0.007321f, -0.033365f, 0.052751f, 0.007372f, 0.062603f, 0.057715f, -0.007885f, 0.068308f, 0.037317f, -0.019365f, 0.026614f, 0.062553f, 0.025659f, 0.033492f,
0.031663f, -0.029290f, 0.006057f, -0.000479f, -0.061309f, -0.041033f, -0.044681f, -0.016623f, -0.003854f, -0.115242f, -0.105368f, -0.078088f, -0.048108f, 0.021480f, -0.042779f,
0.058912f, -0.006232f, -0.093261f, 0.094211f, -0.013608f, -0.027694f, 0.027200f, -0.032409f, 0.025755f, 0.103440f, 0.002237f, 0.014692f, 0.044802f, 0.011229f, 0.023001f,
0.010457f, 0.061713f, -0.067741f, -0.043155f, -0.053553f, 0.003760f, 0.021503f, -0.063624f, 0.004574f, -0.033820f, -0.130358f, -0.077263f, -0.013148f, -0.072149f, 0.016586f,
0.064094f, 0.036268f, 0.014946f, 0.017156f, -0.053452f, 0.007338f, 0.051201f, 0.044808f, 0.032765f, 0.036254f, 0.025691f, 0.050132f, -0.012111f, 0.103504f, 0.098186f,
-0.014745f, -0.002489f, -0.025676f, -0.014729f, 0.008344f, -0.043674f, -0.041347f, -0.050401f, -0.051206f, 0.025181f, -0.036701f, 0.000740f, -0.053829f, -0.041720f, 0.021555f,
0.035099f, 0.017759f, -0.016232f, -0.146524f, -0.029604f, -0.041929f, 0.036102f, 0.001498f, -0.010584f, -0.055542f, -0.064685f, -0.101255f, -0.051313f, -0.061795f, -0.056769f,
0.055804f, -0.030412f, 0.059417f, 0.092829f, 0.049718f, -0.032560f, -0.071367f, 0.032216f, -0.034823f, 0.045074f, 0.009972f, 0.030154f, -0.033847f, -0.024107f, 0.045397f,
-0.011918f, -0.043857f, -0.047636f, -0.084946f, -0.051608f, -0.075165f, -0.033992f, -0.009279f, 0.032919f, 0.017008f, 0.014868f, 0.034069f, 0.064688f, 0.007396f, -0.053269f,
0.048067f, 0.041108f, 0.004666f, -0.059693f, -0.033435f, -0.099481f, -0.074055f, -0.027597f, -0.022478f, -0.088341f, -0.050177f, -0.065811f, -0.106580f, -0.019983f, -0.036275f,
0.047624f, 0.056999f, -0.029154f, -0.013414f, 0.081287f, -0.075707f, 0.054045f, -0.015271f, -0.079473f, -0.002637f, -0.031306f, 0.024872f, -0.044958f, -0.084508f, -0.095805f,
0.032020f, 0.070617f, 0.063144f, 0.033874f, 0.022711f, 0.048174f, 0.002274f, 0.038034f, 0.074598f, 0.010319f, 0.018339f, -0.029419f, 0.072909f, -0.002796f, 0.013088f,
0.021068f, 0.025360f, 0.014711f, 0.008572f, -0.004982f, -0.024763f, 0.077305f, 0.011045f, -0.002540f, -0.008522f, 0.055741f, -0.011893f, -0.047934f, -0.007257f, -0.062524f,
-0.055419f, -0.043553f, -0.040787f, -0.079752f, -0.086165f, -0.112268f, 0.105743f, -0.005544f, 0.013278f, -0.022553f, -0.005915f, 0.027261f, 0.041665f, 0.019570f, 0.040119f,
-0.051868f, -0.070487f, -0.120860f, -0.048731f, -0.029088f, -0.068100f, -0.039032f, -0.018007f, -0.126952f, -0.055002f, -0.027552f, -0.006876f, -0.048161f, -0.016284f, -0.039522f,
-0.039936f, 0.004005f, -0.011198f, -0.045237f, -0.020931f, -0.056634f, -0.047811f, -0.020148f, -0.094852f, -0.036792f, -0.036895f, 0.035794f, 0.070129f, 0.017303f, 0.050863f,
0.078240f, 0.052009f, 0.016202f, 0.067227f, 0.047842f, 0.025872f, -0.042004f, 0.020928f, 0.006283f, 0.005459f, -0.095481f, 0.055844f, -0.034913f, -0.039711f, -0.018169f,
0.002496f, 0.021417f, -0.023027f, 0.009802f, 0.044178f, 0.020674f, 0.002112f, 0.018429f, 0.004930f, 0.037647f, -0.003113f, 0.096451f, 0.054569f, 0.030577f, 0.045078f,
0.057152f, 0.025787f, 0.053058f, -0.058820f, 0.002670f, 0.008679f, -0.064153f, -0.011299f, -0.053245f, -0.160318f, -0.053285f, -0.049499f, -0.060760f, -0.044247f, -0.054279f,
-0.021333f, -0.037608f, -0.099598f, -0.086088f, -0.069145f, -0.036779f, 0.010848f, 0.071262f, 0.079845f, -0.059908f, -0.042775f, 0.040185f, 0.132261f, 0.084387f, 0.115655f,
-0.032555f, 0.006439f, -0.053357f, 0.052812f, -0.031391f, -0.019102f, 0.054999f, 0.008374f, 0.001286f, 0.037346f, 0.007488f, -0.005096f, 0.092376f, 0.038592f, 0.044009f,
0.093591f, 0.088338f, 0.050943f, 0.099866f, -0.019731f, -0.100035f, 0.043147f, -0.027308f, -0.067833f, 0.038030f, 0.103433f, 0.021811f, -0.018713f, 0.048960f, 0.060152f,
-0.063122f, 0.079502f, 0.059801f, 0.056761f, -0.026197f, 0.052103f, 0.045805f, 0.039407f, 0.065937f, 0.005038f, 0.047235f, -0.001004f, 0.064289f, 0.033577f, 0.061115f,
-0.036137f, 0.026458f, -0.125820f, -0.087203f, 0.016806f, -0.028540f, -0.087978f, 0.023695f, -0.101356f, 0.098603f, 0.064262f, 0.011675f, 0.046582f, -0.024557f, 0.010805f,
0.078166f, -0.024285f, 0.044081f, 0.030210f, 0.093945f, 0.060281f, 0.084158f, 0.166782f, 0.073882f, -0.115984f, -0.027363f, -0.013772f, -0.049686f, 0.004996f, -0.036853f,
0.004620f, 0.010532f, 0.047888f, 0.066623f, 0.059351f, 0.089378f, -0.060363f, -0.101301f, -0.016897f, -0.013239f, -0.081322f, -0.076208f, -0.040706f, -0.011611f, 0.030595f,
-0.062706f, -0.049132f, -0.004790f, -0.118659f, -0.080762f, -0.048761f, -0.011216f, -0.064255f, -0.066914f, -0.063057f, -0.059686f, -0.013934f, -0.069562f, -0.041160f, 0.055651f,
0.003715f, -0.008614f, 0.045239f, 0.092060f, -0.032075f, -0.009093f, 0.000251f, -0.013167f, 0.002820f, 0.018600f, 0.052356f, 0.093925f, -0.019798f, -0.072015f, -0.009495f,
0.003900f, 0.005670f, -0.010616f, -0.060627f, -0.040712f, -0.043642f, -0.030531f, 0.021885f, 0.004009f, 0.084397f, 0.035429f, 0.017606f, -0.031631f, 0.023719f, -0.019644f,
0.097987f, 0.014768f, 0.012744f, 0.069808f, 0.031919f, 0.071291f, 0.031784f, -0.055299f, 0.024300f, 0.056841f, -0.008896f, 0.042033f, 0.058006f, 0.046569f, -0.031782f,
0.009302f, -0.021677f, -0.002094f, -0.018261f, -0.055021f, -0.016354f, -0.120549f, -0.077377f, -0.078511f, -0.027208f, -0.045322f, -0.118714f, 0.025233f, 0.002500f, -0.011917f,
0.032996f, 0.032076f, -0.007557f, -0.013490f, 0.066286f, 0.002591f, 0.082734f, 0.000203f, 0.009296f, 0.043818f, 0.031540f, 0.006382f, 0.078117f, 0.001740f, 0.002833f,
-0.041320f, -0.116961f, -0.025743f, 0.068689f, 0.029798f, -0.007439f, -0.138463f, -0.100497f, -0.097548f, -0.034296f, -0.043977f, -0.022075f, 0.068531f, 0.020505f, -0.003405f,
0.056934f, -0.021403f, -0.036396f, -0.001429f, 0.065501f, 0.010041f, -0.004669f, 0.046621f, 0.003328f, 0.017976f, 0.049647f, 0.087122f, 0.037492f, 0.011400f, 0.009177f,
-0.041072f, 0.004524f, -0.061465f, -0.025473f, -0.038004f, -0.032501f, -0.061116f, -0.037379f, -0.044479f, -0.029444f, -0.074563f, -0.022755f, 0.091482f, 0.012165f, -0.075565f,
-0.119112f, -0.049146f, -0.060901f, -0.017706f, -0.082813f, 0.006379f, -0.048111f, -0.016968f, -0.105023f, -0.035733f, -0.046126f, -0.049695f, 0.047775f, 0.004361f, 0.010716f,
0.054047f, 0.013556f, 0.036863f, 0.007892f, 0.014535f, 0.001382f, 0.002019f, 0.042693f, 0.061982f, -0.068824f, 0.012719f, -0.050404f, -0.039961f, -0.056157f, -0.042588f,
-0.020117f, -0.054539f, -0.044688f, -0.024654f, 0.008130f, 0.058992f, 0.072462f, 0.053565f, 0.052454f, 0.062549f, -0.011833f, -0.096463f, 0.083258f, 0.057633f, -0.009419f,
-0.058244f, -0.049392f, -0.067459f, -0.099680f, -0.070481f, -0.060281f, -0.061305f, -0.042118f, -0.058508f, -0.053884f, -0.000216f, -0.051315f, 0.013556f, 0.091968f, -0.006457f,
-0.032844f, 0.033009f, -0.090617f, -0.007038f, -0.016249f, -0.065134f, 0.036477f, -0.045465f, 0.020745f, -0.037583f, -0.038714f, -0.121201f, 0.043229f, 0.093608f, 0.079571f,
0.026447f, 0.028120f, 0.062644f, 0.005680f, 0.051760f, 0.070195f, 0.023914f, 0.007498f, -0.022840f, 0.051989f, 0.016120f, 0.008070f, -0.000934f, 0.029280f, 0.030781f,
-0.003646f, -0.017124f, -0.039980f, 0.099461f, -0.030733f, 0.009497f, -0.012622f, 0.041865f, -0.001215f, -0.055329f, -0.038025f, -0.042694f, -0.097444f, -0.007038f, -0.054107f,
-0.035939f, -0.080968f, -0.116404f, 0.071477f, 0.062782f, 0.041176f, 0.044235f, -0.012962f, 0.019083f, 0.002445f, 0.017971f, 0.058790f, -0.083160f, -0.109496f, -0.111963f,
-0.029724f, -0.014877f, -0.070039f, -0.067112f, -0.076135f, -0.085278f, -0.056724f, -0.048060f, -0.015801f, -0.050992f, -0.013963f, -0.017675f, -0.020199f, -0.006081f, -0.004795f,
-0.037312f, -0.046419f, -0.081662f, -0.025572f, -0.003635f, -0.028270f, -0.043014f, -0.002923f, -0.011057f, 0.084284f, 0.057538f, 0.044653f, 0.064667f, 0.049457f, 0.033544f,
0.041516f, 0.070148f, 0.017331f, -0.027614f, -0.019232f, -0.003039f, -0.031950f, -0.047388f, 0.065482f, -0.041927f, -0.065494f, -0.018952f, -0.005688f, 0.013085f, 0.009650f,
0.030548f, 0.032447f, -0.022006f, -0.013090f, 0.033069f, 0.039902f, 0.054715f, 0.019666f, 0.038532f, 0.072423f, 0.070399f, 0.094128f, 0.034343f, 0.027677f, 0.026045f,
-0.074002f, -0.018416f, -0.016887f, -0.015045f, -0.036520f, -0.013158f, -0.161540f, -0.050604f, -0.103494f, -0.071353f, -0.046288f, -0.088796f, 0.009312f, -0.057593f, -0.019512f,
-0.109344f, -0.064683f, -0.092592f, 0.017626f, 0.044190f, 0.058017f, -0.052134f, -0.005369f, 0.026718f, 0.111129f, 0.123576f, 0.123566f, -0.003297f, -0.032316f, -0.131204f,
0.044075f, 0.019564f, -0.022567f, 0.105870f, 0.020513f, 0.020192f, -0.128871f, -0.078436f, -0.052645f, -0.019402f, -0.037570f, -0.070315f, -0.051111f, -0.035993f, -0.064693f,
-0.038904f, -0.042245f, -0.111287f, 0.078445f, 0.023666f, 0.118767f, 0.064871f, 0.049687f, -0.012403f, -0.041476f, 0.062123f, -0.036523f, -0.000889f, 0.026006f, 0.025072f,
-0.082316f, -0.054366f, -0.006917f, -0.040043f, -0.094249f, -0.006838f, -0.065607f, -0.056359f, -0.060384f, 0.032145f, 0.010784f, 0.034648f, 0.087340f, 0.044292f, 0.064348f,
0.045330f, -0.002887f, -0.109144f, 0.065595f, 0.026977f, -0.002750f, -0.080089f, -0.054173f, -0.089212f, -0.116281f, -0.038677f, -0.063354f, -0.059866f, -0.015008f, -0.072690f,
-0.046205f, 0.022385f, -0.115425f, 0.017001f, 0.083629f, 0.034825f, -0.042767f, 0.013572f, -0.096492f, 0.019316f, -0.002584f, -0.048888f, -0.025234f, -0.019895f, 0.017851f,
-0.046370f, -0.074960f, -0.086591f, 0.031078f, 0.059048f, 0.094431f, 0.048396f, 0.083690f, 0.079335f, -0.011762f, 0.063689f, 0.051388f, -0.005420f, -0.006170f, -0.010130f,
0.077237f, 0.008232f, 0.041830f, 0.020672f, 0.014478f, 0.031278f, 0.011808f, -0.047919f, -0.038289f, 0.038364f, 0.045976f, 0.061823f, 0.057599f, -0.001406f, -0.031596f,
-0.120310f, 0.001620f, -0.050397f, -0.064157f, -0.066463f, -0.050530f, -0.054494f, -0.096160f, -0.129552f, 0.095572f, 0.066652f, 0.051694f, 0.033362f, -0.001155f, 0.019880f,
-0.007572f, -0.016202f, 0.068198f, -0.121120f, -0.088306f, -0.138151f, 0.008256f, -0.047471f, -0.038750f, -0.084745f, -0.041508f, -0.124938f, -0.058968f, -0.077078f, -0.002004f,
-0.038197f, -0.002719f, -0.016798f, -0.021887f, -0.031426f, -0.023548f, -0.058667f, -0.059493f, -0.069854f, -0.017638f, 0.009309f, -0.042620f, -0.045375f, 0.000328f, -0.009991f,
0.082545f, 0.059405f, 0.065022f, 0.083577f, 0.033870f, 0.011802f, -0.016673f, 0.064418f, 0.042461f, -0.044306f, 0.023957f, -0.008777f, 0.029936f, -0.021231f, 0.073094f,
-0.075763f, -0.096023f, -0.015228f, 0.001526f, -0.001123f, 0.013393f, 0.001664f, 0.009474f, -0.001259f, 0.000960f, 0.034127f, -0.013384f, 0.067893f, -0.015866f, 0.107722f,
0.076095f, 0.077549f, 0.068323f, 0.045259f, 0.042042f, 0.037998f, -0.074905f, -0.056149f, -0.005201f, -0.006539f, 0.008836f, -0.075190f, -0.152527f, -0.045340f, -0.059295f,
-0.054854f, -0.063623f, -0.098372f, -0.005801f, -0.028814f, -0.038759f, -0.132320f, -0.089967f, -0.109464f, 0.008796f, 0.067228f, 0.079453f, -0.042730f, -0.031865f, 0.075013f,
0.125088f, 0.121141f, 0.142964f, 0.054856f, 0.003055f, -0.123452f, 0.025963f, 0.003402f, -0.056139f, 0.124083f, 0.064824f, 0.067425f, -0.087203f, -0.072193f, -0.033703f,
-0.006592f, -0.019131f, -0.070784f, -0.041550f, -0.067467f, -0.068590f, 0.050260f, 0.065486f, -0.011156f, 0.040189f, -0.073703f, -0.071643f, 0.021133f, 0.058032f, 0.004771f,
0.031042f, 0.052859f, -0.026982f, -0.031267f, -0.033106f, 0.022038f, 0.009931f, -0.028362f, 0.049065f, -0.048198f, -0.106358f, -0.028956f, 0.001876f, 0.013133f, 0.029363f,
-0.000036f, -0.051929f, -0.013524f, 0.074552f, 0.056680f, -0.002382f, 0.066497f, -0.032453f, -0.049456f, 0.059330f, 0.030996f, 0.034048f, -0.090904f, -0.097917f, -0.086997f,
0.005440f, -0.033984f, -0.049592f, -0.076408f, -0.032215f, -0.022939f, 0.016517f, 0.038223f, 0.031203f, -0.037331f, 0.001886f, -0.093509f, -0.047357f, 0.035816f, -0.040660f,
-0.056456f, -0.029331f, -0.062312f, 0.038396f, -0.023342f, 0.019633f, -0.025648f, -0.019622f, -0.046869f, 0.035762f, 0.041798f, 0.089719f, 0.027275f, 0.042356f, 0.001377f,
-0.012071f, 0.032956f, 0.040290f, 0.025709f, -0.019207f, -0.007021f, 0.034600f, 0.071346f, 0.012736f, 0.038582f, 0.022581f, 0.020650f, 0.015921f, -0.015452f, -0.038684f,
0.032509f, 0.008158f, 0.051212f, -0.021648f, 0.009127f, -0.027552f, -0.065729f, -0.009019f, -0.107736f, -0.047336f, -0.074285f, -0.028041f, -0.030770f, -0.025273f, -0.033123f,
0.029508f, 0.032368f, 0.046859f, 0.012642f, 0.034958f, -0.022509f, 0.038880f, 0.011366f, 0.086398f, -0.079174f, -0.062468f, -0.103915f, -0.005114f, -0.041060f, -0.066860f,
-0.047665f, -0.038977f, -0.053143f, -0.034545f, -0.059854f, -0.034560f, -0.020182f, 0.001955f, 0.020431f, -0.025075f, 0.001742f, -0.032566f, -0.000511f, -0.008105f, -0.095717f,
-0.013404f, -0.012967f, -0.034848f, 0.016533f, -0.023420f, -0.025163f, 0.091065f, 0.041816f, 0.043147f, -0.002593f, 0.039235f, -0.018539f, 0.033294f, 0.036353f, 0.043437f,
-0.057625f, -0.034825f, 0.004016f, -0.015140f, -0.012728f, 0.019303f, -0.049278f, -0.090851f, -0.038046f, -0.014267f, -0.006196f, 0.018899f, 0.004216f, 0.048092f, 0.047891f,
-0.024821f, 0.008428f, 0.060089f, -0.002233f, -0.038547f, 0.084867f, 0.082094f, 0.018234f, 0.037123f, 0.065421f, 0.017236f, 0.016670f, -0.081060f, 0.011075f, -0.051164f,
-0.004416f, -0.006965f, -0.074687f, -0.103857f, 0.011036f, -0.096584f, -0.055223f, -0.037081f, -0.090277f, -0.003615f, -0.018910f, -0.009772f, -0.052869f, -0.057894f, -0.123365f,
-0.000927f, -0.011502f, 0.032055f, -0.020747f, -0.005251f, 0.063640f, 0.114170f, 0.106740f, 0.098018f, 0.030436f, -0.031213f, -0.018532f, -0.012666f, 0.022903f, -0.073858f,
0.054426f, 0.021884f, -0.010843f, -0.055243f, -0.003983f, -0.005132f, -0.020454f, 0.020800f, -0.029532f, -0.042342f, -0.056925f, -0.032186f, -0.061042f, -0.027341f, -0.084821f,
0.100551f, 0.062490f, 0.082229f, 0.115994f, 0.036382f, 0.003793f, -0.012791f, 0.024686f, -0.058557f, 0.014439f, 0.034699f, -0.008983f, -0.115579f, -0.025193f, -0.053174f,
-0.055661f, -0.010614f, 0.025406f, -0.064354f, -0.031006f, 0.008524f, 0.020919f, -0.065840f, -0.037197f, 0.048387f, 0.016446f, -0.004759f, -0.011920f, 0.009252f, -0.070411f,
0.098692f, 0.029794f, 0.023465f, -0.045024f, -0.041630f, -0.000445f, -0.057455f, -0.057470f, -0.000846f, -0.065270f, -0.037904f, -0.043130f, -0.062172f, -0.019874f, -0.031973f,
0.014295f, 0.017675f, 0.074425f, -0.034855f, 0.078880f, -0.101189f, -0.012811f, -0.038580f, -0.052380f, 0.026330f, -0.034724f, -0.023955f, -0.022451f, -0.031724f, -0.056489f,
-0.005875f, 0.056867f, 0.020534f, 0.082010f, 0.083563f, 0.025297f, 0.041084f, 0.076499f, 0.029696f, 0.003581f, 0.027876f, 0.000847f, 0.031572f, 0.002152f, 0.046383f,
-0.003098f, 0.038569f, 0.023647f, -0.019880f, 0.034890f, -0.062396f, 0.056329f, -0.013975f, 0.001245f, 0.038015f, -0.005656f, 0.003735f, -0.076900f, 0.023568f, -0.026252f,
-0.068556f, -0.080759f, -0.049178f, -0.043953f, -0.092360f, -0.090589f, 0.064690f, 0.018545f, 0.069319f, -0.027852f, -0.015748f, 0.035851f, 0.005274f, 0.002851f, 0.059127f,
-0.073957f, -0.094182f, -0.074535f, -0.050193f, -0.036508f, -0.045248f, -0.045937f, -0.047161f, -0.127834f, -0.036199f, -0.035092f, -0.003610f, -0.062864f, -0.066163f, -0.053871f,
-0.024424f, -0.051040f, 0.006006f, -0.037748f, -0.096927f, -0.032438f, -0.009388f, -0.037175f, -0.062962f, 0.014741f, -0.017553f, -0.004281f, 0.052274f, 0.060407f, 0.052566f,
0.027963f, 0.030013f, 0.016475f, 0.045484f, 0.055641f, 0.056505f, -0.016153f, -0.002617f, 0.003125f, -0.004393f, 0.005236f, -0.062061f, -0.122779f, -0.069821f, 0.025625f,
0.021604f, -0.015548f, -0.030423f, 0.018397f, -0.052565f, -0.009907f, 0.011595f, 0.016403f, -0.047333f, 0.084152f, -0.022100f, 0.037591f, 0.041811f, -0.021107f, 0.086020f,
0.069700f, 0.010941f, 0.063871f, -0.019999f, -0.058050f, 0.062812f, -0.026882f, 0.025542f, -0.043309f, -0.117926f, -0.073390f, 0.007113f, -0.028682f, -0.074040f, -0.056705f,
-0.018107f, -0.011613f, -0.086688f, -0.099169f, -0.068745f, -0.089525f, 0.022915f, 0.019699f, 0.013202f, -0.023097f, 0.042546f, -0.022951f, 0.070104f, 0.065838f, 0.065292f,
0.031127f, -0.018252f, -0.116601f, 0.109025f, 0.064252f, 0.015526f, 0.075951f, 0.095097f, 0.043232f, -0.034479f, -0.021036f, -0.040581f, -0.033431f, -0.025828f, -0.031182f,
-0.071965f, -0.075932f, -0.039573f, 0.068909f, 0.046934f, 0.057127f, 0.024478f, -0.058288f, -0.060338f, 0.033499f, 0.091502f, -0.022854f, -0.023850f, -0.012300f, 0.017958f,
-0.059624f, -0.044421f, -0.055839f, 0.026581f, 0.030330f, -0.006887f, -0.094866f, -0.103756f, -0.096136f, 0.110099f, 0.050378f, 0.068109f, -0.051474f, -0.071043f, 0.038270f,
0.054910f, 0.026976f, -0.012774f, 0.007641f, -0.008359f, -0.038404f, 0.092533f, 0.022767f, 0.024693f, -0.148447f, -0.069673f, -0.099048f, -0.018790f, -0.016548f, -0.037820f,
-0.035888f, -0.020244f, -0.024410f, -0.006880f, 0.051877f, 0.026251f, -0.125596f, 0.003378f, -0.097108f, -0.026595f, 0.036015f, -0.026514f, -0.013459f, -0.049210f, -0.043874f,
0.014118f, -0.026826f, -0.032917f, -0.004861f, -0.014767f, -0.032259f, 0.009791f, 0.051323f, 0.122022f, 0.040243f, 0.034522f, 0.024903f, 0.054307f, 0.063288f, 0.051265f,
0.017830f, 0.005290f, 0.038451f, 0.031019f, 0.021522f, 0.049484f, 0.018275f, -0.001569f, -0.008495f, 0.003521f, -0.011710f, -0.040028f, 0.055361f, -0.012608f, 0.011153f,
0.073121f, -0.011303f, -0.009326f, -0.090100f, -0.034828f, -0.035782f, -0.064784f, -0.040131f, -0.064217f, -0.046513f, -0.065638f, -0.044068f, 0.020884f, 0.067235f, 0.036888f,
0.081927f, 0.047011f, 0.005849f, 0.016699f, 0.056019f, 0.039957f, -0.043709f, -0.055484f, -0.115915f, -0.042455f, -0.029951f, -0.050204f, -0.048716f, -0.057712f, -0.081494f,
-0.060211f, -0.089416f, -0.030892f, -0.042870f, -0.034790f, -0.028390f, -0.006941f, -0.038871f, -0.019580f, -0.021915f, -0.028999f, -0.089212f, -0.050036f, -0.032397f, -0.049653f,
0.006304f, 0.048965f, -0.023131f, 0.097580f, 0.042556f, 0.075159f, 0.012350f, 0.040572f, 0.049433f, -0.000214f, 0.087875f, 0.035171f, -0.024439f, 0.035958f, -0.031972f,
-0.033307f, -0.046363f, -0.014695f, -0.073903f, -0.038627f, -0.006476f, 0.035753f, -0.048596f, 0.004881f, 0.006486f, 0.076165f, -0.021902f, 0.021409f, -0.045405f, 0.001785f,
0.056317f, 0.009122f, 0.071205f, 0.068785f, -0.021903f, 0.034034f, 0.061991f, 0.012197f, 0.061518f, -0.081480f, -0.041813f, 0.026119f, -0.053527f, 0.028681f, 0.016618f,
-0.103079f, -0.059867f, -0.024895f, -0.040251f, -0.080341f, -0.102509f, -0.039509f, 0.007531f, -0.051658f, -0.047138f, -0.057283f, -0.066320f, -0.016257f, 0.029145f, -0.050633f,
-0.003598f, 0.044614f, 0.021518f, 0.058024f, 0.058308f, 0.053710f, 0.063726f, 0.011592f, -0.069947f, 0.058021f, 0.089365f, -0.009405f, 0.104711f, 0.041155f, 0.001164f,
-0.028334f, -0.008881f, -0.060478f, 0.018669f, -0.000426f, -0.029361f, -0.063067f, -0.045313f, -0.074776f, 0.059953f, 0.029542f, 0.059557f, 0.061646f, -0.066046f, -0.130140f,
-0.009800f, 0.026285f, 0.012814f, -0.006405f, 0.038144f, 0.079171f, -0.045350f, 0.050602f, -0.053644f, 0.008380f, 0.023544f, 0.013431f, -0.076322f, -0.069054f, -0.046842f,
-0.011433f, -0.015340f, 0.069986f, -0.036312f, -0.048372f, 0.054130f, 0.078298f, 0.023990f, 0.014777f, 0.033570f, -0.022583f, -0.027182f, 0.054392f, 0.032431f, -0.043762f,
-0.153180f, -0.040817f, -0.110303f, -0.023666f, -0.037762f, -0.042743f, -0.062019f, -0.029510f, -0.010348f, -0.012510f, 0.089166f, -0.009502f, -0.105054f, 0.045684f, -0.064800f,
-0.091089f, 0.013295f, -0.049038f, -0.009472f, -0.057871f, -0.025394f, 0.016974f, -0.048254f, -0.050299f, 0.043330f, -0.041825f, -0.051872f, 0.009705f, 0.022557f, 0.079581f,
0.005356f, 0.052507f, 0.031690f, -0.012070f, 0.061216f, 0.042735f, 0.003327f, 0.011660f, 0.020726f, 0.080526f, 0.035946f, 0.066144f, 0.049686f, 0.010939f, -0.034743f,
-0.001914f, 0.014007f, 0.018895f, 0.035301f, -0.032343f, -0.020455f, 0.002996f, -0.028196f, 0.006200f, -0.117965f, -0.035000f, -0.099864f, -0.031360f, -0.032429f, -0.071953f,
-0.062949f, 0.000865f, -0.035677f, 0.016132f, 0.032041f, 0.024827f, 0.114099f, 0.046338f, 0.017147f, 0.038591f, 0.021303f, 0.058836f, -0.022919f, -0.051206f, -0.083569f,
-0.065776f, -0.018676f, -0.090237f, -0.004473f, -0.009792f, -0.056069f, -0.064210f, -0.059151f, -0.029707f, -0.002608f, 0.016448f, 0.003416f, -0.045130f, -0.015323f, -0.034087f,
-0.029831f, 0.008290f, -0.076474f, -0.042219f, -0.060376f, -0.050383f, 0.053136f, 0.019669f, 0.029859f, 0.128089f, 0.018999f, 0.052396f, 0.044489f, 0.065719f, 0.024670f,
0.001175f, 0.052700f, -0.014640f, -0.028839f, 0.006457f, -0.043083f, -0.052874f, -0.003111f, -0.079627f, -0.020145f, -0.027791f, -0.055099f, -0.025092f, 0.030692f, 0.011718f,
0.031591f, 0.064647f, 0.060429f, -0.024761f, 0.032232f, 0.049191f, 0.021965f, -0.026737f, 0.004479f, 0.076648f, 0.008023f, 0.072382f, 0.041387f, 0.068651f, 0.031633f,
-0.072789f, -0.014192f, 0.019418f, -0.053270f, -0.009497f, -0.049564f, -0.104939f, -0.029531f, -0.062870f, -0.081198f, -0.072894f, -0.085408f, 0.003305f, -0.012926f, -0.046563f,
-0.059295f, -0.067990f, -0.118626f, -0.037926f, 0.023790f, 0.003725f, 0.027300f, 0.008725f, 0.036427f, 0.059190f, 0.110877f, 0.108772f, 0.053696f, -0.000965f, 0.007923f,
-0.009182f, -0.046090f, -0.047917f, 0.074110f, 0.045824f, -0.054487f, 0.055489f, 0.053462f, 0.074628f, 0.100411f, 0.055846f, -0.005567f, 0.124891f, 0.050140f, 0.076906f,
0.080096f, 0.021196f, -0.144122f, 0.034890f, 0.054846f, -0.068676f, 0.090861f, 0.072640f, -0.023844f, -0.030950f, 0.022797f, 0.015409f, 0.019456f, -0.016158f, 0.010704f,
0.081018f, -0.024483f, 0.075569f, 0.022262f, 0.023343f, 0.052951f, 0.042044f, -0.054891f, 0.030323f, 0.000464f, -0.061938f, 0.068287f, -0.126855f, 0.010752f, -0.029197f,
-0.010506f, -0.021789f, -0.049789f, -0.030784f, -0.101741f, -0.081811f, 0.076914f, -0.016042f, -0.001241f, 0.053764f, -0.047099f, 0.000403f, 0.029371f, 0.039140f, -0.031095f,
0.096269f, 0.140787f, 0.111151f, 0.063022f, 0.111049f, 0.023732f, 0.031637f, 0.035062f, -0.001682f, -0.003031f, -0.028084f, 0.001977f, -0.006462f, 0.005421f, 0.047651f,
0.059208f, -0.033399f, 0.011171f, -0.072138f, -0.068791f, -0.010281f, -0.014527f, -0.012439f, -0.034032f, -0.013727f, -0.008127f, -0.000146f, -0.133766f, -0.043079f, -0.042873f,
-0.054758f, -0.032306f, -0.116923f, -0.029136f, -0.087982f, -0.027755f, -0.015304f, -0.087575f, 0.020483f, -0.070679f, -0.017385f, -0.017617f, -0.022969f, -0.048139f, 0.005174f,
0.055852f, -0.061701f, -0.006771f, 0.016279f, 0.089882f, 0.101325f, 0.014701f, -0.006840f, 0.020356f, 0.063414f, -0.042392f, 0.035023f, -0.034225f, -0.082915f, -0.031623f,
-0.042568f, -0.013580f, 0.002017f, 0.028000f, -0.005012f, 0.012431f, -0.029579f, -0.019404f, -0.004352f, 0.023596f, 0.012313f, -0.038451f, 0.096664f, 0.025509f, 0.091796f,
0.043004f, -0.008722f, 0.015183f, -0.000155f, -0.009895f, 0.044046f, 0.076218f, 0.001133f, -0.001705f, -0.031642f, 0.005844f, 0.004738f, -0.013623f, -0.015147f, -0.006562f,
-0.107148f, 0.019271f, -0.074306f, -0.046540f, -0.035945f, -0.055378f, -0.031443f, -0.034190f, -0.043750f, 0.067444f, -0.074272f, -0.062061f, 0.077709f, 0.013414f, -0.000664f,
0.082601f, 0.037328f, -0.009269f, 0.104820f, -0.011101f, 0.014550f, 0.084619f, 0.052001f, -0.019976f, -0.023249f, -0.020342f, -0.023785f, 0.064336f, 0.000453f, 0.045462f,
-0.085309f, -0.029606f, -0.023504f, -0.023552f, -0.116643f, -0.042610f, 0.075534f, -0.014477f, 0.040102f, 0.032881f, -0.017282f, 0.042142f, -0.034225f, -0.098803f, 0.011113f,
0.056110f, 0.031153f, 0.051651f, 0.030504f, 0.036987f, 0.055492f, -0.001428f, 0.066459f, 0.058091f, -0.025127f, -0.032241f, -0.004450f, -0.065546f, 0.012193f, -0.075775f,
-0.009620f, -0.022587f, -0.012792f, 0.013332f, -0.020643f, 0.035397f, -0.029161f, 0.004382f, -0.041328f, -0.001192f, -0.013149f, 0.047975f, 0.040481f, 0.056041f, 0.005882f,
0.107197f, 0.096442f, 0.043779f, 0.115822f, 0.122683f, 0.074072f, 0.005019f, -0.034353f, -0.124482f, 0.077421f, -0.025182f, -0.090155f, 0.102864f, 0.059665f, 0.048136f,
-0.019395f, 0.022154f, 0.004303f, -0.002370f, 0.018432f, 0.025467f, 0.086707f, 0.048614f, 0.092497f, 0.049223f, 0.078176f, 0.029033f, 0.025876f, -0.034397f, 0.028322f,
0.023623f, -0.013898f, 0.066898f, -0.133996f, -0.019000f, -0.087712f, -0.013205f, 0.055965f, -0.078154f, -0.073240f, -0.064802f, -0.120677f, 0.095766f, -0.021257f, 0.007447f,
0.023264f, -0.065246f, 0.057766f, 0.017966f, 0.050919f, 0.011880f, 0.165701f, 0.200869f, 0.126953f, 0.039687f, 0.079515f, 0.052633f, -0.052552f, 0.068778f, 0.045326f,
0.036138f, -0.035694f, 0.030007f, 0.027148f, -0.013148f, 0.037427f, -0.009361f, -0.000668f, 0.041940f, -0.090040f, -0.089725f, -0.048114f, -0.042935f, -0.035447f, -0.024694f,
-0.008760f, 0.012502f, 0.039783f, -0.118296f, -0.103711f, -0.104418f, -0.085638f, -0.100918f, -0.086269f, -0.067885f, -0.063051f, -0.057082f, -0.045157f, -0.070813f, 0.033198f,
-0.128878f, -0.069468f, -0.018457f, 0.011399f, 0.008302f, 0.032502f, 0.038553f, -0.018933f, -0.019765f, 0.079709f, 0.022952f, 0.052372f, -0.065458f, -0.026495f, 0.104758f,
0.074821f, -0.007978f, -0.003724f, -0.012378f, -0.086286f, -0.047404f, -0.040338f, -0.063456f, -0.002885f, 0.057060f, -0.027968f, 0.029343f, 0.021943f, 0.039617f, -0.049833f,
-0.036229f, -0.011328f, -0.022007f, 0.073697f, 0.060966f, 0.085998f, 0.096369f, -0.003657f, 0.022507f, 0.001448f, -0.043697f, -0.011886f, 0.078388f, -0.012421f, 0.037872f,
0.046816f, -0.054143f, 0.031102f, 0.023429f, -0.027088f, 0.026676f, -0.106108f, -0.061072f, -0.042473f, -0.050478f, -0.037290f, -0.084767f, -0.042714f, -0.045959f, -0.094093f,
-0.011882f, -0.043125f, -0.107750f, 0.070394f, 0.062879f, 0.026254f, 0.117000f, -0.017166f, -0.002317f, 0.122263f, 0.025880f, -0.050358f, 0.084979f, 0.030065f, 0.035619f,
0.003185f, -0.002997f, -0.128907f, 0.045842f, -0.029165f, 0.046582f, -0.017734f, -0.057085f, -0.054574f, -0.115178f, -0.107970f, -0.105300f, 0.079025f, -0.051024f, -0.003138f,
0.008888f, -0.015284f, 0.073070f, 0.059579f, -0.035389f, 0.024637f, 0.081723f, 0.079128f, 0.005664f, 0.020100f, 0.071433f, 0.072965f, 0.000968f, 0.085152f, 0.087561f,
-0.016618f, -0.010665f, 0.017299f, -0.067434f, -0.048244f, -0.106160f, -0.060889f, -0.038441f, -0.050320f, -0.007209f, -0.070615f, -0.010474f, -0.011589f, 0.079312f, -0.008885f,
0.027509f, 0.018963f, -0.065323f, -0.025600f, -0.013761f, -0.066555f, -0.070418f, -0.059206f, -0.014222f, 0.011350f, -0.007803f, -0.028943f, -0.071270f, 0.012954f, -0.010225f,
0.112663f, 0.056641f, 0.082951f, 0.101572f, 0.058561f, -0.009920f, -0.041346f, -0.020798f, -0.027889f, 0.003016f, 0.075664f, 0.021373f, -0.084145f, -0.050435f, -0.085292f,
-0.049982f, -0.010518f, 0.020009f, -0.096728f, -0.064607f, -0.028759f, -0.009471f, -0.114661f, -0.010241f, 0.056362f, 0.060345f, -0.050852f, 0.074804f, -0.000541f, -0.023207f,
0.070700f, 0.030234f, 0.048668f, -0.076761f, -0.028334f, -0.048542f, -0.080504f, -0.030124f, -0.065716f, -0.060394f, -0.062301f, -0.038196f, -0.107944f, 0.007461f, -0.061192f,
0.022660f, 0.065112f, 0.054006f, -0.047578f, 0.012113f, -0.130212f, 0.033440f, -0.025541f, -0.028998f, 0.017917f, -0.021151f, 0.017555f, -0.002657f, -0.016941f, -0.026006f,
0.031797f, 0.041542f, 0.035439f, 0.078694f, 0.077156f, 0.018054f, 0.055828f, 0.058833f, 0.062698f, -0.001235f, -0.005375f, 0.047545f, 0.028516f, -0.012107f, 0.059728f,
0.012484f, 0.007011f, 0.046386f, 0.025097f, -0.038494f, 0.017144f, 0.062216f, 0.008909f, -0.071423f, 0.021487f, 0.034811f, -0.013423f, -0.030174f, -0.034969f, -0.060443f,
-0.041919f, -0.029336f, -0.040893f, -0.089697f, -0.076357f, -0.082975f, 0.016849f, 0.030763f, 0.055020f, -0.031158f, -0.031090f, 0.040472f, -0.002772f, 0.060927f, -0.013602f,
-0.071866f, -0.083756f, -0.073418f, -0.059040f, -0.029764f, -0.065138f, -0.040984f, -0.028610f, -0.044062f, -0.061549f, 0.007232f, -0.031158f, -0.062354f, -0.065492f, -0.086276f,
-0.023184f, -0.029465f, -0.026838f, -0.015311f, -0.022182f, -0.064749f, -0.034675f, -0.031114f, -0.024041f, -0.007518f, -0.003771f, -0.011639f, 0.043539f, 0.110971f, 0.039317f,
0.054325f, -0.003159f, 0.082479f, 0.072700f, 0.110355f, 0.034391f, 0.008121f, 0.018923f, -0.048488f, -0.049515f, 0.019500f, -0.010341f, -0.092023f, -0.057845f, -0.051522f,
0.051837f, -0.066824f, -0.035575f, 0.036214f, -0.044207f, 0.019180f, 0.072147f, 0.012003f, 0.017425f, 0.079742f, -0.022687f, 0.062938f, 0.004851f, 0.010279f, 0.075092f,
0.035478f, 0.017807f, 0.056322f, -0.010576f, -0.019264f, 0.012300f, -0.038430f, -0.013647f, -0.059313f, -0.127944f, -0.083423f, -0.043447f, -0.008146f, -0.058068f, -0.049674f,
-0.048711f, -0.017331f, -0.083088f, -0.076025f, -0.081250f, -0.075818f, -0.004664f, -0.015374f, 0.039787f, -0.039394f, 0.038301f, -0.016942f, 0.088158f, 0.107401f, 0.051483f,
-0.007056f, -0.056254f, -0.026597f, 0.037457f, 0.075313f, -0.036757f, 0.118902f, 0.085149f, 0.073144f, -0.092567f, -0.062501f, -0.066585f, 0.048205f, 0.051493f, -0.010760f,
-0.068651f, -0.096722f, -0.069051f, -0.050880f, -0.072748f, -0.077603f, 0.037262f, 0.026019f, 0.041547f, 0.061479f, 0.006813f, 0.010771f, -0.052907f, -0.015150f, -0.027540f,
-0.013657f, 0.086818f, 0.060183f, -0.085750f, -0.043851f, -0.005383f, 0.001367f, -0.074106f, -0.021317f, -0.057235f, -0.048246f, -0.007405f, -0.026115f, -0.022266f, 0.025207f,
0.049400f, 0.013575f, 0.002714f, 0.053276f, 0.012098f, -0.078611f, 0.084737f, 0.068410f, 0.021741f, -0.054076f, -0.043870f, -0.073249f, -0.078065f, -0.013048f, -0.044359f,
-0.070415f, -0.056818f, -0.049535f, -0.072741f, 0.010270f, -0.064811f, 0.037037f, 0.025730f, 0.035121f, -0.040988f, 0.075583f, -0.102246f, 0.011315f, -0.029825f, -0.069230f,
-0.036856f, 0.010287f, 0.034742f, -0.038047f, -0.096534f, -0.093184f, 0.033842f, 0.059600f, 0.067290f, 0.034548f, 0.029088f, 0.045149f, 0.003017f, 0.071982f, 0.053708f,
0.004769f, 0.017439f, -0.027585f, 0.033473f, 0.010749f, -0.011156f, 0.047174f, 0.035145f, 0.052869f, -0.031010f, -0.030721f, -0.063086f, 0.054804f, 0.024106f, -0.025194f,
0.059149f, 0.007006f, 0.056457f, -0.066826f, -0.004277f, -0.068129f, -0.057285f, -0.049315f, -0.019408f, -0.086270f, -0.055609f, -0.135003f, 0.041243f, 0.038586f, 0.041703f,
0.009205f, -0.003910f, 0.052981f, 0.035513f, 0.015851f, 0.018859f, -0.054108f, -0.116429f, -0.096349f, -0.014302f, -0.009467f, -0.067032f, -0.048412f, -0.027897f, -0.115232f,
-0.027328f, -0.020662f, 0.007303f, -0.080144f, -0.040923f, -0.057848f, -0.049078f, 0.000491f, 0.000739f, -0.009854f, -0.020570f, -0.053866f, -0.025320f, -0.046814f, -0.029668f,
0.010001f, 0.040343f, -0.031507f, 0.052983f, 0.050609f, 0.028114f, 0.104147f, 0.009252f, 0.025864f, 0.048832f, 0.063595f, 0.009532f, -0.021520f, 0.026335f, 0.013832f,
-0.003486f, -0.101856f, 0.009866f, -0.085206f, -0.012853f, 0.009237f, -0.041922f, 0.037840f, -0.018186f, 0.024775f, -0.008881f, 0.052524f, -0.002283f, 0.005466f, 0.002448f,
0.027031f, 0.010408f, 0.064774f, 0.028722f, 0.059753f, 0.033901f, 0.088921f, 0.027869f, 0.058306f, -0.022942f, -0.006538f, -0.025105f, -0.065090f, -0.019231f, -0.050124f,
-0.171090f, -0.031656f, -0.060398f, -0.050472f, -0.048471f, -0.051978f, -0.025042f, -0.051725f, -0.074160f, -0.101420f, -0.082617f, -0.048037f, 0.012709f, 0.027894f, 0.104018f,
-0.031766f, 0.011124f, -0.011059f, 0.079454f, 0.141345f, 0.141242f, 0.018720f, 0.023082f, -0.090586f, -0.018986f, -0.010143f, -0.018040f, 0.084690f, 0.008119f, 0.022612f,
-0.058159f, -0.066215f, -0.070716f, -0.031605f, -0.015767f, -0.020869f, -0.060950f, -0.093373f, -0.083677f, 0.048946f, 0.036252f, 0.075983f, 0.007420f, -0.052626f, -0.106829f,
0.044063f, 0.069183f, -0.005715f, 0.013306f, 0.026688f, 0.031014f, -0.052531f, -0.078798f, -0.070449f, -0.015692f, 0.023738f, 0.048718f, -0.055646f, -0.159397f, -0.063683f,
0.027418f, 0.042431f, 0.057165f, -0.039825f, -0.031186f, -0.005719f, 0.096593f, 0.053520f, -0.018051f, 0.030865f, -0.028863f, -0.058689f, 0.116607f, 0.039325f, 0.007267f,
-0.148162f, -0.059989f, -0.146738f, -0.006078f, -0.023482f, -0.029883f, -0.070689f, -0.056284f, -0.018398f, -0.004592f, 0.064720f, 0.038468f, -0.128877f, 0.021846f, -0.178159f,
-0.035513f, 0.022646f, -0.014351f, -0.038983f, -0.065001f, -0.066243f, 0.002835f, -0.018627f, 0.022363f, 0.023926f, -0.062700f, -0.053045f, 0.051162f, 0.048475f, 0.138039f,
-0.014890f, 0.035634f, 0.009843f, 0.028722f, 0.082686f, 0.078034f, -0.006892f, 0.005312f, 0.000774f, 0.091834f, 0.044614f, 0.046677f, 0.020334f, 0.013457f, -0.010132f,
0.024293f, 0.020152f, -0.015116f, 0.042107f, -0.004993f, 0.007247f, 0.037607f, 0.008721f, -0.040135f, -0.089932f, -0.038153f, -0.096537f, -0.068423f, -0.043964f, -0.065832f,
-0.043742f, -0.034851f, -0.035855f, 0.018840f, 0.060732f, 0.054247f, 0.122497f, 0.037448f, -0.019585f, 0.047609f, 0.030447f, 0.090263f, -0.088753f, -0.082019f, -0.140202f,
-0.005407f, -0.046404f, -0.074406f, -0.058059f, -0.041840f, -0.064079f, -0.057188f, -0.084439f, -0.034714f, -0.037023f, 0.007355f, 0.009543f, -0.043073f, -0.017655f, -0.037618f,
-0.004713f, -0.041300f, -0.094721f, -0.052990f, -0.007716f, -0.066271f, 0.023875f, 0.041868f, 0.008047f, 0.130645f, 0.030432f, 0.077483f, 0.031500f, 0.067820f, 0.021923f,
0.006192f, 0.064512f, 0.024631f, -0.052099f, 0.011631f, 0.005608f, -0.035794f, -0.033835f, -0.025981f, -0.052128f, -0.071134f, -0.039317f, -0.014047f, -0.009227f, 0.016136f,
0.003883f, 0.044724f, 0.036820f, -0.011279f, 0.010731f, 0.034270f, 0.018943f, -0.008108f, 0.038102f, 0.115507f, 0.080478f, 0.060748f, 0.063578f, 0.057415f, 0.035589f,
-0.085207f, -0.026192f, -0.003380f, -0.039789f, 0.002425f, -0.051575f, -0.129417f, -0.061167f, -0.072804f, -0.049767f, -0.083136f, -0.108923f, -0.026884f, -0.003853f, 0.003277f,
-0.071719f, -0.082291f, -0.151730f, -0.035293f, -0.001148f, 0.016951f, -0.010277f, 0.034020f, 0.078071f, 0.106831f, 0.133211f, 0.106270f, 0.047639f, 0.019309f, -0.036420f,
0.024124f, 0.023505f, -0.076836f, 0.090939f, 0.024023f, 0.001185f, -0.013081f, -0.029535f, -0.045494f, -0.047683f, 0.015133f, -0.011007f, -0.027912f, -0.086225f, -0.050164f,
0.045607f, 0.024377f, 0.058780f, 0.021665f, 0.021447f, -0.067568f, 0.088529f, 0.053094f, -0.038585f, 0.012616f, -0.003011f, 0.034486f, -0.029944f, -0.007490f, -0.064849f,
-0.013253f, 0.007389f, 0.020618f, -0.119102f, -0.054388f, -0.039244f, 0.077128f, -0.073093f, -0.000259f, -0.074548f, -0.032946f, 0.038648f, 0.053596f, 0.031979f, -0.019802f,
-0.008296f, -0.025770f, -0.055823f, 0.089855f, 0.024039f, 0.037664f, -0.111858f, -0.079259f, -0.087104f, -0.029870f, -0.027815f, -0.046463f, -0.041045f, -0.035449f, -0.012121f,
-0.010963f, 0.043825f, -0.001683f, -0.103952f, 0.024157f, -0.088699f, -0.003872f, 0.038807f, 0.011485f, -0.039860f, -0.053088f, -0.047088f, 0.007633f, -0.013683f, -0.005017f,
-0.002381f, -0.030558f, -0.049712f, 0.034023f, 0.056723f, 0.039443f, 0.024302f, 0.056922f, 0.069802f, 0.044992f, 0.045645f, 0.038275f, -0.012845f, 0.005385f, 0.063731f,
0.028943f, 0.050307f, 0.002174f, 0.009318f, 0.000308f, 0.011548f, 0.014988f, 0.014783f, -0.040231f, 0.023820f, 0.009697f, -0.045335f, 0.089296f, -0.014334f, -0.000072f,
-0.081861f, -0.027584f, -0.077317f, -0.035185f, -0.029913f, -0.040465f, -0.044075f, -0.088064f, -0.038990f, 0.036473f, -0.000212f, 0.036732f, 0.055985f, 0.036243f, 0.086149f,
-0.000436f, 0.030990f, 0.014127f, -0.071635f, -0.063488f, -0.135886f, -0.051467f, -0.002870f, -0.048704f, -0.036940f, -0.033283f, -0.092604f, -0.080922f, -0.029953f, -0.029269f,
-0.036323f, -0.038908f, -0.060989f, -0.037300f, -0.040345f, -0.022493f, -0.057939f, -0.025894f, -0.068723f, -0.074284f, -0.048245f, -0.070932f, 0.017298f, 0.026313f, -0.051446f,
0.096074f, 0.018605f, 0.095790f, 0.040589f, 0.031033f, 0.037199f, 0.016338f, 0.049642f, 0.071014f, 0.013375f, 0.014800f, -0.021518f, -0.045734f, -0.025794f, -0.014455f,
-0.069621f, -0.028986f, -0.058946f, 0.037676f, -0.031708f, 0.005495f, 0.046460f, 0.056447f, -0.020499f, -0.007617f, -0.035175f, 0.009782f, 0.030658f, 0.017879f, 0.080606f,
0.089411f, 0.026530f, 0.043490f, 0.017397f, 0.038259f, 0.088545f, -0.056617f, -0.029931f, -0.035906f, -0.071709f, -0.036246f, 0.006398f, -0.099198f, -0.053702f, 0.016437f,
-0.053660f, -0.085731f, -0.085878f, -0.008732f, -0.004906f, -0.083222f, -0.071912f, -0.069879f, -0.073006f, -0.038145f, 0.024824f, 0.004925f, -0.005000f, 0.021451f, 0.027215f,
0.054962f, 0.074392f, 0.027412f, 0.034439f, 0.022886f, -0.023281f, 0.058379f, 0.074330f, 0.052045f, 0.111066f, 0.011688f, -0.019315f, -0.066217f, -0.021724f, -0.044686f,
-0.081510f, -0.039593f, -0.039332f, -0.053776f, -0.052615f, -0.036125f, -0.044810f, -0.011787f, -0.065416f, 0.081556f, 0.114362f, 0.077017f, 0.078365f, 0.027435f, 0.016043f,
-0.040885f, -0.001381f, -0.011394f, 0.035819f, 0.027382f, 0.038779f, -0.051651f, -0.042364f, -0.030165f, -0.066338f, -0.021852f, -0.056426f, -0.039638f, -0.089946f, -0.018558f,
0.035244f, -0.075868f, 0.025754f, 0.065743f, 0.079266f, -0.024042f, 0.053189f, -0.022750f, -0.028337f, 0.055953f, 0.040618f, -0.028833f, -0.064894f, -0.081629f, -0.040803f,
-0.071865f, -0.025091f, -0.068692f, -0.070542f, -0.050537f, -0.057329f, -0.005079f, -0.031276f, -0.085723f, 0.047253f, 0.062832f, 0.065522f, -0.008926f, 0.000908f, -0.108194f,
0.015540f, 0.002571f, -0.063398f, -0.003731f, -0.029951f, 0.005590f, -0.029237f, -0.024844f, -0.023439f, 0.046990f, 0.081677f, 0.057402f, 0.087366f, 0.085838f, 0.074733f,
0.031977f, 0.048359f, 0.048049f, 0.000474f, -0.025673f, 0.021126f, 0.018646f, 0.026328f, 0.010263f, 0.006711f, -0.007914f, 0.027486f, 0.027869f, 0.024657f, -0.040535f,
0.015348f, 0.001720f, -0.047441f, 0.031838f, 0.011705f, -0.060373f, -0.076883f, -0.047893f, -0.017577f, -0.082211f, -0.025577f, -0.028018f, -0.071347f, -0.077091f, -0.099917f,
0.055270f, 0.026400f, 0.080381f, -0.035975f, 0.031283f, 0.053006f, 0.047845f, -0.006115f, 0.016861f, -0.063174f, -0.095395f, -0.106252f, -0.051819f, -0.024267f, -0.039647f,
-0.057118f, -0.044652f, -0.074744f, -0.043175f, -0.012185f, 0.004778f, -0.034482f, -0.054198f, -0.059178f, -0.033268f, -0.028462f, -0.035475f, -0.050605f, -0.051865f, -0.059416f,
-0.037535f, -0.031306f, -0.039673f, 0.000739f, 0.020122f, -0.018157f, 0.030663f, 0.093890f, 0.069507f, 0.061143f, 0.000482f, 0.032554f, 0.020451f, 0.088304f, 0.041106f,
0.031152f, -0.037605f, -0.038871f, -0.071623f, -0.009813f, 0.053965f, -0.048102f, -0.040173f, -0.029862f, 0.025832f, -0.057231f, -0.010088f, 0.026370f, 0.032084f, -0.060245f,
0.046611f, -0.031036f, -0.018985f, 0.027868f, -0.008322f, 0.042389f, 0.101473f, 0.003021f, 0.059906f, 0.080860f, 0.041944f, 0.026689f, -0.042849f, 0.004694f, 0.017448f,
-0.098755f, -0.045580f, -0.056787f, -0.110535f, -0.032956f, -0.032168f, -0.004300f, -0.048561f, -0.070213f, -0.033070f, -0.016267f, -0.077417f, -0.091450f, -0.044017f, -0.032984f,
0.008549f, 0.030070f, 0.019532f, -0.018498f, 0.013858f, -0.013029f, 0.045883f, 0.074723f, 0.044546f, -0.003953f, -0.008590f, -0.087395f, 0.043793f, 0.076373f, -0.034690f,
0.155715f, 0.114184f, 0.062596f, 0.029665f, 0.063104f, 0.079619f, 0.079631f, 0.060322f, 0.048865f, 0.063807f, 0.032970f, 0.085869f, 0.046568f, -0.015439f, -0.142284f,
0.038516f, 0.054250f, -0.025681f, 0.089023f, 0.086191f, -0.064649f, -0.008530f, 0.031263f, 0.012911f, 0.010641f, -0.012380f, 0.009699f, 0.001082f, 0.053123f, 0.065767f,
0.053733f, 0.004880f, 0.018491f, 0.012225f, -0.080765f, 0.030263f, 0.037482f, -0.001219f, 0.065447f, -0.148331f, -0.008733f, -0.066308f, -0.010113f, -0.037656f, -0.033468f,
-0.027858f, -0.090422f, -0.070779f, 0.067909f, -0.005442f, 0.034209f, 0.025002f, -0.018357f, 0.002514f, 0.014168f, 0.041021f, -0.037450f, 0.109311f, 0.171005f, 0.078392f,
0.049756f, 0.047519f, 0.029649f, -0.046917f, 0.046401f, 0.048493f, -0.014198f, -0.012816f, 0.020183f, 0.012995f, -0.001535f, 0.047039f, 0.047018f, -0.005371f, 0.022995f,
-0.071746f, -0.024454f, -0.024318f, -0.026869f, -0.013164f, -0.042653f, -0.025720f, 0.020270f, -0.015694f, -0.077004f, -0.040108f, -0.064600f, -0.129729f, -0.018085f, -0.139998f,
0.011747f, -0.091782f, -0.062393f, -0.041102f, -0.040569f, -0.005608f, -0.036889f, -0.133116f, -0.054009f, 0.014550f, 0.019945f, 0.064420f, 0.009092f, 0.002246f, 0.035742f,
0.008595f, 0.090029f, 0.070443f, 0.000553f, -0.018554f, 0.001863f, -0.010743f, -0.011561f, -0.008586f, 0.066406f, -0.101992f, -0.007113f, 0.014134f, 0.004282f, -0.008891f,
0.005951f, -0.025431f, 0.011503f, 0.023964f, 0.024355f, -0.002238f, -0.000152f, 0.009520f, -0.043229f, 0.093155f, 0.001469f, 0.052328f, 0.043470f, 0.009119f, 0.047675f,
-0.015940f, -0.023773f, 0.044878f, 0.050113f, -0.020985f, 0.076292f, -0.000850f, -0.004696f, -0.009082f, 0.007443f, -0.067925f, -0.005297f, -0.073229f, -0.012245f, -0.061886f,
-0.075225f, -0.051303f, -0.050891f, -0.055623f, -0.021120f, -0.073223f, 0.057041f, -0.081322f, -0.052982f, 0.078404f, 0.014266f, -0.008781f, 0.073126f, 0.039564f, 0.025933f,
0.110028f, 0.019370f, -0.009909f, 0.058755f, -0.026247f, -0.008570f, -0.048001f, -0.024669f, -0.045500f, 0.053539f, -0.035862f, 0.013177f, -0.040543f, -0.050761f, -0.031196f,
-0.113728f, -0.080114f, -0.077384f, 0.045784f, -0.049507f, 0.013324f, 0.072540f, -0.020352f, 0.046936f, 0.032756f, -0.022932f, 0.021973f, 0.050727f, 0.020450f, 0.067735f,
0.083178f, 0.053820f, 0.031684f, 0.015380f, 0.078942f, 0.074842f, 0.002573f, 0.016857f, 0.009607f, -0.042074f, -0.033762f, -0.046533f, -0.048884f, 0.007641f, -0.000269f,
-0.027044f, -0.017075f, 0.044478f, 0.000053f, -0.018712f, -0.004236f, 0.063894f, 0.006869f, -0.020531f, -0.029566f, 0.004770f, 0.017408f, 0.083312f, 0.079879f, 0.029969f,
0.056057f, 0.112378f, 0.128042f, 0.027890f, -0.010304f, -0.134513f, 0.022785f, -0.004439f, -0.032848f, 0.123065f, 0.078572f, 0.030259f, 0.010947f, 0.005017f, 0.049615f,
-0.021719f, -0.008395f, 0.004662f, 0.130488f, 0.037766f, -0.003998f, 0.059721f, 0.024696f, 0.017487f, 0.038894f, 0.009669f, 0.040487f, 0.007585f, -0.032918f, 0.027662f,
-0.142433f, -0.014799f, -0.086702f, -0.042834f, 0.058758f, -0.105463f, -0.042362f, -0.098431f, -0.115564f, 0.102919f, -0.028884f, 0.004992f, 0.041427f, -0.067060f, 0.072964f,
0.027755f, 0.013134f, -0.009506f, 0.209419f, 0.180087f, 0.132516f, 0.046026f, 0.115723f, 0.009701f, -0.024769f, 0.026729f, 0.049964f, 0.001612f, 0.003194f, 0.006035f,
-0.021775f, -0.005307f, 0.037642f, 0.022478f, 0.050498f, -0.031888f, -0.119538f, -0.095936f, -0.034622f, -0.014919f, -0.044257f, -0.021254f, -0.035037f, -0.010480f, 0.032566f,
-0.167022f, -0.171466f, -0.055273f, -0.057409f, -0.008223f, -0.112033f, 0.041098f, -0.083542f, -0.051810f, -0.090723f, -0.091426f, -0.017732f, -0.088604f, -0.114547f, 0.030135f,
-0.008599f, 0.068942f, 0.071524f, 0.041321f, 0.028978f, 0.022175f, 0.040044f, 0.037292f, 0.043165f, -0.009179f, 0.028645f, 0.048866f, 0.042044f, -0.019015f, 0.031145f,
0.001114f, -0.053263f, -0.061757f, -0.025645f, -0.059228f, -0.072403f, 0.056937f, 0.023670f, 0.058687f, 0.012131f, 0.014377f, -0.033160f, -0.014034f, 0.040098f, -0.066961f,
0.107034f, 0.038749f, 0.042812f, 0.085917f, 0.004751f, 0.072233f, -0.010704f, -0.046924f, 0.038858f, 0.042404f, 0.008534f, 0.053895f, 0.015369f, -0.023627f, -0.018126f,
-0.025853f, -0.061907f, 0.011509f, -0.119995f, -0.059101f, -0.054164f, -0.033946f, -0.076726f, -0.067090f, -0.040839f, -0.031852f, -0.073875f, 0.068506f, -0.030808f, -0.096397f,
0.131454f, 0.043786f, -0.007280f, 0.103460f, -0.012938f, 0.043436f, 0.173398f, 0.038505f, -0.018083f, 0.051304f, 0.015022f, -0.027904f, -0.058029f, -0.002701f, -0.080889f,
0.099394f, -0.003568f, 0.055294f, -0.100422f, -0.080779f, -0.064363f, -0.105847f, -0.125268f, -0.096796f, 0.079949f, -0.006074f, -0.020251f, 0.084032f, -0.002573f, 0.044026f,
0.016277f, -0.103153f, 0.046328f, 0.095995f, 0.072939f, 0.048209f, 0.029303f, 0.045557f, 0.027281f, -0.035553f, 0.058242f, 0.072794f, -0.008349f, -0.035883f, -0.002086f,
-0.036743f, -0.054340f, -0.075213f, -0.077486f, -0.030553f, -0.003934f, -0.013840f, -0.046719f, -0.020450f, 0.027280f, 0.024868f, 0.025140f, -0.015431f, -0.070694f, -0.055931f,
-0.080041f, -0.037118f, -0.045475f, -0.026563f, -0.011103f, -0.039188f, -0.074166f, -0.065216f, -0.052667f, 0.077395f, 0.041415f, 0.083253f, 0.021383f, -0.055911f, -0.114691f,
0.067131f, 0.059711f, 0.036596f, -0.027831f, 0.005465f, 0.035872f, -0.083589f, -0.027827f, -0.092493f, 0.006839f, 0.000773f, 0.039403f, -0.100155f, -0.091989f, -0.065887f,
0.101238f, 0.046069f, 0.041939f, -0.038803f, -0.092115f, 0.004472f, 0.079169f, 0.023876f, -0.029649f, 0.015348f, 0.026340f, -0.015361f, 0.114658f, 0.013577f, 0.034314f,
-0.164440f, -0.095886f, -0.083003f, -0.015842f, -0.015971f, -0.045534f, -0.053053f, -0.037231f, -0.029910f, -0.012096f, 0.013843f, 0.051222f, -0.106035f, -0.014742f, -0.126719f,
-0.028150f, 0.045162f, -0.023453f, -0.002755f, -0.041153f, -0.064461f, 0.019201f, 0.002429f, -0.040847f, -0.004957f, -0.023370f, -0.016458f, 0.032430f, 0.054063f, 0.133387f,
0.006226f, 0.038723f, 0.016818f, 0.064307f, 0.071546f, 0.044717f, 0.026580f, 0.007786f, 0.041606f, 0.038669f, 0.041967f, 0.018215f, 0.036687f, -0.014167f, 0.006597f,
0.007583f, 0.020391f, -0.007503f, 0.045676f, -0.005743f, -0.037483f, 0.081568f, 0.025086f, -0.010417f, -0.108822f, -0.042563f, -0.068764f, -0.055731f, -0.063311f, -0.048295f,
-0.056665f, -0.046326f, -0.047816f, 0.029335f, 0.054724f, 0.042598f, 0.060600f, 0.018741f, 0.043190f, 0.025657f, 0.063863f, 0.015615f, -0.062050f, -0.121385f, -0.129680f,
-0.043706f, 0.009730f, -0.042288f, -0.083644f, -0.069684f, -0.073702f, -0.081145f, -0.080041f, -0.046349f, -0.047040f, -0.035710f, -0.010576f, -0.009378f, -0.048223f, -0.031745f,
-0.019617f, -0.051419f, -0.087498f, -0.039238f, -0.015121f, -0.091033f, 0.003648f, 0.009961f, 0.017711f, 0.108393f, 0.052072f, 0.094532f, 0.014628f, 0.060030f, 0.038970f,
0.003258f, 0.097148f, 0.041354f, -0.027815f, -0.009984f, -0.042478f, -0.048891f, -0.051130f, -0.034707f, -0.065996f, -0.056047f, 0.011250f, 0.021460f, -0.043556f, -0.027706f,
0.014990f, 0.058865f, 0.024627f, 0.008167f, -0.009387f, -0.022926f, 0.061946f, -0.015579f, 0.066468f, 0.112855f, 0.021856f, 0.070273f, 0.052340f, 0.026650f, 0.047743f,
-0.088062f, -0.006763f, 0.018101f, -0.038904f, 0.003618f, -0.027221f, -0.130335f, -0.048042f, -0.017701f, -0.058189f, -0.095566f, -0.119080f, -0.049031f, 0.007236f, -0.011948f,
-0.061419f, -0.060124f, -0.119155f, -0.012835f, 0.031468f, -0.021738f, 0.019626f, 0.026004f, 0.029838f, 0.055701f, 0.071220f, 0.041455f, 0.056512f, 0.015879f, -0.087977f,
0.079127f, 0.035285f, -0.037407f, 0.078960f, 0.092995f, 0.055662f, -0.043675f, 0.025436f, 0.007127f, 0.123758f, 0.020803f, 0.071632f, 0.085984f, 0.099612f, 0.068341f,
0.049236f, -0.020416f, -0.123183f, 0.020444f, 0.087394f, -0.061694f, 0.122927f, 0.070085f, 0.033050f, -0.037939f, -0.009546f, 0.028309f, -0.050283f, -0.000922f, 0.027940f,
0.078520f, -0.011288f, 0.049520f, 0.071252f, 0.008450f, 0.021052f, -0.002710f, -0.033927f, 0.012950f, 0.003836f, 0.021439f, 0.002381f, -0.126554f, -0.040262f, -0.030179f,
-0.010376f, 0.002764f, -0.033941f, -0.039788f, -0.082181f, -0.103047f, 0.057920f, -0.014612f, -0.000112f, -0.000954f, -0.012396f, 0.038580f, 0.018769f, 0.037209f, -0.052539f,
0.211429f, 0.120890f, 0.100412f, 0.042016f, 0.082120f, -0.020648f, -0.031755f, 0.036921f, 0.021885f, 0.056795f, 0.004515f, -0.003357f, -0.004288f, 0.030338f, 0.037735f,
0.011245f, 0.008869f, 0.055576f, -0.117127f, -0.046661f, -0.055077f, -0.036635f, -0.034948f, -0.040728f, 0.012344f, -0.032203f, 0.030641f, -0.104502f, -0.062411f, -0.159029f,
-0.032300f, -0.085245f, -0.101780f, -0.019961f, -0.093063f, -0.006468f, -0.064818f, -0.110709f, -0.032252f, -0.023045f, -0.052031f, 0.000968f, 0.030527f, 0.069474f, 0.065919f,
0.024226f, -0.020786f, 0.036770f, 0.102485f, 0.018307f, 0.030039f, -0.013427f, 0.042602f, 0.013013f, -0.015659f, 0.012218f, 0.018520f, -0.021614f, -0.033528f, 0.021901f,
-0.041356f, -0.051796f, -0.064370f, -0.022620f, 0.006346f, 0.062780f, 0.016347f, 0.034202f, -0.011001f, -0.032683f, -0.031504f, -0.026565f, 0.048918f, 0.038906f, 0.058523f,
0.063420f, 0.012799f, 0.029411f, -0.020097f, -0.067401f, 0.018958f, 0.115950f, -0.011487f, 0.042629f, -0.017387f, -0.018132f, -0.033535f, 0.017770f, -0.045919f, 0.009705f,
-0.080172f, -0.043092f, -0.051476f, -0.073020f, -0.041452f, -0.101945f, -0.024276f, 0.010397f, -0.055338f, 0.058051f, -0.038948f, -0.055926f, 0.082078f, 0.037412f, -0.013691f,
0.099313f, -0.011615f, -0.034956f, 0.106958f, 0.051619f, -0.027399f, 0.045605f, 0.008060f, 0.027983f, -0.029290f, -0.043666f, -0.080000f, 0.003495f, -0.008575f, 0.005222f,
-0.061710f, -0.088038f, -0.008251f, -0.106870f, -0.096588f, -0.123485f, 0.082015f, -0.015603f, -0.000880f, 0.042436f, -0.003443f, 0.056302f, 0.022387f, 0.003153f, 0.014374f,
0.089141f, 0.091694f, 0.030438f, 0.058631f, 0.030788f, 0.042792f, -0.023434f, 0.091545f, 0.060559f, 0.030818f, -0.014821f, 0.006182f, -0.025103f, -0.031603f, -0.059838f,
-0.089904f, -0.004796f, -0.032693f, -0.029674f, -0.032057f, -0.003100f, 0.043386f, -0.033901f, -0.002142f, -0.024755f, -0.014723f, 0.006840f, -0.131198f, -0.038400f, -0.010178f,
-0.008511f, 0.022334f, -0.051251f, -0.032609f, -0.042985f, -0.057551f, -0.036297f, -0.044085f, -0.046284f, 0.024871f, -0.001465f, 0.010671f, 0.050624f, 0.039098f, -0.019615f,
-0.057852f, 0.009678f, -0.063680f, -0.006166f, 0.045568f, 0.036741f, -0.074048f, -0.009226f, 0.001607f, 0.002555f, -0.022229f, -0.002904f, -0.023716f, -0.037774f, -0.088460f,
0.028499f, -0.010678f, 0.025462f, 0.058503f, 0.015905f, -0.037532f, 0.047178f, 0.036555f, -0.011120f, 0.054401f, 0.027967f, -0.051824f, -0.082031f, -0.027306f, -0.103682f,
-0.048528f, -0.031567f, -0.044293f, -0.092222f, -0.052062f, -0.048964f, -0.091845f, 0.003517f, -0.064916f, 0.025344f, 0.108828f, 0.034067f, -0.053318f, 0.008629f, -0.086047f,
0.060991f, 0.016980f, -0.102077f, -0.041188f, -0.045778f, 0.008357f, 0.005804f, -0.079274f, -0.071942f, 0.005170f, 0.031422f, 0.098673f, 0.071352f, 0.020971f, 0.028122f,
0.002318f, 0.063090f, 0.055265f, 0.013512f, 0.035605f, -0.033191f, 0.029478f, 0.006932f, 0.021180f, 0.030001f, 0.028969f, 0.025228f, 0.008308f, -0.011980f, -0.030183f,
0.075068f, -0.007793f, -0.035654f, 0.041494f, 0.087725f, -0.002176f, -0.074971f, -0.002228f, -0.045893f, -0.056401f, -0.061549f, -0.040509f, -0.063496f, -0.070197f, -0.120036f,
0.138824f, 0.044345f, 0.026154f, -0.021413f, 0.018329f, 0.007654f, 0.075904f, -0.005945f, 0.042918f, -0.066740f, -0.104193f, -0.110137f, -0.067952f, 0.012078f, -0.054947f,
-0.056350f, -0.049707f, -0.109071f, -0.039695f, -0.011380f, -0.008402f, -0.068548f, -0.033729f, -0.009867f, -0.049132f, 0.009881f, -0.014288f, -0.054085f, -0.023487f, -0.107308f,
-0.030840f, -0.052662f, -0.066674f, 0.036009f, -0.009565f, 0.035996f, 0.063328f, 0.054296f, 0.058293f, 0.077498f, 0.058458f, 0.032040f, 0.072876f, 0.044074f, 0.009252f,
0.000891f, 0.001958f, -0.045320f, -0.046467f, -0.017399f, 0.002061f, -0.102739f, -0.086184f, 0.009397f, -0.003016f, -0.011291f, 0.039361f, 0.011605f, 0.007740f, 0.004347f,
-0.021379f, -0.005255f, 0.014018f, 0.085825f, 0.008654f, 0.098436f, 0.027012f, 0.012743f, 0.063806f, 0.081773f, 0.041992f, 0.007954f, -0.056251f, -0.001696f, 0.073622f,
-0.038054f, -0.011227f, 0.003380f, -0.156917f, -0.038078f, -0.082768f, -0.025566f, -0.017194f, -0.079834f, -0.031509f, -0.059930f, -0.050962f, -0.078319f, -0.040183f, -0.033860f,
0.017329f, 0.062985f, 0.081573f, -0.032457f, -0.011059f, -0.046897f, 0.073966f, 0.093950f, 0.125811f, -0.012293f, 0.002924f, -0.119533f, 0.092671f, 0.052558f, -0.047183f,
0.064899f, 0.050312f, 0.021892f, -0.001512f, 0.055241f, -0.004980f, 0.099285f, 0.061590f, 0.061812f, 0.086665f, 0.057221f, 0.086169f, 0.076972f, -0.028603f, -0.033310f,
0.048246f, -0.061362f, -0.071220f, 0.015815f, 0.114095f, -0.021688f, -0.036022f, 0.051715f, 0.004273f, -0.015540f, 0.021862f, 0.056302f, 0.005776f, 0.047989f, 0.054176f,
0.049081f, -0.012261f, 0.037021f, 0.024211f, 0.056420f, 0.035003f, 0.034292f, 0.033652f, 0.055245f, -0.064007f, 0.016933f, -0.098916f, -0.084306f, 0.031273f, -0.042789f,
-0.067204f, 0.005349f, -0.073829f, 0.037176f, 0.029162f, 0.013196f, 0.015321f, -0.046956f, 0.049447f, 0.091865f, -0.013370f, 0.015491f, 0.069449f, 0.061138f, 0.027902f,
0.090021f, 0.133735f, 0.061603f, -0.005716f, -0.030681f, 0.004894f, -0.032378f, 0.014005f, -0.027084f, 0.059783f, -0.027993f, 0.012352f, 0.043408f, 0.065411f, 0.075100f,
-0.021300f, -0.072204f, -0.035624f, -0.072345f, -0.098373f, -0.035712f, 0.019246f, 0.006582f, -0.002606f, -0.034021f, -0.088587f, -0.035717f, -0.113930f, -0.081944f, -0.094849f,
-0.057092f, -0.034275f, -0.067478f, -0.053827f, -0.050644f, 0.007674f, -0.011761f, 0.055450f, 0.048880f, -0.058136f, -0.045711f, 0.036353f, 0.091058f, -0.048619f, -0.019045f,
0.019262f, -0.015590f, 0.010584f, 0.030821f, 0.069025f, 0.095821f, -0.010310f, -0.110403f, -0.041704f, 0.013486f, -0.006386f, -0.007356f, -0.038246f, -0.045958f, -0.056670f,
0.011976f, -0.014807f, 0.027882f, 0.076615f, 0.057571f, -0.005033f, -0.055607f, 0.024047f, -0.007131f, 0.071449f, 0.040537f, 0.050929f, 0.072281f, 0.006137f, 0.049554f,
0.071031f, -0.008301f, 0.004748f, 0.034329f, 0.020753f, -0.015544f, 0.015173f, 0.062455f, -0.002692f, -0.024244f, 0.025294f, -0.024263f, -0.031815f, -0.042050f, -0.032764f,
-0.112694f, -0.058288f, -0.079364f, -0.056850f, -0.059195f, -0.094698f, 0.015582f, -0.021233f, 0.001709f, 0.023986f, -0.013518f, -0.032167f, 0.045913f, -0.007756f, -0.001623f,
0.073310f, 0.026632f, 0.036230f, 0.039417f, 0.021817f, 0.001145f, 0.106120f, 0.027533f, -0.014180f, -0.025306f, -0.033719f, -0.032540f, 0.018139f, 0.016554f, -0.043547f,
-0.041926f, -0.113609f, -0.102588f, -0.001602f, -0.037021f, 0.005380f, 0.055489f, -0.016104f, -0.012573f, 0.050850f, -0.017438f, -0.049051f, 0.037629f, 0.043991f, 0.018158f,
-0.007658f, 0.052727f, 0.014653f, -0.008051f, 0.072393f, 0.089045f, -0.039628f, 0.005560f, -0.023517f, 0.031987f, 0.002452f, -0.011591f, -0.033622f, -0.060454f, -0.026447f,
-0.109181f, -0.012022f, -0.046488f, 0.001097f, -0.057589f, 0.009434f, 0.029932f, -0.011161f, -0.076960f
};
const float model_2_bn2_weight[] = {
1.288697f, 1.153662f, 1.266019f, 1.178294f, 1.291578f, 1.229459f, 1.394062f, 1.146477f, 1.204560f, 1.205407f, 1.105500f, 1.203484f, 1.637215f, 1.233105f, 1.239145f,
1.300347f, 1.236593f, 1.269144f, 1.205757f, 1.596348f, 1.340835f, 1.277802f, 1.186821f, 1.274335f
};
const float model_2_bn2_bias[] = {
-0.084212f, -0.186268f, -0.098839f, -0.221020f, -0.103722f, -0.223558f, -0.306289f, -0.186412f, -0.194175f, -0.234736f, -0.189859f, -0.107664f, -0.087450f, -0.188850f, -0.220693f,
-0.284293f, -0.208291f, -0.222614f, -0.131956f, -0.057865f, -0.266998f, -0.092154f, -0.240696f, -0.077441f
};
const float model_2_bn2_running_mean[] = {
-0.041920f, -0.315747f, -0.013527f, -0.421535f, 0.055001f, -0.334766f, -0.329866f, -0.382346f, -0.300273f, -0.249385f, -0.266510f, 0.050039f, 0.029571f, -0.258871f, -0.360585f,
-0.325229f, -0.313038f, -0.281495f, 0.072757f, -0.074739f, -0.311945f, -0.085369f, -0.285167f, -0.024738f
};
const float model_2_bn2_running_var[] = {
0.108291f, 0.186739f, 0.102559f, 0.137182f, 0.142873f, 0.169028f, 0.157359f, 0.131315f, 0.154963f, 0.129011f, 0.155976f, 0.121905f, 0.153328f, 0.170078f, 0.145945f,
0.153055f, 0.149364f, 0.158594f, 0.115552f, 0.142774f, 0.142632f, 0.109185f, 0.130347f, 0.105560f
};
const float model_2_bn2_num_batches_tracked[] = {
3655.000000f
};
const float model_2_shortcut_0_weight[] = {
-0.281985f, 0.113172f, -0.005419f, 0.190269f, 0.312021f, -0.057349f, 0.164911f, 0.192660f, 0.233665f, 0.150130f, -0.254044f, 0.369367f, 0.297024f, 0.400258f, 0.149785f,
-0.175771f, 0.159031f, 0.406017f, 0.079944f, -0.251232f, -0.045979f, 0.141469f, -0.064017f, 0.476822f, -0.319589f, -0.230196f, -0.274338f, 0.043801f, -0.241584f, -0.384472f,
0.012965f, -0.097577f, -0.018394f, -0.233095f, -0.201192f, -0.110085f, -0.263991f, 0.054845f, 0.214578f, -0.110910f, -0.263397f, -0.263940f, 0.044038f, -0.157983f, -0.295919f,
-0.132415f, 0.119951f, -0.215431f, -0.222330f, -0.287212f, -0.010744f, -0.165569f, -0.010093f, 0.035349f, -0.042867f, -0.223648f, -0.098711f, 0.147679f, 0.313176f, -0.014243f,
-0.196430f, 0.035919f, 0.197576f, -0.233945f, 0.113260f, -0.213003f, 0.187511f, 0.253161f, 0.109069f, 0.340697f, -0.331914f, -0.132128f, 0.244906f, -0.188472f, -0.229883f,
0.007175f, -0.157090f, 0.218290f, -0.412249f, 0.067523f, 0.155917f, 0.133405f, -0.208836f, -0.320892f, -0.181255f, -0.317582f, -0.237772f, -0.014902f, 0.112658f, 0.358086f,
0.142060f, 0.299788f, 0.343464f, -0.186318f, -0.199578f, 0.124466f, -0.115159f, 0.028871f, -0.108278f, 0.097030f, -0.023019f, -0.159076f, -0.129687f, 0.285029f, 0.253465f,
0.049201f, 0.190908f, 0.385709f, 0.008594f, -0.090669f, 0.015219f, 0.156629f, -0.276449f, -0.133397f, 0.023845f, -0.217832f, -0.095508f, -0.301204f, 0.030619f, -0.032112f,
-0.004949f, 0.001475f, -0.134537f, -0.200774f, -0.289093f, -0.056600f, -0.221151f, -0.334561f, 0.076188f, 0.285854f, -0.420910f, 0.069491f, 0.244300f, -0.111414f, -0.484462f,
0.253758f, -0.067720f, -0.220943f, 0.139980f, 0.424266f, 0.112720f, 0.090867f, 0.019577f, 0.251864f, -0.182105f, 0.017430f, 0.203125f, 0.096157f, 0.261889f, 0.046438f,
-0.424421f, -0.177917f, -0.062257f, 0.156311f, -0.124145f, 0.244010f, 0.504651f, 0.046169f, 0.310620f, 0.185687f, 0.046944f, -0.046757f, -0.040752f, 0.091200f, -0.259971f,
0.242914f, -0.271177f, 0.081912f, -0.269059f, 0.254978f, -0.046108f, -0.102909f, 0.048763f, 0.079424f, 0.083936f, 0.343737f, -0.211853f, -0.055925f, -0.161108f, 0.098923f,
-0.365448f, -0.009700f, -0.219603f, -0.107487f, -0.085658f, -0.217773f, -0.202832f, -0.321192f, -0.246960f, -0.030638f, 0.337195f, 0.136193f
};
const float model_2_shortcut_1_weight[] = {
0.892392f, 0.827101f, 0.826229f, 0.776902f, 0.868029f, 0.798409f, 0.742028f, 0.800235f, 0.816980f, 0.713742f, 0.860837f, 0.883610f, 0.805147f, 0.787860f, 0.787937f,
0.760300f, 0.792017f, 0.775211f, 0.877321f, 0.794798f, 0.629922f, 0.888745f, 0.754008f, 0.854221f
};
const float model_2_shortcut_1_bias[] = {
-0.084212f, -0.186268f, -0.098839f, -0.221020f, -0.103722f, -0.223558f, -0.306289f, -0.186412f, -0.194175f, -0.234736f, -0.189859f, -0.107664f, -0.087450f, -0.188850f, -0.220693f,
-0.284293f, -0.208291f, -0.222614f, -0.131956f, -0.057865f, -0.266998f, -0.092154f, -0.240696f, -0.077441f
};
const float model_2_shortcut_1_running_mean[] = {
0.811363f, 1.108163f, 0.604351f, -1.160907f, -0.538816f, -0.973997f, -0.705843f, 0.019814f, 0.263082f, -0.510708f, -1.096229f, 0.814151f, -0.041949f, 0.777294f, -0.807220f,
-1.272371f, -0.097172f, 0.856843f, -0.128388f, 1.392046f, -0.238417f, 0.452657f, -0.937687f, -0.453522f
};
const float model_2_shortcut_1_running_var[] = {
0.258145f, 1.177920f, 0.470756f, 0.654263f, 0.428433f, 1.026847f, 0.310288f, 0.320095f, 0.545294f, 0.333805f, 0.392579f, 0.780634f, 0.165380f, 0.342187f, 0.664133f,
0.485381f, 1.062941f, 0.573088f, 0.324563f, 0.742302f, 0.242110f, 0.191018f, 0.173064f, 0.641817f
};
const float model_2_shortcut_1_num_batches_tracked[] = {
3655.000000f
};
const float output_1_weight[] = {
-0.021950f, 0.231312f, -0.221864f, 0.270392f, -0.138369f, 0.266614f, 0.054417f, 0.175398f, 0.132267f, 0.252880f, 0.196204f, -0.185274f, -0.141270f, 0.165051f, 0.098377f,
0.205834f, 0.178426f, 0.176943f, -0.156343f, 0.023858f, 0.270523f, -0.039461f, 0.251189f, -0.168481f, 0.288554f, -0.216864f, 0.089451f, -0.062041f, 0.244625f, -0.063080f,
-0.218403f, -0.161990f, -0.242759f, -0.085920f, -0.219445f, 0.190137f, 0.133016f, -0.143814f, -0.240785f, -0.098120f, -0.184026f, -0.150572f, 0.225058f, 0.289314f, -0.009081f,
0.251846f, -0.121474f, 0.155172f
};
const float output_1_bias[] = {
-0.391973f, 0.249624f
};
