/*
 * model_parameters_speaker.c
 *
 *  Created on: 2025年7月21日
 *      Author: 廖先强
 */


#include "model_parameters_speaker.h"


#ifndef MODEL_PARAMETERS_SPEAKER_MODEL_H
#define MODEL_PARAMETERS_SPEAKER_MODEL_H

const float speaker_model_model_0_conv1_weight[] = {
-0.225650f, -0.020443f, -0.270288f, 0.095593f, 0.244843f, 0.078956f, 0.109455f, 0.393761f, -0.070502f, 0.334328f, -0.034026f, -0.047425f, 0.195015f, -0.103129f, 0.021565f,
0.092362f, -0.204477f, -0.056428f, -0.168239f, 0.059037f, -0.012651f, -0.287915f, 0.020765f, 0.327002f, -0.075911f, 0.175963f, 0.067869f, 0.020332f, -0.023717f, 0.051664f,
-0.292772f, -0.048852f, -0.243059f, 0.153671f, -0.092208f, 0.028554f, 0.030173f, -0.211223f, -0.155576f, 0.097620f, 0.301414f, 0.374114f, 0.267768f, 0.370557f, 0.092609f,
-0.101491f, -0.055203f, 0.132357f, -0.032357f, -0.093939f, 0.030815f, -0.500502f, -0.128416f, -0.138822f, -0.176228f, -0.320857f, 0.107289f, -0.047190f, 0.316884f, -0.010977f,
0.055555f, 0.242121f, -0.163589f, 0.113046f, -0.245373f, 0.002596f, 0.051250f, 0.128331f, 0.325758f, -0.025453f, 0.203780f, -0.408847f
};
const float speaker_model_model_0_bn1_weight[] = {
0.948878f, 0.960801f, 0.936032f, 0.945817f, 1.000982f, 0.990206f, 0.945681f, 1.048165f
};
const float speaker_model_model_0_bn1_bias[] = {
0.090056f, -0.274073f, 0.376634f, 0.427484f, -0.328073f, 0.100891f, 0.095778f, -0.303524f
};
const float speaker_model_model_0_bn1_running_mean[] = {
-0.012046f, 0.008168f, -0.004738f, 0.000563f, -0.006457f, -0.002990f, -0.010030f, -0.002746f
};
const float speaker_model_model_0_bn1_running_var[] = {
0.281445f, 0.115706f, 0.134770f, 0.189403f, 1.204972f, 0.657383f, 0.076406f, 0.076937f
};
const float speaker_model_model_0_conv2_weight[] = {
-0.041376f, 0.025307f, -0.063192f, 0.101572f, 0.094417f, 0.109444f, 0.061502f, 0.114662f, 0.116270f, -0.009316f, 0.073619f, 0.129335f, 0.083766f, -0.008522f, 0.055914f,
0.076983f, -0.082359f, -0.005018f, -0.021739f, -0.085505f, 0.045416f, -0.037712f, 0.002226f, -0.140822f, 0.156758f, 0.150331f, 0.076378f, -0.011208f, -0.022689f, -0.059068f,
-0.026402f, -0.086332f, -0.121455f, 0.011446f, -0.020891f, 0.067834f, -0.052544f, -0.013065f, -0.012770f, -0.050792f, -0.017196f, 0.015092f, -0.078812f, 0.034176f, 0.082254f,
-0.027142f, 0.090120f, 0.147716f, -0.069398f, -0.055904f, -0.025825f, -0.162628f, -0.062125f, -0.036789f, -0.025872f, -0.013064f, -0.113630f, -0.018116f, 0.012344f, -0.075361f,
0.172923f, -0.091303f, -0.066325f, -0.141546f, 0.014364f, 0.043540f, 0.090023f, 0.005991f, -0.072715f, 0.120002f, -0.041982f, 0.062380f, 0.065017f, -0.089701f, -0.133869f,
-0.034351f, -0.153095f, -0.019782f, 0.168715f, -0.063896f, -0.048305f, 0.138726f, 0.007362f, -0.025516f, -0.056758f, 0.094863f, 0.001574f, -0.068769f, -0.058796f, 0.063347f,
0.006241f, 0.049828f, -0.145468f, -0.063447f, 0.054957f, 0.079630f, 0.085079f, -0.026663f, 0.092018f, -0.129930f, -0.161053f, 0.155731f, 0.028614f, -0.036505f, -0.049716f,
-0.014819f, 0.037085f, 0.020113f, 0.050776f, -0.050155f, 0.087348f, 0.031864f, 0.082492f, 0.040586f, 0.086118f, 0.062814f, -0.019045f, -0.085182f, -0.169112f, 0.111823f,
-0.017013f, -0.043866f, 0.143785f, -0.027186f, 0.072532f, -0.002425f, -0.062649f, -0.063607f, 0.015260f, -0.097830f, -0.153279f, 0.011332f, -0.057398f, -0.008324f, -0.030560f,
0.086200f, 0.039309f, 0.099884f, 0.006556f, 0.033722f, 0.042107f, -0.029241f, 0.033690f, 0.056368f, 0.001909f, 0.009282f, -0.035191f, -0.071271f, 0.078122f, -0.042055f,
0.064013f, -0.058563f, 0.120921f, -0.005758f, -0.020778f, 0.120636f, -0.040075f, -0.010229f, -0.129396f, 0.058531f, 0.005488f, 0.009356f, 0.067403f, -0.060801f, 0.056138f,
-0.026533f, -0.045909f, -0.019608f, -0.137117f, -0.036582f, 0.154203f, 0.024740f, -0.044850f, -0.061528f, -0.085191f, -0.092994f, 0.078020f, -0.089997f, 0.071965f, 0.034453f,
-0.110647f, -0.012332f, -0.085796f, -0.002159f, -0.033545f, 0.067646f, 0.027464f, 0.041066f, 0.044955f, 0.037930f, 0.063581f, 0.037610f, 0.080461f, 0.163843f, 0.162574f,
-0.021830f, 0.004982f, -0.089268f, 0.031246f, -0.062002f, 0.012763f, 0.053900f, -0.003784f, 0.021719f, 0.079492f, -0.026494f, 0.079828f, -0.085849f, -0.118869f, -0.043633f,
0.047275f, 0.023861f, -0.061847f, 0.041687f, -0.060781f, 0.189019f, -0.096430f, 0.035409f, 0.031838f, -0.106141f, -0.106906f, -0.091987f, 0.089018f, -0.008644f, 0.104347f,
-0.109728f, -0.005775f, -0.107974f, 0.079174f, 0.078236f, 0.060608f, -0.048684f, -0.101036f, -0.122755f, 0.022299f, 0.066382f, 0.057035f, -0.038903f, 0.063596f, -0.081148f,
-0.054988f, -0.078898f, -0.009097f, 0.075767f, 0.051639f, -0.040654f, -0.064863f, -0.001236f, 0.169516f, 0.062432f, 0.114802f, 0.021736f, 0.085248f, -0.092226f, 0.035268f,
0.020947f, -0.115946f, -0.159825f, -0.197254f, -0.023089f, -0.012708f, -0.039601f, -0.078270f, -0.104442f, -0.052460f, 0.011842f, 0.165256f, -0.013283f, 0.057380f, 0.077857f,
0.081217f, -0.025420f, 0.013678f, 0.096355f, -0.050623f, -0.006088f, 0.019599f, -0.061295f, 0.052971f, 0.180372f, 0.131444f, 0.052239f, -0.124921f, 0.032631f, -0.077494f,
-0.013854f, 0.049131f, 0.028635f, -0.015153f, -0.122466f, -0.109759f, -0.067666f, 0.027030f, -0.066295f, 0.032001f, 0.048048f, 0.095561f, -0.224586f, -0.153580f, -0.200769f,
-0.033449f, 0.038444f, 0.110351f, 0.053314f, 0.052706f, 0.050899f, -0.089928f, -0.141828f, -0.042534f, -0.003467f, -0.010454f, -0.073693f, 0.026897f, 0.052492f, -0.097581f,
-0.075452f, -0.112223f, -0.246020f, -0.126688f, 0.030363f, 0.012486f, 0.028513f, 0.061931f, -0.004623f, -0.069211f, -0.011581f, 0.018372f, 0.050900f, 0.032886f, 0.036847f,
-0.014738f, -0.038701f, 0.122662f, 0.084403f, -0.006474f, -0.074998f, 0.074695f, -0.021121f, 0.101844f, 0.042928f, -0.088126f, -0.074035f, 0.023945f, 0.068165f, -0.043143f,
0.047315f, 0.065614f, 0.021013f, 0.031099f, -0.014105f, 0.054834f, -0.129405f, -0.022695f, 0.025739f, 0.075822f, 0.033712f, 0.032278f, 0.039576f, 0.014614f, -0.023721f,
-0.012197f, -0.050597f, 0.017675f, -0.028988f, 0.031964f, 0.010138f, 0.035563f, 0.036788f, -0.073875f, -0.013087f, -0.071328f, -0.042327f, 0.064005f, -0.069567f, 0.052339f,
-0.028436f, -0.032402f, -0.062552f, 0.135939f, 0.038006f, -0.115779f, -0.021702f, 0.028283f, -0.058302f, 0.073735f, -0.094533f, -0.045167f, -0.180226f, 0.008966f, -0.077829f,
0.042232f, 0.003991f, 0.093303f, -0.091083f, -0.007529f, -0.130834f, 0.099274f, 0.113844f, 0.027513f, -0.116142f, 0.112697f, 0.061821f, 0.112009f, 0.014559f, 0.080510f,
-0.010623f, -0.100162f, -0.130693f, 0.061114f, 0.049211f, -0.091725f, 0.004890f, -0.106442f, 0.062883f, -0.076477f, 0.075501f, -0.050207f, -0.088725f, -0.002685f, 0.043784f,
-0.111095f, -0.041212f, -0.097885f, 0.004792f, 0.058050f, -0.004271f, 0.170000f, -0.046601f, -0.028701f, 0.145457f, -0.114596f, 0.026895f, 0.079250f, 0.033841f, -0.025861f,
0.020233f, 0.048593f, -0.029214f, -0.086390f, 0.072029f, -0.061554f, 0.006544f, 0.076783f, -0.114728f, 0.017659f, -0.039224f, 0.007968f, -0.085941f, -0.099482f, -0.047968f,
-0.050910f, -0.038730f, 0.006750f, 0.041570f, -0.038919f, -0.090478f, -0.014738f, 0.144129f, 0.036765f, 0.104038f, -0.021508f, 0.112897f, -0.028084f, 0.108055f, -0.067932f,
-0.145050f, -0.059508f, 0.065955f, -0.064503f, -0.050349f, 0.037501f, 0.012140f, -0.006513f, -0.057236f, 0.073233f, -0.122491f, -0.173314f, 0.026627f, 0.068247f, 0.001756f,
0.035284f, -0.036160f, 0.169671f, 0.024692f, -0.023303f, 0.075873f, 0.095720f, -0.049666f, 0.111229f, -0.056804f, -0.000692f, 0.005947f, 0.073591f, -0.144864f, 0.068825f,
-0.057339f, 0.090533f, -0.187402f, 0.059712f, -0.103820f, -0.031140f, -0.059382f, -0.001260f, 0.026647f, 0.127327f, 0.169914f, 0.038406f, 0.032073f, -0.036270f, 0.014665f,
-0.058943f, -0.056323f, -0.034806f, -0.028340f, 0.054085f, -0.125396f, 0.091856f, -0.002331f, -0.103084f, 0.102832f, -0.030732f, 0.114882f, 0.039145f, 0.072669f, 0.129040f,
0.057003f, 0.006652f, -0.091104f, -0.028354f, -0.000934f, -0.123389f, -0.063088f, -0.090299f, 0.099543f, -0.139423f, -0.046011f, -0.037531f, 0.072812f, 0.001572f, 0.003229f,
-0.105161f, -0.023553f, -0.060991f, -0.005088f, 0.030178f, 0.021229f, -0.077541f, 0.067234f, 0.107880f, -0.074833f, 0.048225f, 0.082165f, 0.014966f, -0.005487f, 0.019614f,
0.109542f, -0.051956f, 0.000929f, 0.087626f, 0.111560f, 0.057407f, -0.056348f, 0.032278f, 0.032034f, 0.128746f, -0.011738f, 0.015827f, 0.015840f, -0.062151f, -0.071088f,
0.062346f, -0.086918f, -0.048702f, 0.115930f, 0.042779f, 0.150365f
};
const float speaker_model_model_0_bn2_weight[] = {
1.017348f, 0.824041f, 1.037799f, 1.086808f, 1.085128f, 1.034455f, 1.036328f, 1.003137f
};
const float speaker_model_model_0_bn2_bias[] = {
0.051146f, -0.046057f, -0.176913f, -0.288017f, -0.123502f, -0.117857f, 0.076401f, 0.002988f
};
const float speaker_model_model_0_bn2_running_mean[] = {
0.000605f, -0.100167f, 0.104583f, 0.083693f, -0.444340f, -0.335011f, 0.015724f, 0.216029f
};
const float speaker_model_model_0_bn2_running_var[] = {
0.309161f, 0.152798f, 0.144451f, 0.358136f, 0.114082f, 0.273330f, 0.170461f, 0.214514f
};
const float speaker_model_model_0_shortcut_0_weight[] = {
-0.336349f, 0.862979f, 0.268870f, 0.028221f, -0.532579f, -0.200910f, 0.559225f, -0.219467f
};
const float speaker_model_model_0_shortcut_1_weight[] = {
0.903976f, 0.926884f, 0.917865f, 0.929233f, 0.849346f, 0.982003f, 0.946079f, 0.964038f
};
const float speaker_model_model_0_shortcut_1_bias[] = {
0.051146f, -0.046057f, -0.176913f, -0.288017f, -0.123502f, -0.117857f, 0.076401f, 0.002988f
};
const float speaker_model_model_0_shortcut_1_running_mean[] = {
0.000000f, -0.000000f, -0.000000f, 0.000000f, -0.000000f, 0.000000f, -0.000000f, 0.000000f
};
const float speaker_model_model_0_shortcut_1_running_var[] = {
0.113175f, 0.744709f, 0.072215f, 0.000803f, 0.283829f, 0.040377f, 0.312861f, 0.048292f
};
const float speaker_model_model_2_conv1_weight[] = {
-0.078711f, -0.063010f, -0.081030f, 0.052129f, -0.040215f, 0.140047f, 0.069186f, 0.165297f, 0.126160f, 0.052541f, -0.011060f, -0.022882f, -0.135901f, 0.004547f, -0.069878f,
0.146938f, 0.106600f, 0.075020f, -0.002406f, 0.110504f, 0.017386f, 0.010609f, 0.147657f, 0.082356f, -0.009497f, 0.049858f, -0.125172f, 0.043018f, -0.046395f, -0.026455f,
-0.096797f, -0.098630f, -0.037608f, -0.038199f, -0.015408f, -0.079246f, -0.056034f, 0.004303f, 0.106114f, 0.013776f, 0.043438f, 0.042484f, 0.011762f, 0.067299f, 0.119006f,
0.063068f, 0.121877f, 0.169656f, 0.037258f, -0.079454f, -0.080791f, 0.025909f, -0.071207f, -0.185607f, 0.044659f, 0.053815f, 0.049205f, 0.033042f, -0.029041f, -0.019504f,
-0.052531f, -0.043623f, -0.098046f, -0.109536f, -0.104121f, -0.101804f, 0.014759f, 0.050305f, -0.117786f, 0.031864f, 0.091058f, 0.005326f, -0.050449f, -0.016042f, -0.010169f,
0.040846f, 0.050415f, 0.067135f, 0.088699f, -0.017772f, 0.111540f, -0.032801f, -0.078220f, -0.095677f, -0.011152f, -0.035512f, -0.042663f, 0.102735f, -0.015392f, 0.059373f,
0.024988f, -0.012202f, -0.050870f, -0.043930f, -0.013841f, -0.033582f, 0.112006f, 0.020622f, 0.021292f, -0.019759f, 0.044179f, -0.024582f, -0.115236f, -0.025952f, 0.014172f,
0.093514f, 0.089497f, 0.123051f, -0.130104f, -0.086661f, -0.162635f, 0.026873f, -0.006771f, 0.021219f, -0.043683f, -0.076396f, 0.011332f, -0.219850f, -0.187646f, -0.131353f,
-0.193202f, -0.158209f, -0.132424f, -0.044754f, -0.201918f, -0.125857f, -0.088523f, -0.084559f, -0.136193f, -0.003184f, -0.011927f, 0.012060f, -0.008503f, 0.010382f, 0.043194f,
-0.037996f, 0.004751f, -0.018997f, 0.009696f, 0.021126f, 0.045544f, 0.066384f, 0.028910f, 0.023839f, -0.055695f, 0.085913f, 0.052074f, 0.008101f, 0.024318f, -0.030311f,
0.051203f, -0.026551f, 0.110774f, -0.027311f, 0.108489f, -0.036419f, -0.031285f, -0.098945f, -0.168537f, 0.052928f, 0.127387f, 0.091345f, 0.076382f, 0.043533f, 0.062335f,
-0.011754f, 0.004136f, -0.006163f, -0.138497f, -0.122956f, -0.116623f, -0.030424f, -0.083947f, -0.077755f, 0.040834f, -0.041401f, -0.072922f, 0.126600f, 0.060056f, 0.047087f,
0.060163f, 0.034678f, 0.123721f, 0.017814f, -0.027978f, 0.065286f, 0.004154f, 0.031992f, 0.079824f, 0.039941f, 0.052121f, 0.030107f, -0.054316f, -0.015629f, -0.129356f,
0.050557f, 0.100465f, 0.072220f, -0.139702f, -0.166247f, -0.194483f, -0.063387f, -0.119334f, -0.074881f, -0.020199f, -0.046906f, -0.049309f, -0.015277f, 0.052281f, 0.052463f,
0.017168f, -0.076300f, -0.041089f, 0.072914f, 0.021052f, 0.128059f, -0.056642f, 0.098593f, -0.047784f, -0.024301f, 0.135819f, -0.127772f, 0.171078f, 0.088465f, 0.150989f,
-0.031409f, 0.032758f, -0.159932f, 0.019926f, 0.035663f, -0.008023f, -0.012291f, 0.049711f, 0.000474f, 0.014428f, 0.070109f, 0.049649f, 0.051055f, 0.147696f, 0.007263f,
0.007128f, -0.005046f, -0.014273f, -0.147553f, 0.057045f, -0.003974f, -0.007677f, 0.086935f, -0.000832f, 0.065853f, 0.045955f, 0.002550f, 0.017924f, 0.029264f, 0.077991f,
-0.048954f, -0.010281f, -0.080702f, 0.052288f, 0.007433f, 0.023410f, -0.127479f, -0.183036f, -0.208222f, 0.181834f, 0.132134f, 0.164637f, 0.110475f, 0.144682f, 0.054549f,
-0.145674f, -0.029590f, -0.036152f, 0.067851f, 0.093545f, -0.053574f, 0.086295f, -0.095885f, 0.054817f, -0.067200f, -0.034397f, 0.023691f, -0.052878f, -0.090566f, -0.085298f,
-0.056599f, -0.058399f, -0.075043f, 0.064827f, -0.001730f, 0.017508f, 0.091809f, -0.035267f, 0.138133f, 0.064245f, 0.032122f, -0.076482f, 0.136404f, 0.151730f, 0.031622f,
0.047663f, 0.046089f, -0.028156f, 0.071027f, 0.088937f, 0.101118f, 0.003267f, 0.068778f, -0.072056f, -0.014442f, 0.083489f, 0.119265f, -0.172653f, -0.073884f, -0.062220f,
0.001657f, -0.051268f, -0.059672f, -0.025387f, -0.070422f, 0.010865f, 0.034310f, -0.008620f, 0.157318f, -0.062244f, -0.161704f, -0.041295f, 0.038577f, -0.005209f, -0.111280f,
-0.051666f, -0.034297f, -0.031352f, 0.085586f, 0.016423f, 0.109350f, -0.127698f, -0.198022f, -0.008877f, 0.108442f, 0.005430f, -0.003588f, -0.016632f, -0.012815f, 0.071573f,
-0.027679f, -0.126986f, -0.035097f, 0.006351f, 0.045662f, 0.053744f, 0.051716f, -0.013743f, -0.077302f, 0.123885f, 0.031602f, 0.036942f, -0.030493f, -0.016161f, -0.023567f,
-0.002161f, 0.112143f, -0.028919f, 0.010815f, 0.061976f, 0.237891f, 0.023742f, 0.057568f, 0.094930f, -0.075155f, 0.040137f, 0.035015f, 0.005805f, 0.053669f, 0.051126f,
-0.017062f, 0.034088f, 0.090819f, 0.090796f, 0.085434f, 0.031386f, -0.050675f, 0.055088f, 0.087769f, 0.100889f, 0.114307f, 0.079519f, 0.049105f, -0.052516f, 0.053761f,
-0.003218f, -0.146794f, 0.037710f, 0.026016f, 0.051644f, -0.004136f, -0.068820f, -0.009851f, 0.058260f, 0.167733f, 0.106491f, 0.108937f, 0.115152f, 0.043549f, 0.177222f,
0.012472f, 0.104519f, 0.075937f, 0.077329f, 0.120120f, 0.063437f, 0.003162f, -0.015110f, -0.022170f, 0.047735f, 0.072154f, 0.123664f, -0.012010f, 0.008939f, 0.012463f,
-0.037854f, 0.018893f, -0.061489f, -0.086896f, -0.119050f, -0.146560f, -0.040728f, 0.024405f, 0.081037f, 0.071556f, 0.101492f, 0.037625f, 0.131251f, 0.077764f, 0.008575f,
0.001782f, -0.135849f, -0.081921f, -0.072197f, -0.047769f, 0.013762f, -0.011557f, 0.088852f, -0.027767f, 0.095740f, 0.014887f, -0.039150f, -0.006831f, 0.031042f, -0.065575f,
0.016774f, 0.010933f, -0.026249f, 0.008485f, -0.009194f, -0.090611f, -0.045836f, -0.042657f, 0.115772f, 0.024463f, -0.046529f, 0.026420f, -0.005771f, -0.092680f, -0.121884f,
-0.015974f, -0.157833f, -0.026024f, 0.092982f, 0.106164f, 0.082245f, 0.073071f, -0.037658f, -0.004210f, 0.032602f, 0.024061f, 0.026616f, -0.099035f, -0.048783f, -0.037137f,
0.070651f, 0.212898f, 0.179020f, -0.002205f, -0.005748f, 0.022157f, 0.001717f, -0.110282f, -0.016184f, -0.116326f, -0.148673f, -0.145241f, -0.126301f, -0.120171f, -0.163412f,
-0.045697f, -0.108428f, 0.063101f, 0.056310f, -0.018493f, -0.029684f, -0.059954f, -0.000025f, 0.086676f, -0.016392f, -0.040976f, 0.023764f, 0.019009f, -0.068861f, -0.051405f,
-0.036749f, -0.039413f, 0.032877f, 0.008243f, -0.052603f, -0.011436f, 0.092615f, 0.032258f, 0.059042f, -0.006854f, 0.077746f, 0.043274f, -0.101592f, -0.057744f, -0.079271f,
-0.039861f, 0.047630f, -0.050551f, 0.039697f, -0.021436f, 0.010857f, -0.008528f, 0.137706f, 0.021705f, -0.089791f, -0.059691f, -0.098964f, -0.129961f, 0.022722f, -0.138304f,
0.003321f, 0.089910f, 0.036636f, 0.005241f, 0.054172f, 0.030526f, 0.081881f, 0.002164f, 0.014552f, -0.124326f, -0.164931f, -0.180400f, -0.046828f, -0.073391f, -0.032854f,
-0.175961f, -0.223167f, -0.272854f, -0.179703f, -0.116591f, -0.077927f, -0.071219f, -0.166540f, -0.079014f, 0.012290f, -0.009528f, -0.021018f, -0.016258f, 0.039357f, 0.093920f,
0.076914f, -0.078546f, -0.021729f, 0.052283f, 0.074150f, 0.153463f, 0.020351f, 0.084966f, 0.112092f, 0.054323f, -0.070844f, 0.126791f, 0.002610f, 0.035402f, -0.006261f,
0.009225f, 0.089347f, 0.142390f, 0.046431f, -0.018488f, 0.086192f, -0.017890f, -0.062202f, 0.017363f, 0.024547f, 0.086905f, 0.054089f, 0.008224f, -0.035077f, -0.125283f,
-0.180166f, -0.081655f, -0.202069f, 0.005416f, 0.085741f, 0.038024f, 0.098548f, 0.096178f, 0.077745f, 0.018725f, 0.028124f, 0.116782f, 0.034695f, -0.069014f, -0.043044f,
0.024364f, 0.139972f, 0.128183f, -0.048605f, 0.017505f, 0.084115f, -0.003367f, 0.055618f, 0.102559f, 0.030977f, 0.022947f, 0.096467f, 0.019572f, -0.025450f, 0.004590f,
-0.018389f, -0.021875f, 0.057102f, -0.037958f, -0.140220f, -0.030392f, -0.051247f, 0.015110f, 0.070414f, -0.031395f, -0.088665f, -0.066819f, 0.023197f, 0.071772f, -0.116253f,
0.119624f, 0.050990f, 0.111911f, -0.055942f, 0.057564f, -0.046439f, 0.113444f, 0.038729f, 0.094707f, 0.030352f, -0.034504f, 0.084046f, -0.147608f, -0.049264f, -0.058198f,
0.039820f, -0.081772f, -0.133255f, 0.160456f, -0.023431f, 0.060521f, 0.171257f, 0.131158f, 0.143629f, 0.010889f, 0.019379f, -0.063316f, -0.096987f, -0.100113f, 0.044096f,
0.054801f, 0.030310f, 0.034489f, 0.000157f, 0.006479f, 0.038898f, 0.037048f, -0.023674f, 0.003763f, 0.004002f, 0.035213f, 0.025509f, 0.029818f, -0.091468f, -0.015702f,
0.047144f, -0.031599f, 0.062770f, 0.071544f, 0.227404f, 0.177295f, 0.050175f, 0.001110f, -0.037295f, 0.084975f, 0.097570f, -0.038165f, 0.041558f, 0.089810f, 0.099367f,
0.101107f, 0.075127f, 0.101681f, 0.076618f, 0.040356f, 0.087835f, -0.059517f, -0.001436f, -0.039477f, -0.029983f, -0.090206f, -0.096898f, -0.021606f, -0.037054f, 0.016537f,
-0.021160f, -0.041337f, -0.054339f, 0.016245f, 0.075589f, 0.019198f, -0.021120f, -0.027224f, 0.119466f, 0.034262f, 0.060132f, 0.074925f, 0.033438f, 0.058412f, -0.023889f,
0.012898f, -0.040469f, -0.047150f, -0.103408f, -0.106344f, -0.137548f, 0.031759f, 0.123432f, 0.073320f, 0.139410f, 0.166017f, 0.184643f, 0.014689f, 0.145621f, -0.017555f,
0.074149f, -0.033488f, 0.027136f, 0.035027f, -0.021161f, -0.039648f, -0.038558f, 0.016154f, 0.017939f, -0.039016f, -0.058768f, 0.041174f, 0.022082f, 0.035005f, 0.129907f,
-0.022176f, 0.083403f, -0.003300f, -0.002841f, 0.101824f, 0.127542f, -0.066911f, -0.061562f, 0.091551f, 0.107218f, 0.151461f, 0.047429f, 0.008006f, 0.124834f, -0.030297f,
-0.043295f, 0.115437f, 0.060664f, -0.096179f, -0.063177f, -0.000950f, -0.061020f, 0.008019f, -0.041449f, -0.005002f, 0.065277f, 0.106689f, -0.027127f, -0.123506f, -0.039934f,
0.037955f, 0.051998f, -0.004857f, 0.010042f, 0.017900f, 0.110365f, 0.099710f, 0.012621f, 0.034959f, -0.009050f, -0.027495f, 0.004766f, -0.120677f, 0.000579f, -0.023211f,
-0.018440f, -0.058200f, -0.138339f, 0.024602f, 0.047120f, -0.002062f, 0.121837f, 0.115530f, 0.106944f, -0.034864f, 0.129017f, 0.001194f, 0.024119f, -0.109520f, -0.018983f,
-0.185569f, -0.111581f, -0.181712f, 0.093686f, 0.175747f, 0.160027f, -0.140776f, -0.040259f, -0.101046f, 0.099727f, 0.023440f, 0.084202f, 0.122874f, 0.036649f, 0.088206f,
0.008630f, 0.115650f, 0.043509f, 0.073820f, 0.036845f, 0.032214f, 0.018724f, 0.116599f, 0.017449f, -0.035470f, -0.035044f, -0.077395f, -0.020480f, 0.008271f, 0.164040f,
-0.051137f, 0.041641f, -0.009485f, 0.003323f, -0.141771f, -0.049131f, -0.045418f, 0.056506f, 0.065997f, -0.091703f, 0.033453f, -0.040914f, -0.087031f, -0.012178f, -0.121444f,
-0.035960f, -0.065508f, -0.017400f, -0.099660f, -0.017676f, -0.047323f, -0.000919f, 0.053383f, 0.035808f, -0.083816f, 0.036504f, 0.120039f, -0.034673f, -0.023071f, 0.005154f,
-0.091062f, -0.098897f, -0.082975f, -0.081339f, -0.056556f, -0.069469f, 0.020252f, 0.113517f, 0.017903f, 0.049211f, 0.060407f, 0.163196f, 0.053711f, 0.002243f, 0.161070f,
-0.057205f, -0.137950f, -0.109412f, 0.105090f, 0.068076f, 0.052560f, 0.076187f, -0.050490f, 0.045421f, 0.086581f, 0.059519f, 0.064430f, 0.064864f, 0.148013f, 0.085490f,
0.161711f, 0.113756f, 0.128462f, -0.018585f, -0.093548f, -0.126692f, 0.035500f, -0.016197f, -0.026796f, -0.112204f, -0.094258f, -0.197897f, -0.045305f, -0.044168f, -0.001918f,
0.012447f, -0.068152f, -0.012047f, 0.115035f, 0.037324f, 0.103010f, 0.007602f, 0.037435f, 0.058066f, -0.069364f, -0.099100f, -0.027492f, 0.075553f, 0.092537f, 0.087197f,
-0.049943f, -0.124250f, -0.148560f, -0.083987f, -0.116602f, -0.029576f, -0.024787f, -0.020647f, -0.009631f, -0.036707f, 0.118269f, 0.149879f, 0.073104f, 0.030247f, -0.006552f,
0.099948f, 0.083793f, 0.019410f, 0.049320f, 0.128659f, -0.040743f, -0.019154f, -0.003513f, 0.079551f, -0.025834f, -0.060243f, -0.120190f, -0.005594f, -0.074279f, 0.118177f,
0.024070f, -0.006029f, 0.057363f, 0.061223f, -0.051705f, 0.056354f, -0.066761f, -0.080586f, -0.167415f, 0.096317f, -0.114826f, -0.157692f, -0.031544f, -0.121816f, -0.309126f,
-0.060727f, -0.004059f, 0.005567f, 0.012228f, -0.035410f, 0.029918f, -0.032959f, 0.020848f, 0.013593f, -0.027356f, -0.043926f, -0.055998f, -0.014843f, -0.058095f, -0.100649f,
-0.011672f, 0.049306f, 0.062209f, 0.075135f, 0.056082f, -0.053529f, 0.018778f, -0.042288f, -0.197127f, 0.130159f, 0.028737f, 0.120295f, 0.029571f, -0.033777f, 0.093583f,
-0.094612f, 0.041911f, -0.094658f, -0.007190f, -0.074560f, -0.013462f, 0.019777f, -0.015885f, 0.090849f, -0.065607f, 0.090859f, 0.055889f, 0.100539f, 0.080305f, 0.102137f,
-0.020053f, -0.024004f, -0.104222f, -0.149288f, -0.061994f, -0.017656f, -0.105834f, -0.023818f, -0.051254f, 0.057528f, -0.041516f, 0.122534f, -0.069555f, -0.044845f, 0.043637f,
-0.105658f, 0.017404f, 0.017273f, -0.022681f, 0.043669f, -0.004264f, 0.017562f, 0.156543f, 0.016949f, -0.256851f, -0.088691f, -0.095604f, -0.023044f, -0.016885f, 0.024776f,
-0.004959f, -0.064561f, -0.059795f, -0.077686f, -0.036511f, -0.017799f, 0.068756f, -0.050903f, -0.045564f, 0.064305f, -0.128025f, -0.176135f, 0.013230f, -0.062620f, -0.140215f,
0.008958f, 0.017868f, -0.026323f, 0.042372f, 0.146409f, -0.014290f, -0.071786f, 0.004454f, -0.106425f, 0.081245f, 0.079249f, -0.026368f, -0.065232f, -0.059465f, 0.008359f,
0.020067f, -0.030274f, -0.042258f, 0.078356f, -0.004165f, -0.026256f, 0.009330f, 0.068794f, 0.017484f, 0.031522f, 0.068124f, 0.013880f, -0.040568f, -0.068177f, -0.026080f,
0.011682f, -0.066912f, -0.207277f, 0.032644f, -0.054509f, -0.035179f, 0.081885f, 0.125777f, 0.214072f, -0.060087f, -0.089336f, -0.038122f, 0.011928f, -0.032058f, 0.007063f,
-0.009422f, -0.038604f, 0.045470f, -0.090513f, -0.194899f, -0.125407f, -0.031884f, -0.266494f, -0.235910f, 0.023365f, -0.030463f, -0.099409f, -0.063058f, -0.117561f, -0.209347f,
-0.087496f, -0.028316f, -0.010760f, 0.029646f, 0.103368f, 0.085983f, 0.077646f, 0.069357f, 0.041731f, -0.027570f, -0.039462f, -0.014222f, 0.095916f, 0.068099f, 0.064286f,
0.046953f, 0.112388f, 0.047231f, -0.063380f, 0.050566f, -0.016926f, -0.044819f, -0.131571f, -0.050537f, -0.062514f, 0.025253f, -0.117114f, -0.007664f, -0.041678f, -0.119246f,
-0.016007f, -0.061260f, -0.005566f, -0.047831f, 0.016259f, 0.036159f, 0.041909f, 0.033513f, 0.096375f, -0.149397f, -0.176757f, -0.155673f, -0.152583f, -0.085658f, 0.007139f,
0.027403f, -0.027123f, 0.046819f, -0.082044f, -0.202724f, -0.013314f, 0.037567f, -0.047200f, -0.077745f, -0.040108f, -0.029814f, 0.001544f, 0.052888f, 0.032511f, 0.035060f,
-0.034370f, -0.054895f, -0.058487f, 0.004722f, 0.128132f, 0.112461f, 0.036076f, -0.045953f, 0.016876f, 0.020126f, -0.017128f, -0.013899f, -0.047745f, -0.065557f, -0.182770f,
0.024209f, -0.107431f, -0.019469f, 0.020954f, -0.013916f, -0.065140f, 0.095073f, -0.076879f, -0.082495f, -0.201038f, -0.037500f, -0.096792f, 0.031341f, -0.093375f, -0.074052f,
-0.017616f, 0.063750f, -0.002344f, -0.030041f, 0.010220f, -0.050047f, -0.003869f, -0.005780f, 0.009674f, 0.021175f, 0.079145f, 0.101099f, 0.003223f, -0.034105f, 0.057031f,
-0.063230f, 0.036099f, 0.083538f, 0.108619f, 0.134995f, -0.011819f, -0.045829f, -0.060937f, -0.071523f, -0.082118f, -0.028308f, -0.066262f, 0.102114f, 0.130876f, 0.029850f,
0.052396f, -0.068769f, -0.099053f, -0.045362f, -0.033470f, -0.034992f, 0.004809f, -0.062611f, 0.002772f, 0.250244f, 0.070683f, 0.052754f, -0.094078f, -0.010125f, -0.017460f,
0.066053f, 0.141263f, 0.152683f, -0.148502f, -0.273298f, -0.240665f, 0.000456f, 0.009396f, 0.079194f, -0.086914f, -0.083707f, -0.010839f, -0.027072f, -0.081812f, -0.080080f,
0.008693f, -0.060662f, 0.096486f, 0.021465f, -0.064590f, 0.004613f, -0.043391f, 0.030544f, 0.002800f, -0.062951f, 0.014084f, -0.094474f, -0.040051f, 0.051967f, 0.032311f,
0.009851f, -0.018701f, -0.006048f, -0.060904f, 0.003971f, 0.054356f, 0.011973f, -0.176702f, -0.044269f, 0.112340f, 0.110068f, 0.108088f, -0.162622f, -0.030041f, -0.070139f,
0.018737f, -0.042204f, -0.178161f, -0.004878f, 0.025968f, 0.088162f, 0.090196f, -0.013273f, 0.002854f, -0.048253f, 0.014092f, 0.200804f, 0.145713f, 0.055447f, 0.040841f,
0.025630f, 0.021326f, 0.122159f, 0.100190f, -0.003700f, 0.006658f, -0.006933f, 0.067913f, 0.073335f, 0.048545f, -0.013008f, -0.045323f, -0.011845f, 0.071118f, 0.169671f,
-0.127547f, -0.082140f, -0.209671f, -0.060710f, -0.083864f, 0.002499f, 0.030918f, 0.066644f, 0.032099f, -0.071237f, 0.000537f, 0.000507f, -0.005991f, -0.099195f, -0.068860f,
0.021766f, -0.083625f, -0.153768f, 0.008192f, -0.092316f, 0.049460f, 0.095978f, 0.079419f, 0.045249f, 0.068339f, -0.040351f, 0.115978f, 0.014805f, -0.020108f, -0.041668f,
0.017658f, -0.000429f, 0.016729f, 0.052635f, -0.007375f, -0.031357f, 0.088971f, 0.051982f, -0.001504f, -0.056827f, -0.039799f, 0.066540f, -0.115527f, -0.073879f, -0.083275f,
-0.022982f, 0.016943f, 0.017463f, 0.093192f, 0.059638f, 0.051719f, -0.038940f, -0.025452f, 0.030561f, -0.107553f, -0.043177f, -0.105053f, 0.071307f, 0.041179f, -0.021092f,
0.053318f, 0.054346f, 0.069137f, 0.048520f, -0.106663f, -0.116650f, -0.182488f, -0.186042f, -0.193736f, -0.051438f, -0.110932f, -0.276793f, -0.044438f, -0.127885f, -0.045166f,
-0.063543f, -0.099884f, -0.122516f, -0.009042f, -0.140079f, -0.045208f, -0.067684f, -0.087005f, 0.154309f, -0.090721f, -0.024446f, 0.028398f, -0.046793f, -0.094501f, -0.055568f,
0.135687f, 0.086111f, 0.016670f, -0.044202f, -0.051048f, 0.016634f, 0.028298f, 0.021510f, 0.066795f, 0.092031f, 0.024100f, 0.133689f, 0.124068f, -0.095947f, -0.054203f,
0.068914f, -0.040575f, 0.027561f, 0.097276f, 0.112618f, 0.107195f, -0.067599f, 0.055128f, -0.003723f, 0.083887f, 0.062222f, 0.162952f, -0.093822f, 0.077971f, -0.045419f,
0.006725f, 0.030340f, 0.029180f, -0.139090f, -0.070624f, 0.015972f, 0.065686f, 0.053446f, -0.064189f, -0.047347f, 0.081479f, -0.062054f, 0.029837f, -0.058593f, -0.074280f,
0.196498f, 0.102147f, 0.162288f, 0.129397f, 0.228013f, 0.154647f, 0.013857f, -0.066194f, -0.121370f, -0.142463f, 0.023793f, -0.139064f, 0.028541f, 0.120882f, 0.025475f,
-0.028205f, 0.148635f, 0.154132f, 0.020680f, 0.092108f, 0.014873f, 0.008605f, -0.080134f, 0.023620f, 0.037848f, 0.033267f, 0.065401f, -0.026179f, 0.038340f, -0.068494f,
0.133073f, 0.068616f, 0.083796f, -0.006018f, 0.019655f, -0.056494f, 0.072530f, -0.055071f, 0.027489f, 0.037512f, 0.094190f, 0.119393f, -0.000457f, -0.043196f, -0.041056f,
-0.057620f, -0.006317f, -0.040745f, -0.039003f, -0.021565f, 0.017299f, 0.033801f, 0.122742f, 0.088165f, -0.021306f, 0.094102f, 0.015433f, -0.014860f, 0.104829f, 0.030997f,
0.010185f, -0.010672f, 0.034442f, -0.038983f, -0.061448f, -0.113810f, 0.072267f, -0.011512f, 0.027610f, -0.069047f, 0.015578f, -0.049410f, -0.019766f, -0.013109f, -0.032512f,
0.081663f, 0.033687f, 0.014846f, 0.034582f, -0.064766f, -0.077591f, -0.016155f, -0.087666f, -0.045095f, -0.121584f, -0.159925f, -0.180976f, -0.037850f, -0.093473f, -0.036631f,
-0.108393f, -0.123662f, -0.145256f, 0.102282f, 0.035423f, 0.153841f, -0.066839f, -0.101866f, -0.178898f, 0.022574f, -0.025279f, -0.021362f, -0.007739f, -0.032139f, -0.089641f,
-0.103271f, 0.018759f, -0.060997f, -0.045451f, -0.125261f, -0.076169f, -0.094023f, -0.037465f, -0.148614f, -0.172513f, -0.107490f, -0.027720f, 0.021038f, -0.034014f, -0.100189f,
0.002619f, 0.005075f, -0.090985f, 0.039293f, -0.048969f, -0.077036f, 0.051089f, 0.050913f, 0.031216f, 0.038900f, 0.119653f, 0.174257f, 0.033606f, -0.002592f, 0.056382f,
0.014481f, 0.016689f, 0.086429f, 0.016858f, -0.105602f, 0.081225f, 0.092407f, 0.014837f, 0.051405f, -0.004299f, -0.004557f, -0.028725f, -0.040939f, 0.058507f, 0.033795f,
0.052453f, 0.210781f, 0.212076f, 0.081832f, 0.023153f, 0.010668f, -0.022023f, -0.069332f, 0.080185f, 0.138714f, 0.114013f, 0.227049f, -0.090402f, 0.055191f, -0.042393f,
0.044252f, 0.002427f, -0.120435f, -0.068837f, -0.075829f, -0.082504f, 0.015248f, -0.071849f, -0.099599f, 0.092149f, -0.038736f, 0.030481f, 0.147591f, 0.097987f, 0.058972f,
-0.097927f, -0.126988f, -0.099987f, -0.128919f, 0.016040f, -0.094014f, 0.004504f, 0.083449f, 0.145772f, 0.029169f, 0.056092f, -0.026259f, 0.117142f, 0.040665f, 0.097880f,
0.145862f, 0.145911f, 0.045357f, 0.083817f, 0.055243f, -0.024091f, 0.034307f, -0.056915f, -0.010846f, 0.026653f, -0.007638f, -0.115431f, -0.100456f, -0.078568f, -0.126750f,
-0.069174f, -0.003902f, -0.001454f, 0.080419f, 0.022458f, 0.016304f, -0.071281f, 0.001566f, -0.029460f, -0.031727f, 0.032945f, 0.029455f, 0.030565f, 0.046282f, 0.047567f,
-0.122706f, 0.009332f, 0.039622f, -0.024936f, -0.005057f, -0.022259f, -0.006396f, -0.088265f, 0.002272f, -0.035445f, 0.079785f, -0.035417f, -0.160140f, 0.014127f, 0.017572f,
0.084331f, -0.048730f, -0.118782f
};
const float speaker_model_model_2_bn1_weight[] = {
0.994321f, 1.016856f, 1.023972f, 0.969599f, 0.968895f, 0.933427f, 0.931970f, 1.049197f, 0.934505f, 0.895833f, 0.952579f, 0.975545f, 1.056780f, 0.976575f, 1.013475f,
1.001986f, 1.043517f, 1.028831f, 0.977514f, 0.991974f, 0.975721f, 1.004242f, 0.982377f, 0.958592f
};
const float speaker_model_model_2_bn1_bias[] = {
-0.075459f, 0.093581f, -0.307153f, -0.346130f, -0.070219f, 0.201360f, -0.060357f, -0.370101f, 0.046813f, -0.075968f, 0.224772f, -0.133346f, -0.229909f, -0.011960f, -0.139980f,
-0.384362f, 0.103371f, -0.181886f, -0.547961f, 0.163156f, -0.344599f, -0.259677f, 0.078643f, -0.176327f
};
const float speaker_model_model_2_bn1_running_mean[] = {
0.261391f, -0.424976f, -0.166221f, 0.149882f, 0.363232f, 1.105318f, -0.458375f, -0.426851f, 0.477405f, 0.483404f, 0.650599f, 0.185550f, -0.483879f, -0.353469f, -0.412178f,
-0.270992f, -0.678468f, -0.619591f, -0.361957f, -0.579619f, 0.837509f, -0.388374f, -0.383038f, -0.186442f
};
const float speaker_model_model_2_bn1_running_var[] = {
0.289739f, 0.272164f, 0.169034f, 0.230041f, 0.469103f, 0.795935f, 0.200853f, 0.135873f, 0.243797f, 0.161838f, 0.292726f, 0.206583f, 0.187489f, 0.266615f, 0.197791f,
0.168668f, 0.297272f, 0.214225f, 0.173134f, 0.120860f, 0.474634f, 0.207603f, 0.525213f, 0.283101f
};
const float speaker_model_model_2_conv2_weight[] = {
0.033081f, 0.041102f, 0.030588f, 0.043609f, 0.031350f, 0.024969f, 0.033595f, 0.027880f, -0.002272f, 0.040353f, 0.021314f, 0.034726f, 0.043484f, 0.053463f, 0.018351f,
-0.042391f, -0.057614f, -0.112181f, -0.021964f, -0.038977f, -0.034310f, -0.071763f, -0.075864f, -0.026535f, -0.035079f, -0.039017f, -0.010712f, -0.019611f, 0.019529f, -0.001659f,
-0.038248f, 0.020726f, -0.028481f, 0.009888f, 0.052018f, -0.022549f, -0.041927f, -0.062330f, -0.081071f, -0.010508f, -0.027555f, -0.084595f, 0.032534f, 0.022973f, -0.002317f,
0.009742f, 0.035822f, 0.027214f, 0.010183f, 0.080568f, 0.056039f, 0.010929f, 0.043615f, 0.092082f, 0.000627f, 0.024521f, -0.034673f, 0.001677f, -0.009829f, 0.016548f,
-0.018204f, -0.020530f, 0.023777f, 0.105273f, 0.093018f, 0.083743f, -0.008801f, -0.047293f, -0.064808f, -0.122675f, -0.103962f, -0.092436f, 0.060498f, 0.005953f, 0.003422f,
0.071371f, 0.059856f, 0.061094f, 0.028201f, 0.034658f, 0.044298f, -0.055478f, -0.052699f, -0.059273f, -0.024006f, -0.085002f, -0.030241f, -0.013911f, -0.035335f, -0.013340f,
0.007580f, -0.030880f, -0.055592f, -0.067412f, -0.064360f, -0.101843f, 0.029503f, -0.006588f, -0.022990f, 0.014920f, 0.040082f, 0.024445f, 0.021206f, 0.018176f, 0.007369f,
-0.031051f, -0.027726f, -0.008524f, 0.016882f, 0.005983f, 0.031697f, -0.016031f, 0.011036f, -0.054814f, 0.000098f, -0.013516f, -0.021855f, -0.063931f, -0.037810f, -0.050803f,
-0.020408f, -0.054453f, -0.007435f, -0.097337f, -0.133402f, -0.139465f, 0.049974f, 0.096148f, 0.074072f, 0.034249f, 0.024758f, 0.039305f, 0.081997f, 0.066153f, 0.090896f,
0.062324f, 0.090760f, 0.093384f, 0.068451f, 0.109093f, 0.141004f, 0.073724f, 0.054158f, 0.054783f, -0.069851f, 0.005912f, -0.066419f, -0.111482f, 0.029635f, -0.049031f,
-0.036706f, -0.021053f, -0.078263f, -0.021469f, -0.023309f, -0.078938f, -0.057628f, -0.048494f, -0.042624f, 0.042943f, 0.034295f, 0.017427f, -0.056226f, -0.019419f, -0.043877f,
-0.059173f, -0.084333f, -0.091777f, 0.006056f, 0.010192f, 0.006906f, 0.044267f, 0.044328f, 0.048748f, 0.036688f, 0.050773f, 0.067309f, 0.030795f, 0.023076f, 0.046319f,
-0.006632f, -0.011530f, 0.010348f, -0.010270f, 0.018207f, -0.042297f, -0.016508f, 0.042208f, -0.018019f, -0.026169f, 0.005891f, -0.021192f, -0.027818f, -0.044311f, -0.052404f,
-0.032944f, -0.027107f, -0.071059f, 0.136639f, 0.118120f, 0.021200f, 0.107170f, 0.066494f, 0.095232f, -0.031439f, -0.013053f, -0.031605f, -0.068837f, -0.057028f, -0.067641f,
-0.025973f, 0.012017f, 0.006416f, 0.012357f, 0.042953f, 0.030647f, -0.021330f, 0.029485f, 0.019619f, -0.018792f, -0.020194f, -0.052170f, -0.087703f, -0.024215f, 0.009231f,
0.029728f, 0.034839f, 0.051432f, 0.032608f, 0.063637f, 0.010971f, 0.072941f, 0.054920f, 0.096952f, 0.013414f, 0.049297f, 0.040572f, 0.048033f, 0.066253f, 0.007719f,
0.014698f, 0.051894f, 0.074512f, -0.032561f, 0.020372f, 0.076631f, 0.010112f, 0.037964f, -0.032551f, 0.011143f, 0.031863f, -0.000594f, 0.064630f, -0.018630f, 0.030656f,
0.036631f, -0.003991f, 0.008260f, 0.029981f, 0.038460f, 0.098493f, -0.058305f, -0.074826f, -0.113666f, -0.023159f, 0.021993f, 0.010698f, -0.098663f, -0.086898f, -0.122641f,
-0.022677f, 0.006475f, 0.008829f, 0.048710f, -0.011064f, 0.016635f, 0.033537f, 0.066975f, 0.051199f, -0.039769f, -0.061103f, -0.117433f, -0.113603f, -0.114466f, -0.182317f,
-0.042848f, -0.054347f, -0.067664f, -0.013085f, -0.036909f, -0.016828f, -0.064439f, -0.094683f, -0.061555f, -0.045463f, -0.038115f, -0.057966f, 0.010839f, -0.001789f, 0.018650f,
0.004536f, -0.032680f, -0.046235f, 0.008323f, 0.055861f, 0.007133f, -0.015327f, 0.048047f, 0.022540f, -0.002767f, -0.026163f, -0.068484f, -0.044368f, -0.013892f, -0.024278f,
0.006409f, -0.009451f, -0.020033f, 0.042353f, 0.067565f, 0.076716f, 0.078652f, 0.059593f, 0.091953f, 0.022669f, 0.044762f, 0.023570f, 0.094523f, 0.020775f, 0.031492f,
0.071092f, 0.088579f, 0.050753f, 0.053578f, 0.035389f, -0.006440f, 0.086166f, 0.038839f, 0.066691f, 0.087623f, 0.098957f, 0.136431f, -0.024624f, -0.046551f, -0.046189f,
-0.007633f, -0.025112f, -0.063163f, -0.064887f, -0.064985f, -0.084733f, -0.040162f, -0.010839f, -0.016223f, -0.042828f, -0.024098f, -0.047963f, -0.114186f, -0.031251f, -0.158578f,
-0.061244f, 0.034139f, -0.039901f, -0.006253f, 0.001355f, -0.033024f, -0.008418f, -0.008868f, -0.025988f, 0.008049f, -0.019457f, -0.074499f, 0.001699f, 0.025605f, 0.034765f,
0.003631f, 0.020956f, -0.001484f, 0.007452f, 0.042009f, 0.058036f, -0.008904f, -0.001897f, 0.016556f, 0.052428f, 0.038228f, 0.032312f, -0.007460f, -0.041579f, -0.030775f,
-0.011367f, -0.023564f, -0.063648f, -0.049575f, -0.097170f, -0.125188f, 0.013198f, 0.034200f, -0.008474f, 0.002608f, 0.008747f, 0.062223f, 0.027179f, 0.056638f, -0.002713f,
0.031509f, 0.041333f, 0.031127f, 0.034144f, 0.089101f, 0.069645f, 0.060805f, 0.092614f, 0.106761f, -0.034082f, -0.040888f, -0.052906f, -0.081945f, -0.079512f, -0.130453f,
0.029853f, -0.025758f, 0.005313f, -0.004824f, 0.002723f, -0.016434f, -0.026251f, -0.033794f, -0.008758f, -0.057541f, -0.037309f, -0.090571f, -0.057391f, -0.078760f, -0.039985f,
-0.002408f, 0.073949f, -0.010892f, -0.123905f, -0.051241f, -0.047553f, 0.030309f, 0.028249f, -0.006929f, 0.076502f, 0.003834f, 0.052163f, 0.009755f, -0.015239f, -0.002747f,
-0.025893f, 0.022416f, 0.123954f, 0.011400f, 0.027119f, 0.059170f, -0.016106f, 0.047673f, 0.009121f, -0.030513f, -0.009402f, -0.067619f, 0.031984f, -0.011114f, 0.025080f,
0.017119f, -0.027551f, -0.001929f, -0.027071f, -0.010989f, -0.056866f, 0.026492f, -0.022954f, -0.058090f, 0.003909f, 0.017029f, -0.005167f, -0.029874f, 0.019377f, -0.012864f,
0.158458f, 0.134505f, 0.079215f, 0.012843f, -0.024171f, -0.056204f, -0.135867f, -0.066514f, -0.063134f, 0.003894f, -0.007983f, -0.055977f, -0.076226f, -0.061621f, -0.040806f,
0.018462f, 0.044516f, 0.000814f, -0.050251f, -0.091197f, -0.157138f, 0.019971f, 0.019985f, 0.008703f, 0.042331f, -0.004155f, 0.029307f, -0.058642f, -0.037777f, -0.064834f,
-0.036925f, -0.076886f, -0.038637f, -0.001570f, -0.028445f, 0.016736f, -0.025150f, -0.018442f, -0.030172f, -0.046744f, -0.026274f, -0.083968f, -0.011554f, -0.017004f, 0.000049f,
-0.064776f, -0.067299f, -0.053708f, -0.003687f, -0.047612f, -0.018301f, -0.008825f, -0.039459f, -0.039210f, 0.059858f, 0.018124f, 0.076077f, 0.018627f, 0.033477f, 0.053784f,
-0.012363f, -0.009916f, -0.096110f, 0.049087f, -0.018449f, 0.017943f, 0.038157f, 0.082437f, 0.026362f, -0.088515f, -0.007685f, -0.032656f, -0.027530f, -0.055382f, -0.048466f,
0.030741f, 0.023223f, 0.087197f, -0.029236f, -0.019927f, -0.005924f, 0.041944f, 0.035691f, 0.014510f, 0.073170f, 0.091227f, 0.042688f, 0.092397f, 0.122854f, 0.089284f,
0.109548f, 0.076000f, 0.017001f, 0.041203f, 0.039200f, -0.029865f, -0.050159f, 0.030108f, -0.003066f, -0.042357f, -0.004469f, -0.026305f, -0.005191f, 0.023636f, -0.025081f,
-0.016479f, -0.032704f, -0.041277f, 0.020148f, 0.017142f, -0.001929f, -0.096258f, -0.038058f, 0.002955f, 0.047629f, 0.038933f, 0.071902f, -0.019136f, 0.006904f, 0.062721f,
0.011055f, 0.008141f, -0.019440f, -0.006680f, -0.029187f, 0.039472f, 0.073374f, 0.044512f, 0.002862f, -0.005702f, -0.011062f, -0.004137f, 0.049763f, -0.003588f, -0.003546f,
0.036420f, 0.082472f, 0.057292f, -0.014946f, 0.092267f, 0.054335f, 0.070690f, 0.043384f, 0.032581f, -0.002818f, 0.131152f, 0.015019f, 0.008730f, 0.022756f, 0.010521f,
0.057497f, 0.012609f, 0.078444f, -0.001987f, -0.008444f, -0.084728f, -0.008325f, -0.038630f, -0.006196f, -0.006225f, -0.085894f, -0.135346f, -0.046544f, 0.008372f, -0.014607f,
-0.105043f, -0.022499f, -0.106406f, 0.032439f, 0.042856f, 0.077976f, 0.052879f, -0.007261f, 0.035870f, 0.017680f, -0.028032f, -0.004916f, 0.038233f, 0.014780f, 0.030997f,
-0.017963f, -0.038623f, 0.006525f, -0.035260f, -0.023753f, -0.079654f, -0.024060f, -0.100617f, -0.111879f, -0.069846f, -0.119895f, -0.101298f, -0.047714f, -0.072396f, -0.065753f,
0.025877f, 0.029598f, 0.060531f, 0.033921f, 0.053750f, 0.049974f, -0.036192f, 0.037180f, 0.001796f, -0.109786f, -0.076560f, -0.114339f, -0.027061f, -0.044981f, -0.051767f,
0.067293f, 0.064825f, 0.085836f, 0.072688f, 0.071740f, -0.033718f, 0.038355f, 0.052940f, 0.070300f, 0.004071f, -0.006604f, 0.028569f, 0.027465f, 0.047972f, 0.009942f,
-0.024362f, 0.020540f, 0.008473f, -0.016143f, 0.021036f, 0.057677f, 0.035070f, 0.025111f, 0.032358f, -0.026393f, -0.001182f, -0.050897f, -0.072001f, -0.046945f, -0.085538f,
0.077758f, 0.069285f, 0.079905f, 0.087430f, 0.049806f, 0.043872f, 0.040499f, 0.035613f, 0.058425f, -0.022544f, -0.094108f, -0.051898f, 0.004969f, -0.072057f, -0.039359f,
-0.016647f, -0.009153f, 0.019637f, -0.029158f, -0.043086f, -0.069068f, -0.030429f, -0.042223f, -0.081669f, 0.004242f, -0.014572f, 0.014965f, 0.054041f, 0.030702f, 0.010665f,
0.081528f, 0.061074f, 0.033589f, 0.041450f, 0.050864f, 0.027477f, -0.052895f, -0.072103f, -0.070513f, -0.086307f, -0.075822f, -0.116480f, -0.080575f, -0.063332f, -0.076065f,
-0.036212f, -0.032900f, -0.052575f, -0.034046f, -0.054791f, -0.037127f, 0.027556f, -0.051927f, 0.029541f, -0.063398f, -0.008328f, -0.014899f, 0.006000f, -0.024613f, -0.050121f,
-0.004101f, -0.050097f, -0.003695f, 0.004033f, 0.026738f, -0.005735f, -0.016759f, 0.011998f, 0.037671f, 0.018525f, 0.017269f, -0.026344f, -0.030028f, 0.002094f, -0.015392f,
0.083962f, 0.080272f, 0.066917f, -0.018000f, -0.015337f, -0.045412f, 0.079146f, 0.042384f, 0.087409f, 0.027946f, 0.050091f, 0.036423f, 0.017465f, 0.041532f, 0.054212f,
0.010003f, 0.040122f, -0.008606f, -0.003149f, -0.022036f, -0.007941f, 0.059679f, 0.007361f, 0.055121f, 0.035661f, 0.009867f, 0.000720f, 0.034874f, 0.049591f, 0.033527f,
0.003529f, -0.031500f, -0.005759f, -0.045321f, -0.036786f, -0.065468f, -0.045704f, 0.002038f, -0.018487f, 0.032494f, 0.008392f, 0.033625f, -0.057162f, -0.081004f, -0.090806f,
-0.109805f, -0.034617f, -0.090165f, -0.074391f, -0.023591f, -0.044750f, 0.023683f, 0.022023f, -0.022305f, 0.043827f, 0.003354f, -0.018843f, -0.042467f, -0.062337f, -0.122544f,
-0.084176f, -0.058666f, -0.021253f, -0.009932f, -0.010291f, -0.059276f, 0.002981f, 0.023686f, -0.053252f, -0.064317f, -0.042880f, -0.018938f, 0.025283f, -0.017440f, -0.005852f,
0.020677f, 0.045102f, -0.019934f, 0.069206f, 0.058647f, 0.052202f, 0.013519f, 0.053512f, 0.028037f, 0.040213f, 0.054880f, -0.010105f, 0.046020f, 0.068147f, 0.045410f,
0.030245f, 0.050366f, 0.021783f, 0.018328f, 0.012349f, 0.074528f, -0.013498f, -0.046871f, -0.033789f, -0.101222f, -0.017979f, -0.083801f, -0.063863f, -0.010928f, -0.075927f,
-0.020654f, -0.030456f, -0.036199f, -0.049938f, -0.065645f, -0.053806f, 0.002157f, -0.021783f, -0.031926f, 0.011954f, -0.019766f, 0.063627f, -0.016154f, -0.013571f, 0.035783f,
0.006333f, 0.033941f, -0.007232f, 0.016949f, 0.004499f, 0.001651f, -0.050268f, -0.018625f, -0.038613f, 0.048002f, 0.056172f, 0.028549f, 0.027794f, 0.037685f, -0.007973f,
0.023742f, 0.000594f, -0.025152f, -0.149906f, -0.126236f, -0.058098f, -0.072050f, -0.100139f, -0.047305f, -0.047266f, -0.044250f, -0.039736f, -0.053531f, -0.021925f, -0.105953f,
-0.022675f, 0.021785f, -0.021457f, -0.022014f, 0.012082f, -0.010969f, -0.010987f, -0.029229f, 0.022349f, -0.024047f, 0.003645f, -0.095911f, -0.009508f, -0.047047f, -0.036656f,
-0.029445f, 0.021977f, -0.039172f, 0.034952f, 0.009492f, 0.092530f, -0.008874f, -0.035035f, 0.022522f, -0.007089f, -0.072039f, -0.029202f, 0.034378f, 0.044767f, 0.005387f,
0.047864f, 0.113922f, 0.095327f, 0.145018f, 0.154775f, 0.192353f, -0.028304f, -0.006892f, 0.028240f, 0.015700f, 0.016076f, 0.024721f, -0.022742f, -0.055185f, -0.044331f,
0.102120f, 0.107201f, 0.039655f, 0.031083f, 0.033163f, 0.064464f, 0.023292f, 0.076575f, 0.026707f, 0.005610f, 0.001124f, 0.010005f, 0.026202f, 0.060510f, 0.127635f,
-0.002754f, 0.023533f, 0.003125f, -0.061963f, -0.000426f, -0.074997f, -0.069899f, -0.025550f, -0.072184f, -0.093757f, -0.044502f, -0.110896f, -0.057702f, -0.044091f, -0.052096f,
-0.101173f, -0.112645f, -0.115280f, -0.064117f, -0.057181f, -0.052943f, 0.030783f, 0.057079f, 0.008446f, 0.004430f, -0.014003f, 0.004434f, -0.133466f, -0.101133f, -0.106584f,
0.044239f, 0.037707f, 0.013061f, 0.056634f, 0.020006f, 0.021126f, 0.028001f, -0.004144f, -0.036984f, 0.039714f, 0.111274f, 0.074849f, 0.041937f, 0.066855f, 0.063964f,
0.038953f, 0.117822f, 0.070906f, 0.090313f, 0.088127f, 0.091868f, 0.027242f, 0.088963f, 0.057097f, 0.081559f, 0.082087f, 0.021203f, 0.114596f, 0.064491f, 0.061530f,
0.014764f, -0.014658f, 0.011646f, -0.012986f, 0.068835f, 0.011431f, -0.056326f, -0.014925f, 0.002816f, -0.007300f, -0.007534f, 0.014161f, 0.028153f, 0.077777f, 0.057875f,
0.060834f, 0.066690f, 0.047464f, 0.008719f, 0.061584f, 0.086078f, 0.052986f, 0.066170f, 0.048704f, 0.036231f, 0.004916f, 0.016223f, -0.007604f, 0.003544f, 0.010318f,
-0.048139f, -0.053840f, -0.116958f, -0.028626f, -0.049501f, -0.057675f, -0.096546f, -0.116380f, -0.049077f, -0.009633f, -0.080687f, -0.005532f, -0.020393f, 0.000543f, 0.025800f,
-0.001381f, 0.015003f, 0.016441f, 0.020997f, 0.019764f, 0.038758f, -0.020351f, -0.049044f, -0.026817f, 0.022094f, -0.058592f, -0.068513f, 0.029692f, 0.004622f, -0.028192f,
0.000235f, 0.083237f, 0.016557f, 0.060336f, -0.034579f, 0.064562f, -0.014870f, 0.008187f, 0.046206f, 0.002547f, 0.060951f, -0.015138f, 0.004146f, 0.034478f, -0.040298f,
-0.017197f, 0.003505f, -0.037713f, 0.118878f, 0.131828f, 0.110161f, 0.032689f, -0.031009f, -0.029612f, -0.122083f, -0.099414f, -0.062145f, 0.034043f, 0.013361f, -0.019840f,
0.065607f, 0.088131f, 0.055960f, 0.020611f, 0.017421f, 0.065038f, -0.059335f, -0.054980f, -0.024826f, -0.035220f, -0.051328f, -0.063727f, -0.019422f, 0.014989f, -0.021353f,
-0.001192f, -0.010270f, -0.028473f, -0.039112f, -0.079464f, -0.050715f, 0.002764f, -0.004689f, -0.010875f, -0.030240f, 0.007928f, 0.003299f, -0.002708f, 0.015241f, 0.013798f,
-0.046271f, -0.047343f, -0.018394f, 0.003177f, 0.026074f, 0.017660f, 0.004609f, 0.020094f, -0.047264f, 0.040935f, 0.021033f, 0.021546f, -0.048620f, -0.021774f, -0.047905f,
-0.030257f, -0.013539f, -0.064356f, -0.067825f, -0.107149f, -0.130820f, 0.037639f, 0.070963f, 0.061133f, 0.047481f, 0.032884f, 0.072232f, 0.067964f, 0.090796f, 0.067356f,
0.033789f, 0.099590f, 0.103794f, 0.069738f, 0.111047f, 0.162870f, 0.028430f, 0.067285f, 0.038863f, -0.089129f, -0.024117f, -0.085067f, -0.032613f, 0.045662f, -0.004516f,
-0.051449f, 0.004583f, -0.084075f, -0.016755f, -0.052612f, -0.022274f, -0.057710f, -0.064893f, -0.073695f, 0.010429f, 0.013451f, 0.006166f, -0.022411f, -0.036484f, -0.058625f,
-0.029757f, -0.074442f, -0.097623f, -0.038491f, -0.026297f, -0.037549f, 0.024953f, 0.032683f, 0.045874f, 0.031183f, 0.076935f, 0.072512f, 0.031976f, 0.042734f, 0.057411f,
0.016651f, -0.019315f, -0.043117f, -0.003443f, -0.047472f, -0.024318f, 0.052229f, -0.034636f, -0.059238f, -0.031010f, -0.050930f, -0.043049f, -0.035286f, -0.018507f, -0.082053f,
-0.011247f, -0.045998f, -0.049050f, 0.118825f, 0.056629f, 0.043005f, 0.104079f, 0.099017f, 0.092334f, -0.003342f, -0.003324f, -0.005681f, -0.059717f, -0.011453f, -0.065873f,
0.013454f, 0.020961f, 0.018892f, 0.052777f, 0.044191f, 0.069132f, -0.011255f, 0.023679f, 0.009006f, 0.047632f, 0.073681f, 0.019298f, 0.022993f, 0.051569f, 0.019516f,
0.061379f, 0.113382f, 0.073063f, 0.095441f, 0.041780f, 0.017657f, 0.049323f, 0.093645f, 0.046398f, -0.145316f, -0.119539f, -0.090396f, -0.030838f, -0.019278f, -0.062774f,
-0.060462f, -0.073337f, -0.005819f, 0.059131f, 0.132654f, 0.019521f, -0.019737f, 0.051301f, 0.124588f, 0.057253f, 0.049101f, 0.075020f, 0.083138f, 0.024234f, 0.057068f,
-0.036304f, 0.038113f, 0.019229f, 0.023619f, 0.039446f, 0.053773f, -0.043505f, 0.011091f, -0.032122f, -0.019370f, -0.094399f, -0.034544f, -0.010160f, -0.067185f, 0.002732f,
0.086350f, 0.101103f, 0.065682f, 0.115263f, 0.088613f, 0.101700f, 0.009433f, 0.040757f, 0.027775f, -0.081383f, -0.081185f, -0.092469f, -0.134151f, -0.122069f, -0.109751f,
-0.047646f, -0.087636f, -0.123378f, 0.000008f, 0.005516f, -0.008839f, -0.020668f, -0.019716f, -0.019521f, -0.026160f, -0.003604f, -0.014958f, 0.009093f, 0.007633f, 0.016477f,
0.014612f, 0.011342f, -0.050311f, -0.022140f, 0.046471f, 0.010194f, -0.068234f, -0.085040f, -0.086519f, -0.117164f, -0.057613f, -0.065298f, -0.009766f, -0.012078f, -0.006445f,
0.059073f, 0.056945f, 0.069495f, 0.100016f, -0.006594f, 0.009618f, -0.017124f, 0.009386f, 0.045664f, 0.100215f, 0.099681f, 0.106325f, 0.089799f, 0.044023f, 0.023497f,
-0.018303f, 0.000282f, -0.002678f, 0.042796f, 0.054197f, 0.076242f, 0.068801f, 0.036948f, 0.018005f, 0.013260f, 0.041007f, 0.004416f, 0.018675f, 0.032624f, 0.032202f,
-0.062261f, -0.079150f, -0.053423f, 0.040428f, -0.007504f, -0.020677f, -0.013012f, -0.013484f, 0.037859f, -0.077960f, -0.051352f, -0.043338f, -0.061038f, 0.020461f, -0.003334f,
-0.128424f, -0.073102f, -0.079881f, -0.072824f, -0.009690f, -0.083532f, -0.052863f, 0.013500f, -0.032812f, 0.051144f, -0.062110f, 0.004429f, 0.008064f, -0.029192f, -0.003289f,
0.013837f, -0.002108f, 0.008691f, -0.077539f, -0.115433f, -0.112211f, -0.048504f, -0.024351f, -0.001282f, -0.088871f, -0.082854f, -0.087327f, 0.018648f, -0.021842f, -0.049854f,
-0.033200f, -0.001655f, -0.038785f, -0.011936f, -0.037847f, -0.075551f, -0.012079f, -0.024217f, 0.026756f, 0.001146f, 0.023632f, 0.100709f, 0.038414f, -0.003586f, -0.034997f,
-0.038357f, 0.023353f, 0.008278f, -0.027466f, 0.026956f, 0.011693f, -0.016252f, -0.012351f, 0.004864f, -0.055584f, -0.083164f, -0.061262f, -0.010196f, 0.060438f, 0.046968f,
0.026946f, 0.046826f, -0.065023f, -0.055438f, -0.011875f, 0.006181f, -0.001033f, 0.016495f, 0.025056f, -0.029790f, 0.046832f, -0.026272f, 0.011647f, 0.012833f, 0.016426f,
0.031212f, 0.023746f, -0.007656f, -0.061312f, -0.060841f, -0.079745f, -0.061466f, -0.034336f, -0.019154f, -0.057261f, -0.120171f, -0.126960f, -0.067963f, -0.051220f, -0.102330f,
0.060103f, 0.040414f, 0.031182f, 0.029744f, 0.000434f, 0.016622f, 0.037849f, 0.022211f, 0.022706f, -0.000181f, 0.031057f, -0.016898f, -0.009479f, -0.047152f, 0.012896f,
-0.030803f, -0.031716f, 0.004366f, -0.066223f, -0.109056f, -0.129906f, 0.035224f, 0.050524f, 0.004233f, 0.033781f, 0.048591f, 0.045108f, 0.019967f, -0.034613f, -0.032186f,
-0.011103f, 0.046404f, 0.066743f, 0.045679f, -0.025649f, 0.109543f, -0.040647f, -0.035729f, 0.000391f, -0.011457f, -0.030161f, -0.029879f, 0.025542f, -0.030073f, -0.035559f,
0.050772f, 0.037471f, 0.097369f, 0.046298f, 0.041435f, 0.089275f, 0.020656f, 0.069957f, 0.086680f, 0.103030f, 0.077448f, 0.013476f, -0.005283f, 0.000070f, 0.035062f,
0.011033f, 0.045289f, 0.024364f, -0.011790f, -0.015987f, 0.006269f, -0.024473f, -0.014778f, -0.044654f, 0.010202f, -0.022998f, 0.021661f, 0.031073f, 0.044187f, 0.012604f,
0.017065f, 0.058062f, -0.022683f, 0.087710f, 0.052835f, 0.046190f, -0.047924f, -0.092478f, -0.086459f, 0.027428f, -0.060253f, -0.057217f, 0.023419f, -0.004275f, -0.039835f,
-0.054287f, -0.033289f, -0.075211f, -0.049076f, -0.062192f, -0.073632f, -0.069795f, -0.094756f, -0.118192f, 0.028465f, 0.013390f, -0.030074f, -0.064903f, -0.016146f, -0.073466f,
0.031937f, 0.003682f, 0.069969f, -0.101800f, -0.099680f, -0.049250f, 0.002332f, -0.057307f, -0.035130f, -0.002909f, -0.004362f, -0.104812f, 0.075415f, 0.067574f, 0.046483f,
-0.034073f, 0.005584f, -0.052339f, -0.016480f, -0.016958f, 0.020938f, 0.046830f, 0.042079f, 0.013934f, 0.078595f, 0.115907f, 0.089521f, 0.148743f, 0.197511f, 0.129384f,
0.035021f, 0.022440f, 0.075237f, 0.002422f, 0.000644f, 0.020327f, 0.023100f, -0.008702f, 0.016285f, 0.078434f, 0.111336f, 0.141701f, 0.055635f, 0.076645f, 0.093174f,
0.124382f, 0.087494f, 0.117779f, 0.003536f, -0.030503f, -0.054408f, -0.013619f, 0.000363f, 0.001328f, -0.006332f, -0.034624f, -0.052037f, -0.047158f, -0.106141f, -0.093856f,
-0.101289f, -0.082857f, -0.050232f, -0.015533f, -0.087854f, -0.105322f, 0.027715f, 0.045150f, -0.009226f, -0.008518f, 0.027080f, 0.030003f, 0.001151f, 0.034513f, 0.052431f,
-0.037097f, -0.058549f, -0.073333f, -0.058172f, -0.003441f, -0.059696f, -0.018832f, -0.043795f, -0.023559f, 0.058192f, 0.046783f, 0.035107f, 0.017357f, -0.019428f, -0.023939f,
-0.033338f, -0.015285f, -0.020224f, -0.014163f, -0.003380f, 0.035389f, -0.001488f, 0.040776f, 0.062933f, -0.055022f, -0.030460f, -0.068865f, -0.045195f, -0.081103f, -0.048415f,
-0.090564f, -0.150329f, -0.111056f, -0.009290f, -0.040700f, 0.013828f, 0.131297f, 0.061616f, 0.024450f, 0.006558f, -0.009052f, 0.021847f, 0.078501f, 0.061633f, 0.080155f,
-0.059076f, -0.020083f, -0.062783f, -0.009454f, -0.033043f, 0.008600f, -0.088143f, -0.016714f, -0.012532f, -0.071364f, -0.058882f, -0.047275f, 0.114358f, 0.003264f, 0.032196f,
0.012699f, 0.035236f, -0.007769f, 0.006086f, -0.006671f, -0.093766f, -0.013042f, 0.004909f, 0.017714f, -0.009815f, -0.011542f, -0.009304f, -0.024578f, -0.019580f, -0.028679f,
-0.045107f, -0.020563f, -0.110132f, 0.036387f, -0.003278f, -0.076871f, 0.066550f, 0.100070f, 0.118920f, 0.074219f, 0.057210f, 0.082502f, 0.096219f, 0.023622f, 0.048539f,
0.037333f, 0.025353f, 0.015976f, -0.004176f, -0.017581f, -0.022361f, -0.051277f, 0.002412f, -0.035081f, -0.017105f, -0.004497f, 0.029754f, 0.022555f, -0.026254f, 0.004997f,
0.058408f, 0.033248f, 0.026874f, 0.022099f, 0.079383f, 0.043844f, 0.014222f, -0.019487f, -0.001503f, 0.053297f, 0.076240f, 0.063492f, -0.119441f, -0.103328f, -0.117025f,
0.015143f, -0.046200f, -0.031067f, -0.024254f, -0.035213f, -0.069986f, -0.050617f, 0.042001f, 0.003120f, -0.000140f, 0.037042f, -0.021529f, -0.025457f, -0.004760f, 0.022664f,
0.096665f, 0.043956f, 0.084851f, -0.070798f, -0.008749f, -0.054479f, 0.067959f, 0.048457f, 0.075112f, -0.051941f, -0.070208f, -0.023226f, 0.031759f, 0.009692f, 0.017015f,
0.033781f, 0.005007f, -0.053573f, 0.080309f, 0.083003f, 0.101090f, 0.001458f, -0.031690f, -0.031204f, -0.028809f, 0.013702f, 0.050119f, 0.007954f, 0.090801f, -0.004249f,
0.055836f, 0.079526f, 0.081195f, 0.073330f, 0.057776f, -0.003689f, -0.026796f, -0.019770f, 0.010334f, -0.017955f, -0.094970f, -0.037335f, -0.034738f, -0.040385f, -0.048511f,
0.103087f, 0.081077f, 0.127403f, -0.073605f, 0.006129f, 0.047475f, 0.053847f, 0.058968f, 0.085046f, 0.021022f, -0.015816f, 0.015475f, -0.024031f, 0.006940f, -0.008450f,
0.007178f, -0.029768f, -0.011525f, -0.049327f, -0.044830f, -0.049101f, -0.115129f, 0.018608f, -0.091860f, -0.003138f, -0.074450f, -0.050924f, 0.065635f, 0.044345f, 0.095062f,
0.002027f, 0.035470f, 0.027729f, 0.067448f, 0.078978f, 0.092010f, 0.022679f, 0.003176f, 0.001943f, -0.102520f, 0.022315f, -0.074873f, -0.021257f, -0.002170f, -0.018745f,
0.039184f, 0.062895f, 0.031876f, 0.054059f, 0.011356f, 0.050462f, -0.016505f, -0.013646f, -0.037778f, -0.008620f, 0.058318f, 0.025723f, 0.057438f, 0.060031f, 0.102730f,
0.056310f, 0.045709f, 0.060533f, 0.005226f, -0.003210f, -0.048107f, -0.034669f, -0.102482f, -0.085274f, -0.056090f, -0.010631f, -0.070386f, 0.018941f, 0.021867f, 0.024556f,
-0.002855f, -0.011245f, -0.035580f, 0.012878f, 0.019712f, -0.010128f, -0.012702f, 0.021694f, 0.030303f, -0.057930f, -0.016036f, 0.015760f, -0.071298f, -0.008678f, 0.061730f,
0.025557f, 0.045244f, 0.074806f, 0.075198f, 0.014429f, 0.090345f, 0.012764f, -0.016056f, -0.020226f, -0.039235f, 0.046963f, -0.059124f, -0.034508f, 0.011760f, 0.041656f,
-0.018467f, -0.030410f, -0.012288f, -0.044661f, 0.052764f, -0.069447f, 0.056152f, 0.064044f, -0.043547f, 0.019168f, 0.028748f, -0.070911f, 0.033724f, 0.090150f, 0.104211f,
0.110851f, 0.020077f, 0.076633f, 0.029260f, -0.012430f, 0.053651f, -0.010387f, -0.013938f, 0.042278f, -0.064437f, -0.021266f, -0.077807f, -0.024151f, -0.031923f, -0.035774f,
-0.012167f, 0.006626f, 0.051541f, -0.000675f, -0.057468f, -0.005691f, 0.051362f, 0.048232f, 0.032653f, -0.034540f, 0.076821f, -0.014596f, 0.035626f, 0.004075f, 0.054988f,
0.000843f, 0.050309f, 0.007865f, -0.098212f, -0.062172f, -0.133470f, -0.063960f, -0.063960f, -0.080119f, -0.047888f, -0.060537f, -0.063411f, 0.099821f, 0.049426f, 0.074550f,
0.029028f, 0.080170f, -0.007679f, 0.029927f, 0.051904f, 0.052590f, -0.000396f, 0.007312f, -0.001663f, 0.000602f, -0.035442f, -0.010915f, -0.023547f, 0.004797f, -0.000149f,
0.033362f, 0.059510f, 0.079322f, -0.007026f, 0.041999f, -0.002514f, 0.007143f, 0.039489f, 0.028046f, 0.054378f, 0.007214f, 0.108597f, -0.007688f, 0.018711f, 0.052888f,
0.005677f, 0.015961f, 0.069576f, -0.031771f, 0.055004f, -0.024823f, -0.032137f, 0.018471f, -0.042433f, -0.002863f, 0.008205f, -0.036887f, -0.119843f, -0.097874f, -0.089025f,
-0.063511f, -0.102894f, -0.124763f, -0.043779f, -0.078830f, -0.112365f, 0.010435f, -0.030369f, -0.068089f, 0.000455f, -0.004697f, -0.031963f, -0.070863f, -0.085998f, -0.058617f,
0.019297f, 0.033073f, 0.034541f, 0.051144f, 0.060262f, 0.055475f, -0.014399f, 0.015374f, 0.028208f, -0.028701f, -0.002145f, -0.035092f, -0.021461f, -0.036585f, -0.130863f,
0.010673f, 0.005633f, -0.039697f, 0.019669f, -0.005220f, 0.047952f, -0.002019f, -0.036929f, -0.016834f, 0.053247f, 0.021650f, 0.088916f, 0.116247f, 0.056432f, 0.063085f,
-0.031663f, -0.006171f, 0.007859f, 0.001706f, 0.049619f, 0.064933f, 0.018819f, 0.078152f, 0.063096f, 0.003997f, 0.009028f, -0.015439f, 0.135069f, 0.015759f, 0.127998f,
0.019706f, 0.035985f, 0.044696f, 0.067511f, 0.066020f, 0.021665f, 0.036830f, 0.029141f, 0.081853f, 0.016334f, 0.102624f, -0.006413f, 0.027712f, 0.017103f, 0.042311f,
0.066121f, 0.112120f, 0.066933f, -0.128572f, -0.149255f, -0.067431f, -0.030886f, -0.033460f, -0.071005f, -0.091801f, -0.117997f, -0.048006f, 0.019592f, 0.048041f, 0.025309f,
0.006094f, 0.027891f, 0.110625f, 0.066356f, 0.058151f, 0.042823f, 0.047821f, 0.045406f, 0.069077f, -0.005104f, -0.031957f, -0.006130f, 0.029556f, 0.019894f, 0.031806f,
-0.019049f, -0.070819f, 0.027532f, -0.047521f, -0.039685f, -0.011280f, -0.025704f, 0.028327f, -0.018732f, 0.057551f, 0.116283f, 0.078411f, 0.078412f, 0.104659f, 0.069941f,
0.009794f, 0.040445f, 0.003294f, -0.026342f, -0.020871f, -0.037322f, -0.067390f, -0.094989f, -0.073710f, -0.074963f, -0.067860f, -0.117647f, 0.037855f, 0.010551f, 0.013905f,
-0.039659f, 0.007051f, -0.036670f, -0.027287f, -0.009465f, -0.001585f, -0.028518f, 0.056168f, 0.012167f, -0.026875f, 0.014941f, -0.035877f, 0.002159f, 0.011166f, -0.003472f,
-0.056552f, -0.009558f, -0.085289f, 0.001071f, -0.057104f, -0.042930f, -0.032196f, -0.059547f, -0.067965f, 0.008871f, 0.023778f, 0.002183f, -0.013266f, -0.037318f, -0.034833f,
-0.000865f, 0.016796f, 0.020203f, 0.105663f, 0.120993f, 0.129925f, 0.129065f, 0.075892f, 0.052057f, -0.000706f, 0.034439f, 0.021529f, 0.049728f, 0.043896f, 0.014315f,
-0.000845f, 0.022308f, -0.005479f, -0.042581f, -0.017294f, -0.040779f, 0.039807f, 0.056955f, 0.083781f, -0.000164f, -0.021949f, -0.020312f, 0.072360f, 0.090265f, 0.061147f,
-0.010479f, 0.037453f, 0.063952f, -0.044249f, -0.002952f, -0.005571f, -0.016635f, -0.002602f, 0.025075f, -0.138075f, -0.026711f, -0.098401f, -0.106185f, -0.007245f, -0.088535f,
-0.023935f, -0.006454f, -0.040036f, -0.026981f, -0.094310f, -0.035654f, -0.006638f, -0.043815f, -0.028628f, 0.016178f, -0.020634f, 0.047642f, -0.098192f, -0.118823f, -0.149403f,
-0.041298f, -0.031732f, -0.067533f, -0.095459f, -0.116230f, -0.149366f, 0.009742f, 0.011629f, -0.025225f, 0.005946f, 0.027058f, 0.012854f, -0.003916f, 0.011353f, -0.030253f,
-0.014037f, 0.012640f, 0.052867f, 0.048178f, 0.058238f, 0.052315f, 0.010629f, -0.018820f, 0.008852f, -0.030646f, -0.008198f, 0.003164f, -0.046607f, -0.009017f, -0.022353f,
-0.021344f, -0.053477f, -0.031069f, 0.018776f, 0.040491f, 0.011137f, 0.038913f, 0.038603f, 0.069095f, 0.012714f, 0.038481f, 0.001852f, -0.013218f, 0.024630f, 0.004647f,
0.007447f, 0.090594f, 0.028179f, -0.056266f, 0.032198f, -0.026638f, 0.121843f, 0.089140f, 0.022510f, -0.050271f, 0.036178f, -0.021442f, 0.037504f, 0.029171f, 0.024767f,
-0.014765f, -0.029318f, -0.028548f, -0.005957f, 0.010859f, -0.051416f, 0.020810f, 0.019555f, 0.006136f, 0.007830f, -0.006548f, -0.024772f, -0.023865f, -0.043875f, 0.004167f,
-0.006072f, -0.003044f, 0.006277f, 0.028251f, 0.044728f, 0.088263f, 0.025690f, 0.056243f, 0.047340f, 0.022389f, -0.000098f, 0.062102f, -0.065627f, -0.006374f, -0.044867f,
0.074597f, 0.050863f, 0.058574f, -0.057424f, -0.012452f, 0.045976f, 0.059805f, 0.016029f, 0.060817f, -0.061716f, -0.069990f, -0.067144f, 0.013299f, 0.035932f, -0.008118f,
0.015111f, 0.054261f, 0.002429f, 0.106095f, 0.054766f, 0.016705f, 0.074061f, 0.095517f, 0.057816f, -0.058720f, -0.048546f, -0.010466f, -0.028897f, 0.008257f, 0.032804f,
-0.072771f, -0.038110f, -0.016346f, 0.012836f, 0.002839f, -0.022116f, 0.034091f, -0.014079f, 0.022858f, -0.009122f, 0.022089f, -0.023971f, 0.006376f, 0.013515f, -0.016687f,
0.006478f, -0.040644f, -0.033106f, 0.017154f, 0.085728f, 0.060579f, 0.002289f, -0.008252f, 0.011056f, 0.005354f, 0.016623f, -0.032400f, 0.012129f, -0.019450f, 0.005229f,
0.002235f, -0.050192f, -0.000133f, -0.053152f, -0.067983f, -0.024506f, 0.017472f, -0.026874f, -0.018454f, -0.051049f, 0.014813f, -0.029194f, -0.015280f, -0.018914f, 0.000162f,
-0.043642f, -0.064413f, -0.046613f, -0.011579f, 0.003390f, 0.039984f, 0.034562f, 0.083358f, 0.078479f, 0.088483f, 0.042287f, -0.003536f, -0.097191f, -0.059091f, -0.057806f,
-0.032581f, -0.058669f, -0.075428f, -0.046719f, -0.053908f, -0.083767f, -0.036653f, -0.074307f, -0.069858f, -0.017812f, -0.030618f, -0.031642f, -0.121532f, -0.077331f, -0.115111f,
-0.044478f, -0.017320f, -0.038828f, 0.009323f, 0.039526f, 0.033595f, 0.170878f, 0.106822f, 0.110250f, 0.009558f, -0.028756f, 0.012981f, 0.085819f, 0.021221f, 0.062293f,
0.015625f, 0.001623f, 0.047170f, 0.023950f, 0.050895f, 0.038649f, 0.047929f, 0.077778f, 0.101198f, 0.021585f, 0.006278f, -0.004010f, -0.049328f, -0.030943f, -0.047245f,
-0.025955f, -0.044228f, -0.064016f, -0.040653f, -0.039472f, -0.098480f, -0.025285f, -0.019181f, -0.072051f, -0.102232f, -0.091383f, -0.091012f, -0.098937f, -0.044721f, -0.038800f,
0.003408f, -0.010481f, -0.048530f, -0.011534f, -0.024735f, -0.008389f, -0.020643f, -0.020292f, 0.002965f, -0.078635f, -0.090044f, -0.081639f, -0.036865f, -0.064274f, -0.044296f,
0.027713f, -0.013487f, -0.077827f, 0.014610f, 0.040067f, 0.008732f, 0.044604f, 0.036866f, 0.061399f, -0.013804f, -0.030632f, 0.021569f, -0.012985f, 0.051663f, 0.058756f,
0.019919f, 0.090786f, 0.087541f, 0.066307f, 0.001959f, 0.038854f, 0.003681f, -0.028098f, -0.081034f, -0.049879f, -0.061427f, -0.082867f, -0.015230f, 0.008886f, -0.043312f,
-0.090513f, -0.021537f, -0.051316f, -0.030846f, -0.002376f, -0.033686f, -0.037862f, -0.020504f, -0.034316f, 0.056748f, 0.002421f, 0.078397f, 0.081097f, 0.025199f, 0.120048f,
0.025511f, 0.021499f, 0.093034f, -0.017188f, 0.104343f, 0.056816f, -0.018914f, 0.010460f, 0.034812f, 0.117673f, 0.037027f, 0.020779f, 0.028100f, 0.051262f, -0.066997f,
-0.027245f, -0.026034f, 0.003865f, -0.027987f, 0.004686f, -0.013196f, 0.021272f, 0.067795f, -0.052777f, 0.039140f, 0.046875f, -0.020133f, 0.099346f, 0.058243f, -0.080770f,
0.058077f, 0.140145f, 0.078228f, 0.048829f, 0.033827f, 0.043839f, 0.012278f, -0.004657f, 0.011233f, 0.030057f, 0.000695f, 0.023838f, -0.017192f, 0.055930f, -0.049540f,
-0.037259f, -0.045454f, -0.029390f, -0.011192f, 0.048477f, 0.006959f, -0.014746f, 0.007186f, -0.032396f, -0.001189f, 0.024874f, 0.012288f, -0.018373f, 0.066266f, -0.016687f,
0.021285f, 0.013212f, -0.009371f, 0.026796f, 0.022903f, 0.011216f, -0.058470f, -0.099042f, -0.116138f, -0.007170f, -0.056861f, -0.028758f, -0.048208f, -0.006705f, -0.056172f,
0.054220f, 0.051055f, 0.095360f, 0.005701f, 0.032412f, 0.002348f, -0.047298f, -0.013181f, 0.011665f, 0.002185f, 0.058670f, 0.045666f, -0.006492f, -0.027505f, -0.048788f,
0.017018f, 0.060747f, 0.080011f, -0.071956f, -0.015392f, 0.035169f, -0.023874f, -0.000816f, 0.022268f, 0.008488f, 0.006558f, -0.009727f, 0.042482f, 0.040961f, 0.106822f,
-0.100988f, -0.127703f, -0.091351f, -0.017922f, -0.013283f, -0.000647f, -0.058559f, 0.019725f, -0.023331f, 0.007543f, 0.050341f, -0.029759f, 0.032562f, 0.027991f, -0.035248f,
-0.013995f, -0.036871f, -0.013747f, -0.011907f, -0.103836f, -0.017339f, -0.021057f, -0.047060f, -0.040982f, 0.010463f, -0.027985f, -0.045148f, -0.026409f, -0.010767f, -0.012706f,
-0.005838f, -0.022229f, -0.023712f, -0.031188f, 0.015777f, -0.009334f, 0.039135f, 0.036773f, -0.000619f, -0.019480f, 0.021199f, -0.019198f, -0.076273f, -0.033645f, -0.071444f,
-0.099177f, -0.059524f, -0.121934f, -0.027753f, -0.017812f, -0.066212f, -0.057872f, -0.096257f, 0.013339f, -0.053113f, -0.054901f, -0.008980f, 0.019200f, -0.017564f, 0.012865f,
0.015625f, 0.024041f, 0.018820f, -0.031176f, 0.015654f, 0.012666f, 0.037462f, -0.009820f, 0.019949f, 0.075797f, 0.129354f, 0.117195f, 0.030763f, 0.005087f, -0.001498f,
-0.014693f, 0.013148f, -0.003914f, -0.015686f, 0.032713f, 0.064763f, -0.030524f, -0.004857f, -0.042868f, 0.038484f, 0.052811f, 0.039082f, -0.031386f, -0.003478f, -0.035139f,
-0.013966f, -0.045989f, -0.029735f, -0.105501f, -0.061539f, -0.173279f, -0.023491f, 0.030919f, 0.082053f, 0.031641f, -0.031068f, -0.045147f, 0.020944f, 0.020254f, 0.065011f,
-0.080000f, -0.062911f, -0.089424f, -0.025686f, 0.016935f, -0.022955f, -0.052366f, -0.020338f, -0.056661f, -0.008123f, -0.093517f, -0.076741f, -0.027468f, 0.028371f, -0.082520f,
0.021217f, 0.012619f, -0.006730f, 0.014125f, -0.005650f, 0.055653f, 0.039280f, 0.072411f, 0.021368f, -0.005328f, -0.007909f, -0.003794f, -0.109259f, -0.054516f, -0.072290f,
-0.009336f, -0.015355f, -0.079496f, -0.057675f, -0.044888f, -0.074467f, 0.086972f, 0.074563f, 0.058643f, 0.113891f, 0.123178f, 0.111274f, -0.006315f, 0.002938f, 0.000446f,
0.029205f, -0.046977f, -0.037575f, 0.047227f, 0.051624f, 0.065861f, -0.007101f, 0.003593f, -0.024358f, -0.041122f, -0.056099f, -0.038029f, 0.032576f, 0.052042f, 0.001609f,
-0.091668f, -0.085063f, -0.077414f, 0.043452f, 0.040880f, 0.002191f, 0.016643f, 0.016232f, -0.052946f, 0.024496f, 0.073114f, 0.034829f, -0.044024f, -0.032463f, -0.009882f,
-0.046447f, -0.047917f, -0.065834f, -0.016574f, -0.010185f, -0.016712f, -0.025299f, 0.044396f, -0.029815f, 0.026906f, 0.003190f, 0.008790f, 0.054299f, 0.074322f, -0.015149f,
-0.008610f, 0.021887f, -0.038483f, -0.033650f, -0.041946f, -0.028173f, -0.024654f, -0.004877f, -0.023122f, 0.069481f, 0.098911f, 0.114885f, 0.021890f, 0.009171f, 0.039964f,
0.053505f, 0.051723f, 0.083288f, 0.091878f, 0.072394f, 0.128835f, 0.070511f, 0.061489f, 0.074426f, 0.015659f, 0.050991f, 0.039725f, -0.043028f, 0.021141f, 0.031794f,
-0.016865f, 0.024902f, -0.025363f, -0.075204f, 0.043691f, -0.074483f, -0.033775f, -0.037021f, -0.101185f, 0.008118f, -0.002878f, -0.037699f, -0.098553f, -0.105832f, -0.099334f,
-0.016348f, -0.000082f, -0.002846f, -0.012712f, 0.025767f, 0.007722f, -0.058099f, -0.010205f, -0.015521f, 0.006990f, 0.019669f, 0.028087f, 0.095945f, 0.039980f, 0.070522f,
0.063268f, 0.027448f, 0.064970f, 0.055770f, 0.033588f, 0.050886f, 0.031809f, -0.049878f, -0.007619f, 0.024461f, 0.005231f, -0.014764f, 0.005861f, 0.003768f, 0.036200f,
0.029997f, 0.075965f, -0.020299f, 0.006683f, 0.038960f, -0.023686f, 0.113596f, 0.051081f, 0.044060f, -0.002685f, 0.053332f, 0.055744f, 0.007201f, 0.011010f, -0.015080f,
-0.041566f, -0.030356f, -0.063439f, 0.007635f, 0.046152f, 0.001097f, -0.033790f, 0.031954f, -0.045770f, 0.126503f, 0.121201f, 0.095165f, -0.022288f, -0.024514f, -0.024823f,
0.068889f, 0.043344f, 0.084448f, -0.037515f, -0.080854f, -0.087291f, -0.013241f, 0.000616f, 0.010292f, -0.114643f, -0.059600f, -0.056765f, -0.009715f, 0.023293f, -0.046302f,
-0.008864f, -0.031852f, -0.027195f, -0.079825f, -0.008168f, -0.003397f, 0.037338f, 0.072786f, 0.116719f, -0.006663f, 0.017869f, 0.063928f, 0.042250f, -0.014163f, 0.041729f,
-0.060009f, 0.008984f, 0.033241f, 0.025519f, 0.055020f, 0.079733f, 0.010955f, 0.020889f, 0.015140f, 0.038925f, -0.016038f, 0.087853f, -0.045370f, 0.017048f, -0.041983f,
0.028939f, 0.030279f, 0.008017f, 0.001185f, 0.036968f, -0.043019f, 0.121634f, 0.076773f, -0.004061f, -0.000362f, 0.052859f, -0.051870f, 0.051547f, 0.035876f, 0.087762f,
0.087959f, 0.078054f, 0.115678f, -0.061342f, -0.050919f, 0.075226f, -0.009271f, 0.023168f, 0.018392f, 0.051418f, 0.020051f, -0.024195f, 0.036593f, 0.037654f, -0.029369f,
0.019616f, -0.037110f, -0.011259f, -0.004278f, -0.049520f, -0.034624f, 0.001427f, 0.037213f, 0.040241f, -0.049748f, 0.019142f, -0.025389f, 0.024946f, -0.032084f, 0.022080f,
0.051781f, -0.006383f, 0.069062f, -0.024225f, -0.034767f, -0.044930f, -0.072941f, -0.034192f, -0.099095f, 0.006945f, -0.074269f, -0.052015f, -0.004166f, 0.023039f, 0.003519f,
-0.057405f, -0.019309f, -0.012958f, -0.043270f, -0.045531f, -0.066965f, -0.026566f, -0.018851f, 0.006082f, 0.028264f, 0.047774f, 0.055935f, -0.043831f, -0.059127f, -0.098578f,
-0.049875f, -0.040326f, 0.009627f, 0.013312f, -0.022490f, -0.016146f, 0.029827f, -0.001521f, 0.031777f, 0.007291f, -0.042719f, -0.006834f, 0.075487f, -0.008638f, 0.045678f,
-0.109528f, -0.003852f, -0.069826f, -0.033231f, -0.000605f, -0.099754f, 0.063882f, 0.065557f, 0.021844f, 0.088608f, 0.082386f, 0.109680f, -0.040904f, -0.087154f, -0.024009f,
0.036385f, -0.023232f, 0.044879f, 0.038424f, 0.004591f, 0.005590f, -0.038155f, 0.036077f, -0.010066f, 0.030223f, 0.020792f, 0.004472f, 0.001319f, -0.038550f, 0.037175f,
-0.020382f, 0.016638f, -0.010104f, 0.001720f, -0.008611f, -0.009077f, 0.000395f, 0.018540f, -0.020418f, 0.004137f, -0.035667f, -0.097850f, -0.095246f, -0.128272f, -0.128137f,
-0.064840f, -0.038219f, -0.040460f, -0.024228f, -0.017600f, -0.034901f, -0.004785f, -0.074808f, -0.033588f, -0.095234f, -0.021828f, -0.022692f, -0.068257f, -0.008955f, -0.086862f,
0.053334f, 0.012485f, 0.098837f, 0.004464f, 0.007140f, -0.049731f, 0.001698f, -0.022278f, -0.006969f, 0.055273f, 0.043061f, 0.028498f, 0.054417f, 0.006625f, 0.048502f,
-0.055297f, 0.027017f, -0.087504f, -0.001240f, -0.036145f, -0.014275f, -0.065635f, -0.056172f, -0.070722f, 0.002372f, -0.023654f, -0.025991f, -0.044055f, -0.045984f, -0.044376f,
-0.067640f, -0.103508f, -0.088580f, 0.091425f, 0.027568f, 0.021230f, 0.068381f, 0.088925f, 0.006277f, 0.044224f, 0.032204f, 0.033723f, 0.011212f, -0.017167f, 0.017867f,
0.020059f, 0.021413f, 0.053265f, 0.002157f, -0.001463f, 0.040223f, -0.024814f, -0.086938f, -0.060374f, 0.027231f, -0.018304f, 0.010315f, 0.001914f, 0.011169f, 0.012156f,
0.074192f, -0.041640f, 0.002838f, 0.051069f, 0.048959f, 0.067926f, 0.020125f, 0.025949f, 0.043650f, 0.007538f, 0.014896f, 0.046229f, -0.028453f, -0.009486f, -0.016589f,
-0.031981f, -0.052733f, 0.004393f, -0.031146f, -0.017581f, -0.005818f, 0.001436f, 0.011753f, 0.014288f, 0.015650f, 0.065297f, -0.010758f, 0.019303f, 0.030436f, -0.024341f,
-0.033418f, -0.016811f, 0.017102f, -0.015079f, 0.037081f, 0.007691f, 0.007875f, -0.027538f, -0.007802f, 0.011548f, -0.045447f, 0.010185f, -0.026506f, -0.093783f, -0.017222f,
0.020299f, 0.043617f, -0.012718f, 0.087650f, 0.000951f, -0.009790f, -0.006567f, 0.038356f, -0.010099f, -0.010182f, -0.022070f, -0.008638f, 0.012132f, 0.018548f, -0.017075f,
0.083348f, 0.018485f, 0.032485f, -0.071736f, -0.083494f, -0.099592f, -0.037014f, -0.064656f, -0.025688f, -0.090404f, -0.112998f, -0.159168f, 0.052304f, -0.026392f, 0.018410f,
0.031166f, -0.020976f, -0.000201f, 0.029991f, 0.091003f, -0.005679f, -0.064095f, -0.063142f, -0.089900f, -0.038565f, -0.033792f, -0.079205f, -0.048417f, -0.054214f, -0.105103f,
-0.067444f, 0.004364f, -0.030618f, -0.049308f, -0.035548f, -0.059763f, -0.044174f, -0.022489f, -0.072153f, 0.078455f, 0.056112f, 0.114742f, 0.076391f, 0.072765f, 0.033312f,
0.131329f, 0.107961f, 0.101030f, 0.049324f, 0.078272f, 0.050372f, 0.036218f, 0.046884f, 0.029124f, 0.024571f, 0.023044f, 0.071352f, 0.119548f, 0.109301f, 0.120595f,
0.095906f, 0.131383f, 0.112396f, 0.063446f, 0.038232f, 0.115639f, -0.020975f, -0.027586f, -0.072723f, 0.022835f, -0.028208f, -0.026540f, -0.092438f, -0.065544f, -0.087162f,
-0.045929f, -0.008202f, -0.084321f, -0.023842f, -0.047211f, -0.049401f, -0.083186f, 0.004355f, -0.080743f, -0.011021f, 0.047541f, 0.015139f, 0.017205f, 0.001038f, 0.034245f,
-0.022383f, 0.042461f, 0.001708f, -0.054601f, -0.074529f, -0.130937f, -0.002702f, -0.069976f, -0.057221f, -0.044461f, -0.026020f, -0.062674f, 0.051156f, -0.003751f, 0.024708f,
0.004509f, -0.007664f, -0.049387f, -0.061859f, -0.086286f, -0.016581f, -0.012784f, -0.013395f, 0.056390f, -0.045810f, 0.024538f, -0.029720f, 0.055169f, 0.076410f, 0.092956f,
0.001683f, -0.047384f, -0.030246f, -0.027525f, 0.048035f, 0.031884f, 0.044206f, 0.044732f, 0.066024f, 0.077780f, 0.025822f, 0.055216f, 0.092348f, 0.032834f, 0.093391f,
0.004155f, 0.007980f, 0.046211f, 0.006481f, 0.023462f, 0.021764f, -0.003589f, 0.019584f, -0.026068f, -0.048891f, -0.041053f, -0.013656f, 0.010892f, 0.000470f, -0.014199f,
0.009428f, 0.043788f, 0.041139f, -0.082620f, 0.038742f, 0.015222f, -0.089308f, -0.012575f, -0.023567f, -0.137337f, -0.038232f, -0.152357f, -0.107501f, -0.007666f, -0.073109f,
0.011165f, 0.001937f, -0.027156f, 0.050994f, 0.036224f, -0.007404f, 0.092719f, 0.110749f, 0.076159f, -0.020457f, -0.019855f, -0.060899f, -0.057957f, -0.025789f, -0.026798f,
-0.050568f, -0.052077f, -0.066814f, -0.027069f, -0.011000f, -0.040498f, -0.038158f, -0.019999f, -0.040979f, -0.055439f, -0.115053f, -0.079674f, 0.046376f, 0.014970f, 0.001682f,
-0.015096f, 0.026187f, 0.005347f, 0.050209f, 0.032557f, 0.017674f, 0.063854f, 0.020267f, 0.057452f, 0.028112f, -0.007754f, -0.013153f, -0.029239f, -0.006871f, -0.047203f,
-0.048222f, -0.038034f, -0.042449f, -0.045261f, -0.057839f, -0.038616f, 0.039983f, -0.050267f, 0.001168f, 0.052951f, 0.058833f, 0.042275f, 0.028782f, 0.054469f, 0.053357f,
0.125541f, 0.113043f, 0.125047f, 0.028278f, 0.028818f, 0.056025f, 0.099513f, 0.073298f, 0.101027f, 0.106365f, 0.072163f, 0.065892f, -0.000387f, -0.002280f, -0.045147f,
0.017236f, 0.012420f, 0.004521f, -0.069739f, -0.043473f, -0.076380f, -0.082183f, 0.011995f, -0.031213f, -0.078734f, 0.013754f, -0.069748f, -0.055274f, 0.006230f, -0.029094f,
-0.058285f, 0.033123f, -0.031355f, -0.010775f, 0.021205f, -0.032080f, -0.014178f, -0.020425f, -0.017452f, -0.023362f, -0.053410f, -0.032437f, -0.041788f, -0.038098f, -0.078887f,
-0.027912f, -0.042544f, -0.086387f, 0.035314f, 0.076260f, 0.088496f, 0.012475f, 0.022384f, 0.060674f, -0.079145f, -0.041397f, -0.023578f, -0.025894f, 0.001342f, -0.069694f,
0.000757f, -0.034401f, -0.071657f, -0.044961f, -0.071503f, -0.105553f, 0.038226f, 0.016003f, 0.071395f, -0.015011f, 0.013723f, 0.011950f, -0.019785f, 0.022126f, 0.021088f,
0.016110f, 0.043912f, 0.019168f, 0.075536f, 0.063133f, 0.089091f, 0.098645f, 0.100840f, 0.131455f, -0.080201f, -0.007920f, -0.070696f, -0.080373f, -0.088981f, -0.087858f,
0.042604f, 0.075904f, 0.005979f, 0.070795f, 0.106386f, 0.055152f, 0.051226f, 0.052257f, 0.028433f, -0.010828f, 0.058191f, -0.005556f, -0.093698f, -0.044658f, -0.113286f,
-0.045505f, -0.053976f, -0.020806f, -0.032769f, -0.024308f, -0.056548f, 0.069671f, 0.009539f, 0.006922f, -0.037859f, -0.013674f, -0.052483f, -0.076732f, -0.053907f, -0.050785f,
0.066494f, 0.037055f, 0.035055f, 0.134489f, 0.120946f, 0.100692f, 0.100677f, 0.091307f, 0.072875f, 0.036053f, -0.010487f, 0.005523f, 0.013490f, 0.046721f, 0.013744f,
-0.040357f, -0.004570f, 0.017188f, -0.005805f, -0.009140f, -0.064725f, 0.016183f, 0.022394f, -0.011345f, -0.046403f, 0.028628f, -0.017193f, 0.004004f, -0.028034f, -0.033069f,
0.031504f, 0.021903f, 0.027811f, -0.028871f, 0.012639f, -0.001772f, -0.011267f, 0.013224f, 0.031899f, -0.032708f, -0.017728f, 0.021033f, -0.001547f, -0.003338f, 0.021025f,
-0.055591f, -0.063592f, -0.102579f, 0.006326f, -0.000030f, -0.009911f, -0.011709f, 0.033701f, -0.072530f, -0.014863f, -0.069003f, -0.027983f, -0.034406f, -0.039662f, -0.002556f,
-0.086124f, -0.057527f, -0.028244f, -0.002593f, -0.002005f, -0.042056f, 0.001709f, -0.016139f, 0.026340f, -0.025912f, -0.055134f, -0.024439f, 0.041024f, 0.024939f, 0.003783f,
0.047078f, -0.017508f, -0.034164f, 0.016351f, 0.021910f, 0.001698f, -0.027883f, 0.013054f, 0.015126f, 0.017217f, 0.035675f, 0.019446f, 0.077721f, 0.030404f, 0.051471f,
-0.056245f, -0.035432f, -0.079788f, -0.027448f, -0.091470f, -0.023657f, -0.070420f, -0.056021f, -0.110386f, 0.076851f, 0.024209f, 0.027229f, 0.042849f, 0.027586f, 0.039309f,
0.100310f, 0.042075f, 0.025566f, -0.056681f, -0.049291f, -0.105251f, -0.024508f, -0.052552f, -0.054267f, -0.071148f, -0.066645f, -0.115346f, -0.071354f, -0.021358f, -0.034148f,
-0.074840f, 0.012756f, -0.111960f, -0.041942f, -0.039120f, -0.086425f, 0.090045f, 0.055662f, 0.138408f, -0.003671f, 0.080761f, -0.020398f, 0.097428f, 0.086904f, 0.075783f,
0.038819f, 0.059092f, 0.050832f, -0.005140f, 0.050890f, 0.037984f, 0.024731f, 0.039998f, 0.051740f, 0.129287f, 0.143180f, 0.105498f, 0.084372f, 0.141622f, 0.101133f,
0.040767f, 0.063178f, 0.047895f, -0.035585f, -0.058947f, -0.084175f, 0.021979f, -0.032577f, -0.020787f, -0.094834f, -0.077552f, -0.118524f, 0.009495f, 0.047595f, 0.011661f,
-0.013721f, 0.038302f, -0.014327f, -0.052909f, -0.027357f, -0.023517f, 0.016680f, 0.056122f, 0.050891f, 0.030228f, 0.031650f, 0.069288f, -0.008276f, 0.037593f, 0.039438f,
-0.058690f, -0.128086f, -0.119071f, 0.003942f, -0.076119f, -0.077233f, -0.023791f, -0.041427f, -0.098230f, -0.015380f, -0.004487f, -0.005481f, -0.007879f, -0.028650f, -0.027895f,
-0.037801f, -0.071762f, -0.057415f, 0.024100f, 0.035138f, 0.105568f, 0.073020f, 0.006546f, 0.009462f, -0.027298f, -0.051389f, -0.075812f, 0.030025f, 0.010028f, 0.035260f,
0.008713f, -0.032702f, -0.034970f, -0.075320f, -0.083122f, -0.077540f, -0.041490f, -0.042349f, -0.109886f, -0.038367f, -0.025166f, -0.070354f, -0.026455f, -0.041627f, -0.046706f,
0.053613f, 0.033092f, 0.094966f, 0.008122f, 0.030632f, 0.020599f, -0.007882f, -0.007518f, -0.002788f, -0.065598f, -0.057367f, -0.115166f, -0.008358f, -0.022339f, -0.037087f,
0.112547f, 0.065148f, 0.100306f, 0.055348f, 0.020180f, 0.005805f, 0.008478f, 0.022842f, -0.006396f, 0.009254f, 0.072821f, 0.077916f, 0.027945f, 0.032677f, 0.026826f,
0.025823f, 0.018197f, 0.056510f, 0.023106f, 0.036349f, 0.046975f, -0.031225f, 0.013679f, -0.028845f, -0.050922f, -0.037835f, -0.044186f, -0.033623f, -0.003540f, 0.008334f,
0.076795f, 0.061052f, 0.023162f, 0.047840f, 0.066203f, 0.008811f, 0.047082f, 0.045681f, 0.088656f, 0.013564f, -0.050272f, -0.064077f, 0.005724f, -0.035435f, -0.061838f,
-0.008242f, -0.026036f, 0.011053f, -0.033113f, -0.031386f, -0.019430f, -0.034911f, 0.001951f, -0.012331f, 0.010293f, 0.044670f, 0.016410f, 0.058666f, -0.014070f, -0.012655f,
0.059190f, 0.010679f, 0.027758f, 0.042434f, 0.044440f, 0.018155f, -0.047468f, -0.040066f, -0.076605f, -0.082408f, -0.055097f, -0.119660f, -0.088394f, -0.065953f, -0.166920f,
0.006176f, -0.046896f, -0.027938f, 0.010955f, -0.013838f, 0.002029f, 0.024192f, 0.029968f, 0.044078f, -0.066527f, -0.051217f, -0.021915f, -0.052107f, -0.035754f, -0.067814f,
-0.071102f, -0.081363f, -0.113062f, -0.010139f, 0.010795f, -0.029899f, -0.085667f, -0.017279f, -0.075492f, -0.015511f, -0.011025f, -0.033726f, 0.009482f, 0.036390f, -0.013070f,
0.034259f, 0.028839f, 0.000751f, 0.120175f, 0.145683f, 0.129860f, 0.106193f, 0.043134f, 0.145907f, 0.063684f, 0.065400f, 0.115947f, 0.014693f, 0.008433f, 0.017080f,
0.005802f, 0.079886f, 0.049613f, 0.023289f, 0.005195f, 0.047819f, 0.128724f, 0.096809f, 0.087684f, 0.003092f, -0.031734f, -0.053692f, 0.000611f, 0.022002f, -0.047874f,
-0.024118f, -0.030661f, -0.046885f, -0.090818f, -0.031530f, -0.110459f, -0.034492f, -0.029124f, -0.087723f, -0.073460f, -0.011533f, -0.037390f, -0.074038f, -0.055151f, -0.081305f,
-0.059246f, -0.016588f, -0.050518f, -0.026272f, -0.047125f, -0.053169f, -0.016889f, -0.034889f, -0.079667f, 0.000963f, -0.007411f, -0.033952f, -0.060630f, -0.083058f, -0.137120f,
0.004535f, -0.000028f, -0.021613f, -0.030816f, 0.001845f, -0.100345f, -0.014736f, 0.009920f, -0.023078f, 0.025572f, 0.001747f, 0.027494f, 0.043727f, 0.049113f, -0.023625f,
0.002027f, 0.039575f, 0.056824f, 0.085770f, 0.091139f, 0.053482f, 0.051676f, 0.085146f, 0.023608f, 0.065691f, 0.050142f, 0.077649f, -0.089634f, -0.090958f, -0.067223f,
-0.066324f, -0.021463f, 0.013377f, -0.133832f, -0.132838f, -0.107894f, 0.058697f, 0.090029f, 0.039349f, 0.047568f, 0.058250f, 0.046708f, 0.033304f, 0.108440f, 0.089071f,
0.014388f, 0.007618f, 0.020476f, -0.000102f, -0.040202f, -0.016689f, 0.016028f, 0.029096f, -0.008020f, 0.037290f, 0.005487f, -0.066436f, -0.004364f, 0.017123f, 0.035126f,
-0.036826f, 0.001087f, 0.010859f, 0.027461f, 0.083277f, 0.105443f, 0.049917f, 0.036535f, 0.020893f, -0.078000f, 0.033430f, 0.028675f, -0.040795f, -0.061055f, -0.101726f,
-0.101595f, -0.114771f, -0.126069f, -0.048146f, -0.062162f, -0.103072f, -0.003013f, 0.004753f, -0.014401f, -0.005982f, -0.019023f, 0.036195f, 0.016554f, 0.024260f, 0.013848f,
-0.041120f, -0.045730f, 0.002005f, -0.000079f, -0.021547f, -0.037797f, -0.010780f, -0.039839f, 0.000954f, -0.076471f, -0.072317f, -0.080644f, -0.027173f, -0.042769f, -0.048675f,
-0.116416f, -0.076168f, -0.107609f, 0.079499f, 0.053841f, 0.076012f, 0.075247f, 0.050894f, 0.097198f, 0.117028f, 0.060555f, 0.107469f, -0.023867f, 0.035174f, 0.016126f,
0.050170f, -0.021770f, -0.028241f, -0.043203f, -0.006802f, -0.058320f, -0.034801f, -0.020321f, -0.016163f, 0.048932f, 0.028560f, -0.040509f, -0.027958f, -0.074340f, -0.019705f,
0.015738f, -0.013865f, 0.004328f, -0.036575f, -0.059703f, -0.043734f, 0.050248f, 0.020295f, 0.018265f, 0.007783f, 0.040128f, -0.006818f, -0.020216f, 0.026573f, -0.022338f,
-0.055145f, -0.010938f, -0.052674f, -0.069330f, -0.025310f, -0.079309f, 0.015495f, 0.007909f, -0.018287f, -0.065935f, -0.002173f, -0.020286f, 0.069331f, 0.053780f, 0.010385f,
0.055186f, 0.020448f, 0.061298f, 0.073424f, 0.056945f, 0.063246f, -0.017279f, -0.089279f, -0.050107f, -0.020053f, 0.002576f, -0.040216f, -0.015722f, 0.011583f, -0.071835f,
0.021109f, -0.001309f, -0.034673f, 0.002645f, 0.013481f, 0.020398f, -0.036448f, -0.024372f, -0.041859f, -0.025310f, -0.006621f, 0.006498f, 0.095601f, 0.021970f, 0.080064f,
-0.017281f, 0.052191f, -0.026056f, -0.024278f, -0.026054f, -0.018712f, -0.025041f, 0.006690f, -0.040957f, -0.097019f, -0.016071f, -0.060133f, -0.011631f, -0.030602f, -0.007363f,
0.027356f, -0.001586f, -0.031150f, 0.002796f, -0.047126f, -0.040693f, -0.086444f, -0.097809f, -0.052561f, 0.002730f, -0.038740f, -0.050994f, -0.077806f, -0.033289f, -0.024688f,
-0.052447f, -0.009416f, 0.004441f, -0.027010f, -0.076434f, -0.033940f, 0.029980f, 0.041634f, 0.015630f, -0.030242f, -0.002105f, -0.014073f, -0.006787f, 0.032014f, 0.020737f,
-0.022438f, -0.008337f, -0.040860f, 0.090053f, 0.046851f, 0.077214f, 0.075482f, 0.061604f, 0.157910f, 0.009435f, 0.011933f, 0.121648f, -0.044578f, 0.002800f, -0.008393f,
-0.064563f, -0.029152f, -0.054780f, -0.085033f, -0.044973f, -0.035150f, -0.026110f, -0.025201f, -0.043958f, -0.031906f, -0.005274f, -0.015292f, -0.009140f, -0.002997f, 0.007463f,
-0.054981f, -0.032613f, 0.034260f, -0.057656f, -0.042922f, -0.093132f, -0.094218f, 0.003974f, -0.027161f, -0.006801f, -0.011001f, -0.016842f, 0.000226f, -0.019023f, -0.081979f,
0.017158f, 0.053392f, 0.020464f, 0.027106f, -0.020401f, 0.000683f, 0.011153f, 0.045428f, 0.028487f, -0.022786f, -0.002151f, 0.014986f, -0.056705f, -0.040194f, -0.034994f,
-0.059057f, -0.022394f, -0.031871f, -0.028168f, -0.089158f, -0.064799f, 0.026726f, 0.007677f, -0.010443f, 0.046591f, 0.045397f, -0.004001f, 0.008090f, 0.004615f, -0.029152f,
0.101244f, 0.064985f, 0.029967f, 0.007291f, 0.035309f, 0.004794f, -0.003057f, -0.018185f, -0.021553f, -0.075971f, -0.045458f, -0.040476f, -0.029742f, -0.053117f, -0.081230f,
0.032297f, -0.012323f, 0.010876f, 0.022547f, 0.062462f, 0.012688f, 0.009502f, 0.042839f, 0.029888f, 0.104707f, 0.140887f, 0.147347f, -0.012933f, 0.031501f, -0.002412f,
0.053067f, 0.034521f, 0.049502f, 0.060730f, 0.051412f, 0.061035f, 0.052730f, 0.023948f, -0.007417f, 0.044821f, 0.062583f, 0.038225f, -0.026696f, -0.019451f, -0.045043f,
-0.028715f, 0.039327f, -0.010349f, -0.057794f, 0.031953f, -0.003647f, -0.014644f, 0.008017f, -0.004127f, -0.026371f, 0.030100f, -0.033112f, 0.005673f, 0.025630f, -0.011277f,
-0.028185f, -0.000067f, -0.017831f, -0.033804f, -0.056242f, -0.050850f, -0.061423f, -0.061482f, -0.109106f, -0.044645f, -0.057477f, -0.091243f, 0.080041f, 0.080139f, 0.084908f,
0.009787f, 0.035763f, 0.070833f, -0.050599f, -0.034798f, -0.081695f, -0.001029f, -0.001288f, -0.039755f, 0.039140f, 0.007058f, -0.003391f, -0.005383f, -0.050520f, -0.044615f,
0.008525f, 0.071424f, 0.057690f, -0.009992f, 0.004806f, -0.023492f, 0.021540f, 0.001733f, 0.052090f, 0.078790f, 0.066596f, 0.061852f, 0.094511f, 0.088528f, 0.094248f,
0.093725f, 0.104291f, 0.108156f, 0.006849f, 0.044656f, 0.001836f, -0.044622f, -0.061687f, -0.028411f, -0.023231f, 0.042216f, 0.003474f, 0.029174f, 0.086389f, 0.044364f,
0.056319f, 0.080767f, 0.060313f, 0.018475f, 0.012250f, 0.023203f, -0.029065f, 0.052747f, 0.031671f, -0.025483f, -0.042307f, -0.005841f, 0.001331f, 0.112186f, 0.023051f,
-0.010404f, -0.076331f, -0.056610f, -0.018766f, 0.095932f, 0.059506f, -0.037596f, -0.083049f, -0.140349f, 0.101386f, 0.012490f, 0.060518f, 0.004015f, -0.005477f, 0.054042f,
-0.010285f, -0.014512f, 0.057256f, -0.069565f, -0.065528f, -0.021527f, -0.060959f, -0.058947f, -0.069880f, -0.055557f, -0.047555f, -0.028329f, -0.004731f, -0.006435f, -0.010601f,
-0.032778f, -0.002831f, -0.056999f, -0.023454f, 0.059721f, 0.012276f, 0.009861f, 0.042178f, 0.030281f, -0.018474f, 0.015612f, -0.027434f, -0.037509f, -0.037936f, 0.012313f,
0.024470f, -0.001052f, -0.053867f, -0.024936f, -0.019580f, -0.058504f, 0.019185f, 0.003103f, -0.016743f, 0.064694f, 0.059546f, 0.070992f, 0.011223f, 0.035706f, 0.068954f,
0.003144f, -0.006524f, 0.017556f, -0.054854f, -0.035146f, -0.048046f, -0.016538f, -0.016528f, -0.013500f, -0.041704f, -0.020040f, -0.063717f, 0.019780f, -0.063706f, -0.032871f,
0.022914f, 0.069556f, 0.071094f, 0.004039f, 0.017103f, 0.017060f, 0.061005f, 0.066099f, 0.011314f, -0.010479f, 0.010722f, -0.038994f, 0.034581f, 0.017044f, -0.006410f,
-0.059138f, -0.093774f, -0.052524f, -0.084488f, -0.029349f, -0.103898f, -0.048368f, -0.049712f, -0.060856f, 0.002803f, 0.077342f, 0.011128f, 0.043947f, 0.050829f, 0.022344f,
0.110195f, 0.158477f, 0.153690f, -0.034191f, -0.005956f, -0.014487f, 0.004141f, 0.034581f, 0.054339f, 0.051831f, -0.030206f, -0.000272f, 0.067711f, 0.073930f, -0.004573f,
0.075043f, 0.092786f, 0.043796f, -0.004428f, 0.014913f, 0.009559f, 0.002425f, 0.082667f, 0.073403f, -0.039240f, 0.044321f, 0.044043f, 0.004793f, 0.040544f, 0.066915f,
-0.081961f, -0.012344f, -0.077863f, -0.005892f, 0.055910f, 0.004576f, -0.050717f, 0.014555f, -0.051696f, -0.056602f, -0.042631f, -0.125497f, -0.091897f, -0.113167f, -0.123560f,
-0.088233f, -0.085506f, -0.115444f, 0.041824f, 0.079457f, 0.039366f, -0.050500f, -0.014407f, -0.039197f, -0.022019f, 0.015617f, 0.018192f, 0.015098f, 0.015365f, 0.005721f,
0.022757f, 0.038401f, 0.024604f, 0.038857f, 0.002706f, 0.023376f, 0.018196f, 0.047757f, 0.061537f, -0.025122f, -0.035610f, -0.058860f, 0.020190f, -0.003827f, -0.025042f,
0.042370f, 0.075700f, 0.031044f, 0.071004f, 0.070231f, 0.085589f, 0.083819f, 0.064056f, 0.053109f, 0.054977f, 0.081308f, 0.038386f, 0.010624f, -0.007600f, 0.005896f,
-0.006492f, 0.029902f, 0.046928f, 0.011455f, 0.071499f, 0.035532f, 0.068265f, 0.028649f, 0.055664f, 0.035775f, 0.131691f, 0.082363f, -0.044551f, -0.098460f, -0.030553f,
0.027514f, -0.003404f, 0.016074f, -0.060518f, -0.044018f, -0.027381f, 0.092903f, 0.106611f, 0.028902f, 0.084789f, 0.066930f, 0.017856f, 0.036321f, 0.028893f, -0.003835f,
0.002807f, 0.015077f, 0.091045f, 0.000242f, 0.058514f, 0.007939f, -0.011744f, 0.027782f, -0.005552f, 0.019569f, 0.017386f, -0.033848f, 0.016109f, -0.036798f, 0.037848f,
-0.014756f, -0.006064f, 0.040395f, 0.008602f, 0.035180f, 0.011885f, -0.008309f, -0.010746f, -0.070058f, 0.035582f, 0.025700f, -0.010339f, -0.037178f, -0.045995f, -0.002449f,
0.115752f, 0.108567f, 0.064248f, -0.019712f, 0.013105f, -0.064756f, -0.027480f, 0.021772f, -0.002775f, -0.026400f, -0.002262f, -0.011229f, -0.078684f, 0.005630f, 0.018474f,
-0.008031f, 0.048219f, 0.016391f, -0.122577f, -0.162615f, -0.186527f, 0.041680f, -0.021829f, -0.031609f, -0.027416f, -0.014597f, 0.010408f, -0.085856f, -0.083171f, -0.055242f,
-0.040964f, -0.029257f, -0.031068f, 0.006249f, -0.005227f, 0.002389f, -0.041994f, 0.009836f, -0.043317f, -0.070791f, -0.023892f, -0.020125f, -0.056158f, -0.061393f, -0.014428f,
-0.017873f, -0.092453f, -0.037698f, -0.065535f, -0.089446f, -0.067293f, 0.052630f, 0.022374f, 0.025103f, 0.060034f, 0.064703f, 0.069819f, 0.065105f, 0.057824f, 0.084627f,
-0.019905f, -0.014639f, -0.108375f, 0.079781f, -0.020665f, 0.018093f, 0.012582f, 0.036152f, 0.012643f, -0.038051f, -0.045414f, -0.083306f, -0.029637f, -0.032606f, -0.052276f,
-0.011914f, 0.065185f, 0.006997f, 0.007614f, -0.036720f, -0.004489f, 0.046181f, 0.050761f, 0.009457f, 0.055476f, 0.086561f, 0.065928f, 0.030728f, 0.090881f, 0.035792f,
0.037679f, 0.027744f, 0.004841f, -0.074683f, 0.005083f, -0.070284f, -0.057010f, -0.022771f, -0.001067f, 0.004599f, -0.017920f, -0.033312f, -0.031685f, 0.011114f, -0.020014f,
0.013986f, 0.027725f, -0.001200f, 0.005188f, -0.012401f, -0.011320f, 0.023946f, 0.041088f, 0.053732f, 0.050640f, 0.044807f, 0.023503f, -0.009332f, -0.025022f, -0.012680f,
0.011822f, 0.005373f, -0.003265f, -0.019675f, -0.014201f, 0.017820f, 0.051066f, 0.001771f, 0.005489f, 0.016863f, 0.008883f, -0.006792f, 0.015039f, 0.020706f, 0.025126f,
0.088030f, 0.056174f, 0.071771f, 0.055403f, 0.082779f, 0.043002f, -0.008856f, 0.062933f, -0.010104f, -0.005585f, 0.093068f, 0.014309f, -0.065795f, -0.015795f, -0.026080f,
0.010350f, 0.013863f, 0.036010f, 0.036006f, -0.027208f, -0.057125f, -0.006115f, -0.045295f, 0.023913f, -0.064576f, -0.061322f, -0.123518f, -0.015689f, -0.005311f, -0.031005f,
-0.088555f, -0.038250f, -0.036431f, -0.010714f, 0.010381f, -0.039672f, -0.006992f, -0.017773f, -0.010524f, 0.017714f, 0.061497f, 0.004334f, 0.110006f, 0.099187f, 0.055818f,
0.008647f, 0.036194f, -0.017891f, -0.075545f, -0.042013f, -0.086499f, -0.053779f, -0.021204f, -0.009608f, -0.034756f, -0.041778f, 0.043678f, 0.029256f, -0.022474f, -0.014311f,
0.000993f, -0.049566f, -0.021425f, -0.052579f, -0.008959f, -0.006332f, -0.054903f, -0.030355f, -0.042494f, -0.038022f, -0.061123f, -0.097620f, -0.034521f, -0.044314f, -0.081358f,
0.021083f, 0.076861f, 0.018454f, 0.031614f, -0.015924f, -0.003870f, 0.100488f, 0.094831f, 0.092368f, 0.075599f, 0.035472f, -0.037385f, 0.002249f, -0.016380f, -0.031069f,
-0.065159f, 0.008847f, 0.005121f, -0.068721f, -0.010713f, -0.039926f, 0.081041f, 0.041655f, 0.018061f, -0.025175f, -0.011984f, -0.073001f, -0.106372f, -0.062747f, -0.121933f,
0.003919f, -0.014651f, 0.023645f, 0.031784f, 0.024700f, 0.016134f, 0.032005f, 0.013290f, 0.011533f, -0.028868f, -0.047554f, -0.035416f, -0.077189f, -0.055776f, -0.005975f,
-0.035169f, -0.044390f, -0.032108f, -0.016954f, -0.015682f, -0.108241f, -0.015996f, -0.072940f, -0.034943f, -0.030281f, 0.017182f, 0.013120f, 0.043989f, 0.051525f, 0.089049f,
0.030375f, 0.056066f, 0.018115f, -0.030662f, -0.011575f, 0.021958f, -0.025909f, -0.012400f, 0.001522f, 0.032685f, 0.057224f, 0.002622f, -0.044133f, -0.065352f, -0.060441f,
-0.096641f, -0.052907f, -0.072982f, -0.030934f, -0.011685f, -0.038501f, -0.005842f, -0.032833f, -0.077427f, 0.070853f, 0.095179f, 0.081869f, 0.056819f, 0.017672f, 0.011231f,
0.116455f, 0.074817f, 0.113445f, 0.087367f, 0.077247f, 0.058008f, 0.089181f, 0.084269f, 0.075399f, 0.075160f, 0.075241f, 0.015177f, -0.027959f, 0.007286f, -0.016843f,
-0.094227f, 0.004117f, -0.029523f, -0.025919f, -0.038979f, -0.070701f, -0.001300f, 0.005693f, -0.007556f, -0.042091f, -0.014603f, -0.000510f, 0.026142f, 0.057406f, 0.116671f,
-0.046005f, 0.010935f, -0.009420f, -0.069550f, -0.045011f, -0.084490f, 0.006868f, 0.046449f, 0.042854f, 0.089452f, 0.051189f, 0.081449f, 0.086833f, 0.063715f, 0.077879f,
0.027497f, 0.024981f, 0.035042f, 0.029631f, 0.045897f, 0.079255f, 0.032301f, -0.012552f, 0.028022f, 0.043561f, 0.024080f, 0.035152f, -0.031663f, 0.074466f, -0.013891f,
-0.057644f, -0.009408f, -0.095853f, -0.064450f, -0.054430f, -0.106620f, 0.085598f, 0.027682f, 0.027023f, 0.120971f, 0.085568f, 0.067628f, -0.040463f, -0.046915f, -0.027240f,
-0.093503f, -0.031886f, -0.081981f, -0.039865f, -0.020072f, -0.034501f, -0.029829f, -0.052400f, 0.003570f
};
const float speaker_model_model_2_bn2_weight[] = {
1.615339f, 1.423882f, 1.518884f, 1.660020f, 1.575620f, 1.662181f, 1.556640f, 1.607519f, 1.518293f, 1.523897f, 1.546583f, 1.492017f, 1.615024f, 1.526450f, 1.512883f,
1.452442f, 1.555339f, 1.519233f, 1.591833f, 1.497005f, 1.499649f, 1.425844f, 1.535992f, 1.443161f
};
const float speaker_model_model_2_bn2_bias[] = {
-0.273175f, -0.361314f, -0.243840f, -0.408091f, -0.210724f, -0.128664f, -0.469256f, -0.370422f, -0.258828f, -0.270949f, -0.405514f, -0.384082f, -0.329202f, -0.325810f, -0.283513f,
-0.304848f, -0.440192f, -0.335446f, -0.366792f, -0.431288f, -0.284186f, -0.317577f, -0.281744f, -0.199251f
};
const float speaker_model_model_2_bn2_running_mean[] = {
0.038072f, -0.197516f, -0.078770f, -0.251880f, 0.129865f, 0.107725f, -0.120808f, -0.085362f, 0.067038f, 0.207414f, 0.093994f, -0.249974f, 0.044588f, 0.144745f, -0.016857f,
-0.255772f, -0.052401f, -0.333849f, -0.272093f, -0.214217f, 0.099766f, 0.207557f, -0.087801f, 0.114066f
};
const float speaker_model_model_2_bn2_running_var[] = {
0.067278f, 0.075350f, 0.120263f, 0.048487f, 0.111380f, 0.071884f, 0.072489f, 0.063441f, 0.065645f, 0.062018f, 0.071317f, 0.067073f, 0.072414f, 0.071371f, 0.067143f,
0.060486f, 0.058084f, 0.079510f, 0.064849f, 0.067752f, 0.056671f, 0.064409f, 0.098911f, 0.079127f
};
const float speaker_model_model_2_shortcut_0_weight[] = {
-0.446317f, 0.268728f, -0.137249f, 0.186978f, -0.388122f, -0.184613f, -0.457209f, -0.153624f, -0.303827f, -0.235208f, 0.228997f, -0.350494f, 0.214691f, -0.087411f, -0.214968f,
0.139727f, 0.309646f, -0.093875f, 0.129475f, -0.146963f, 0.303980f, -0.110498f, -0.191728f, -0.213134f, -0.082197f, -0.077005f, 0.166855f, -0.148330f, -0.310905f, 0.059463f,
-0.255192f, -0.160066f, -0.263473f, 0.445810f, 0.015916f, -0.035802f, 0.044295f, 0.029154f, -0.190367f, 0.220199f, 0.050265f, 0.274028f, 0.245380f, -0.003880f, 0.240916f,
0.029973f, -0.157499f, 0.136444f, 0.115080f, -0.114340f, 0.054306f, -0.451314f, 0.130095f, -0.048699f, 0.138605f, -0.186211f, 0.378511f, 0.044163f, -0.093004f, -0.104895f,
0.380040f, 0.199967f, 0.118650f, -0.113615f, 0.446716f, 0.038069f, 0.178947f, 0.276187f, 0.178875f, -0.129691f, 0.059139f, -0.027699f, 0.238004f, -0.218729f, 0.326534f,
0.037490f, 0.184397f, -0.239271f, -0.207369f, 0.103354f, 0.344263f, -0.011018f, 0.265569f, -0.162748f, 0.055386f, -0.020652f, 0.140882f, -0.138480f, 0.125944f, 0.094048f,
-0.144986f, 0.400375f, -0.267098f, 0.328146f, -0.106683f, -0.033511f, 0.470686f, -0.080120f, 0.256782f, -0.062280f, -0.066663f, -0.134240f, -0.135082f, -0.135118f, 0.207101f,
-0.050501f, -0.282416f, -0.177011f, 0.234303f, -0.172282f, -0.087086f, -0.343295f, 0.069785f, -0.128213f, 0.082406f, 0.427154f, -0.038403f, 0.094401f, 0.119575f, 0.009876f,
-0.054777f, 0.170337f, -0.331322f, -0.044884f, -0.249357f, 0.000216f, -0.199045f, 0.053275f, 0.047076f, -0.009381f, -0.422800f, 0.272509f, -0.425668f, -0.062004f, 0.192711f,
-0.276345f, -0.254536f, 0.207457f, -0.242252f, -0.017044f, -0.402365f, 0.099112f, -0.122313f, -0.160997f, -0.120384f, -0.248602f, -0.296195f, -0.575638f, 0.183281f, -0.031951f,
-0.388865f, -0.005982f, -0.040394f, -0.387452f, 0.124395f, -0.289304f, 0.204331f, -0.049121f, 0.182592f, 0.209028f, -0.300090f, 0.388159f, -0.321957f, 0.174110f, -0.096856f,
-0.063183f, 0.078981f, 0.024040f, -0.316114f, 0.300694f, -0.454725f, -0.058504f, -0.350812f, -0.012416f, -0.170527f, 0.153235f, 0.072252f, -0.047898f, 0.217373f, -0.081459f,
0.483687f, 0.186728f, -0.013695f, 0.130222f, 0.066049f, 0.009735f, -0.251958f, 0.088024f, -0.485486f, 0.069706f, 0.025188f, 0.085833f
};
const float speaker_model_model_2_shortcut_1_weight[] = {
0.731030f, 0.757979f, 0.844274f, 0.758373f, 0.718636f, 0.733006f, 0.709025f, 0.750753f, 0.910490f, 0.767540f, 0.706870f, 0.647354f, 0.904735f, 0.688860f, 0.823316f,
0.813511f, 0.783443f, 0.854412f, 0.517507f, 0.648365f, 0.757183f, 0.708445f, 0.798315f, 0.796542f
};
const float speaker_model_model_2_shortcut_1_bias[] = {
-0.273175f, -0.361314f, -0.243840f, -0.408091f, -0.210724f, -0.128664f, -0.469256f, -0.370422f, -0.258828f, -0.270949f, -0.405514f, -0.384082f, -0.329202f, -0.325810f, -0.283513f,
-0.304848f, -0.440192f, -0.335446f, -0.366792f, -0.431288f, -0.284186f, -0.317577f, -0.281744f, -0.199251f
};
const float speaker_model_model_2_shortcut_1_running_mean[] = {
-0.726986f, -0.321662f, 0.065574f, -0.466772f, 0.166695f, 0.438318f, -0.038658f, 0.474990f, 0.555427f, 0.122111f, 0.338123f, 0.025652f, 0.134612f, -0.205464f, 0.167336f,
-0.292524f, -0.351302f, -0.478970f, -0.674424f, 0.001566f, -0.020796f, -0.415748f, 0.437907f, -0.215400f
};
const float speaker_model_model_2_shortcut_1_running_var[] = {
0.628314f, 0.189209f, 0.289668f, 0.086946f, 0.189637f, 0.231769f, 0.155829f, 0.277983f, 0.352299f, 0.275232f, 0.206398f, 0.140153f, 0.242222f, 0.163146f, 0.060173f,
0.167727f, 0.352211f, 0.418496f, 0.457167f, 0.296400f, 0.350145f, 0.532575f, 0.311701f, 0.199303f
};
const float speaker_model_output_1_weight[] = {
-0.125832f, -0.032934f, -0.526027f, -0.314689f, 0.150289f, 0.158734f, 0.388025f, -0.253101f, 0.102957f, 0.316078f, 0.377172f, 0.186318f, 0.265361f, -0.098354f, 0.250202f,
-0.409777f, 0.349396f, -0.368459f, -0.357119f, -0.051077f, 0.293392f, 0.397057f, -0.477695f, -0.438766f, 0.356990f, -0.001343f, 0.216762f, 0.337868f, 0.154862f, 0.277522f,
0.310679f, -0.558205f, -0.550962f, -0.285687f, 0.278597f, -0.418988f, -0.240979f, 0.070129f, -0.251284f, -0.097818f, -0.495962f, -0.045397f, 0.012402f, 0.556083f, -0.293356f,
-0.313613f, 0.215074f, 0.226690f, -0.115003f, -0.381595f, -0.349354f, 0.348184f, -0.440144f, 0.070124f, -0.031660f, 0.396667f, 0.110217f, 0.043618f, -0.074683f, 0.328040f,
0.171429f, -0.053615f, 0.296668f, 0.320129f, -0.248821f, 0.114971f, 0.377266f, -0.005947f, -0.409934f, -0.337522f, -0.411129f, -0.246024f, -0.282928f, 0.399070f, 0.270362f,
-0.265823f, 0.221387f, -0.317336f, -0.037808f, 0.076901f, 0.040053f, -0.344571f, -0.209645f, -0.050937f, -0.283230f, -0.251425f, -0.306894f, 0.343896f, 0.238560f, 0.391688f,
-0.146284f, 0.087530f, 0.347346f, 0.016731f, 0.215220f, -0.054846f, 0.341278f, -0.365920f, 0.250853f, -0.106705f, 0.257105f, 0.296254f, -0.587611f, 0.157784f, 0.194756f,
0.217484f, -0.177345f, -0.289222f, 0.057675f, 0.525411f, 0.113021f, -0.040028f, -0.309224f, -0.090816f, -0.435563f, -0.450929f, 0.216170f, 0.405192f, 0.076595f, 0.170317f
};
const float speaker_model_output_1_bias[] = {
-0.119115f, 0.297005f, 0.183717f, 0.037358f, -0.111934f
};


#endif /* MODEL_PARAMETERS_SPEAKER_MODEL_H */
