// Auto-generated weights from PyTorch model

const float model_0_conv1_weight[] = {
-0.028937f, -0.045904f, -0.009564f, -0.289764f, -0.101879f, -0.103157f, 0.288241f, 0.312545f, 0.077721f, 0.233445f, 0.292123f, 0.110428f, 0.245504f, 0.009621f, -0.221618f,
0.192499f, -0.333045f, -0.291835f, -0.207366f, 0.105496f, 0.217301f, 0.362251f, -0.185317f, 0.024116f, -0.236351f, 0.258471f, -0.157432f, 0.275661f, 0.270272f, 0.273124f,
-0.235158f, -0.361460f, -0.093186f, -0.062866f, -0.266676f, 0.113721f, 0.020974f, -0.117570f, 0.205374f, 0.034070f, -0.114964f, -0.266217f, 0.114697f, 0.003809f, -0.500532f,
-0.431408f, -0.100833f, 0.191850f, 0.251208f, 0.027375f, -0.038623f, 0.351793f, 0.282985f, 0.112831f, 0.013107f, -0.205134f, 0.317097f, -0.146347f, -0.236154f, 0.244561f,
0.071653f, -0.225081f, -0.293230f, 0.000145f, 0.335240f, 0.039035f, -0.235127f, 0.039911f, -0.294750f, 0.191639f, -0.091144f, 0.292040f
};
const float model_0_bn1_weight[] = {
1.034757f, 0.994864f, 0.913244f, 0.978053f, 0.995319f, 1.008207f, 1.050896f, 1.035783f
};
const float model_0_bn1_bias[] = {
0.084808f, 0.097160f, -0.015135f, -0.063923f, 0.114970f, -0.095636f, 0.067174f, 0.126038f
};
const float model_0_bn1_running_mean[] = {
-0.011444f, 0.031329f, 0.005598f, 0.033272f, 0.008987f, -0.022035f, 0.008514f, 0.010649f
};
const float model_0_bn1_running_var[] = {
0.128680f, 0.329758f, 0.053550f, 0.251989f, 0.365779f, 0.438160f, 0.271521f, 0.100542f
};
const float model_0_bn1_num_batches_tracked[] = {
18200.000000f
};
const float model_0_conv2_weight[] = {
0.030371f, 0.000662f, -0.147632f, -0.003410f, 0.145776f, -0.145398f, -0.060781f, 0.026419f, -0.124004f, -0.002672f, -0.028225f, 0.099481f, -0.008626f, -0.071198f, -0.114868f,
0.152602f, -0.035382f, 0.060588f, 0.006555f, -0.247888f, -0.121319f, 0.076220f, -0.255377f, -0.178944f, 0.049307f, -0.086917f, -0.037829f, 0.040240f, 0.097358f, -0.110804f,
0.118633f, 0.139058f, -0.022572f, -0.143135f, 0.013685f, -0.070612f, 0.021346f, 0.125234f, -0.095116f, 0.069434f, 0.000037f, -0.053563f, -0.151639f, -0.020590f, -0.107704f,
-0.019858f, 0.121358f, -0.191213f, 0.047690f, -0.096584f, 0.068410f, 0.006474f, -0.033612f, 0.133714f, 0.022390f, 0.111557f, -0.010043f, 0.111839f, 0.158688f, -0.009389f,
0.067236f, -0.063620f, -0.032891f, -0.047324f, -0.043051f, -0.183479f, -0.068525f, 0.125489f, -0.296596f, -0.049384f, 0.175920f, -0.053579f, -0.043068f, 0.022952f, 0.199719f,
-0.015626f, -0.232581f, -0.040369f, 0.090157f, 0.081025f, -0.063698f, 0.089050f, 0.031906f, -0.010025f, -0.038618f, -0.002354f, -0.070382f, 0.011319f, -0.116289f, 0.089240f,
0.220550f, -0.003436f, -0.014731f, -0.003808f, -0.082952f, 0.104285f, 0.043207f, -0.089139f, -0.119904f, -0.016117f, 0.015040f, -0.094843f, -0.160695f, 0.058970f, -0.180206f,
-0.184317f, 0.084153f, 0.099994f, 0.056934f, 0.098108f, -0.027742f, 0.073864f, 0.086585f, 0.048927f, 0.003812f, 0.045212f, 0.011631f, -0.020797f, -0.113717f, -0.138222f,
0.147970f, 0.051046f, -0.123786f, -0.054664f, 0.142501f, -0.043532f, 0.189598f, 0.120397f, 0.112704f, -0.051908f, 0.107489f, -0.060456f, -0.179370f, -0.089642f, 0.033285f,
-0.004830f, 0.150093f, 0.033062f, -0.066693f, -0.082169f, 0.108464f, 0.124286f, 0.051792f, 0.019831f, 0.039702f, -0.039071f, -0.073381f, -0.034663f, -0.008443f, 0.037707f,
-0.033942f, -0.111225f, 0.156734f, -0.058141f, -0.040802f, -0.139315f, 0.032001f, 0.100477f, 0.001575f, -0.084498f, 0.168891f, 0.050375f, 0.064837f, -0.036194f, 0.085450f,
-0.073486f, -0.023919f, 0.085472f, -0.037239f, 0.164243f, 0.065962f, -0.037270f, -0.005271f, -0.048653f, 0.047608f, -0.112329f, -0.001985f, 0.188361f, -0.199978f, -0.164076f,
0.080849f, -0.273649f, -0.041228f, 0.053764f, 0.037010f, 0.183372f, 0.060851f, 0.039123f, -0.121701f, -0.028605f, 0.053206f, -0.149365f, -0.001399f, -0.074006f, -0.055004f,
-0.142559f, 0.044706f, -0.039886f, 0.044243f, -0.274886f, -0.068488f, -0.018887f, -0.015657f, 0.034696f, -0.025980f, 0.017376f, -0.027717f, 0.029860f, 0.058436f, 0.012601f,
-0.055379f, 0.090677f, 0.005463f, 0.270930f, -0.016654f, 0.176134f, 0.021891f, -0.110773f, 0.007616f, -0.061657f, -0.036494f, 0.099251f, -0.038481f, 0.066007f, 0.116892f,
-0.129301f, 0.166028f, -0.007139f, 0.024915f, -0.017911f, -0.104100f, -0.139527f, -0.065554f, 0.110354f, 0.005660f, -0.022355f, 0.004824f, 0.089092f, -0.017374f, 0.063150f,
-0.004656f, -0.115583f, -0.010738f, -0.046508f, -0.070230f, 0.118983f, 0.013364f, 0.082513f, 0.027981f, 0.005905f, -0.043240f, -0.183084f, 0.118831f, 0.103748f, 0.170669f,
0.065446f, 0.057404f, 0.053868f, 0.119138f, 0.027678f, -0.035494f, -0.004059f, -0.240896f, -0.080943f, 0.075172f, -0.029014f, 0.040467f, 0.034692f, 0.172407f, 0.203338f,
0.015205f, 0.129016f, 0.204945f, -0.060903f, -0.120007f, -0.010914f, -0.038924f, -0.035797f, -0.055072f, 0.034570f, 0.000100f, -0.043214f, 0.078791f, -0.082133f, 0.022680f,
-0.113488f, 0.064285f, 0.165625f, 0.029629f, 0.072677f, -0.144991f, 0.019581f, -0.133900f, 0.140995f, -0.066910f, 0.099749f, -0.106050f, 0.035091f, -0.025364f, 0.088446f,
0.062075f, -0.094065f, 0.073011f, -0.063501f, 0.012084f, 0.152151f, -0.017217f, -0.057699f, -0.146324f, -0.047891f, 0.105197f, -0.030703f, -0.060144f, 0.035361f, -0.240633f,
-0.076607f, -0.107911f, 0.030961f, -0.134557f, 0.057087f, 0.022402f, -0.023998f, -0.004300f, -0.102241f, 0.208127f, 0.088531f, 0.085837f, 0.123018f, 0.174357f, 0.169922f,
0.030232f, 0.098895f, -0.127386f, -0.024439f, 0.019768f, -0.048541f, 0.001474f, -0.070767f, -0.049673f, 0.001461f, 0.092269f, -0.045439f, -0.147868f, -0.061496f, 0.105783f,
-0.076157f, -0.149987f, 0.060753f, -0.089166f, -0.130194f, 0.140076f, 0.130884f, 0.068591f, -0.089571f, -0.013379f, 0.157884f, -0.010313f, 0.077586f, -0.026385f, -0.060329f,
-0.096269f, 0.022342f, 0.014975f, 0.060137f, 0.197882f, 0.012886f, 0.170262f, -0.005692f, 0.063799f, -0.347885f, -0.124375f, 0.089948f, 0.055914f, -0.246769f, 0.002317f,
-0.092449f, 0.011171f, 0.106647f, 0.071972f, -0.060030f, -0.085433f, 0.068995f, -0.092215f, -0.041886f, 0.050674f, -0.078474f, -0.130000f, -0.051597f, -0.044472f, 0.062613f,
0.001542f, -0.210493f, -0.069143f, 0.250882f, 0.008492f, 0.097599f, 0.023897f, -0.043987f, -0.136904f, 0.024057f, -0.077952f, 0.098554f, -0.040386f, -0.098425f, 0.003185f,
-0.009881f, -0.086892f, -0.208423f, 0.091955f, 0.077954f, -0.048359f, 0.203828f, 0.012794f, 0.126561f, -0.148673f, 0.012116f, -0.057652f, 0.089980f, 0.089081f, -0.058899f,
0.141798f, -0.058405f, 0.042072f, -0.100729f, -0.079707f, -0.043658f, -0.156675f, -0.058700f, -0.170805f, -0.055598f, 0.183938f, 0.032971f, -0.102155f, 0.205409f, 0.167713f,
0.102536f, 0.141454f, -0.019446f, 0.141986f, 0.070231f, 0.108493f, 0.141986f, 0.048077f, -0.088177f, 0.047953f, 0.046870f, 0.022388f, 0.065122f, 0.079237f, -0.018963f,
-0.025358f, 0.079851f, -0.077585f, 0.007958f, -0.078770f, -0.060546f, -0.061683f, 0.068585f, -0.007016f, 0.007155f, -0.023813f, 0.102945f, 0.032782f, 0.096774f, 0.125205f,
0.124549f, -0.098147f, -0.032175f, -0.115835f, -0.085629f, 0.051177f, -0.184194f, 0.039494f, 0.062184f, 0.054758f, -0.047339f, 0.112189f, 0.069071f, -0.027473f, -0.016979f,
-0.117279f, -0.062743f, 0.152118f, -0.027014f, 0.050416f, -0.245372f, 0.044701f, 0.214133f, -0.115714f, -0.018157f, 0.058470f, -0.018628f, -0.099126f, 0.222093f, -0.125739f,
-0.001957f, 0.044363f, -0.103529f, -0.047475f, -0.174718f, -0.133514f, -0.030533f, -0.051252f, -0.024617f, -0.182259f, -0.023726f, 0.149738f, -0.103627f, 0.066308f, -0.089224f,
0.042284f, -0.129777f, 0.044651f, -0.041398f, -0.153802f, -0.343496f, 0.046937f, 0.029946f, 0.065615f, -0.023353f, -0.014736f, -0.194726f, -0.089226f, 0.097641f, 0.039419f,
-0.164976f, -0.064242f, 0.151612f, 0.029050f, 0.124233f, 0.017949f, 0.064424f, 0.021848f, 0.093451f, -0.157664f, -0.108803f, 0.003226f, 0.044160f, 0.071275f, -0.028122f,
-0.076481f, 0.016232f, -0.010861f, -0.073068f, 0.075116f, 0.000092f, -0.007101f, 0.055498f, -0.164875f, 0.025110f, 0.189990f, 0.177111f, 0.142229f, 0.066805f, 0.042501f,
0.008721f, -0.061685f, -0.066021f, -0.112839f, -0.009919f, 0.106065f, 0.060043f, -0.158557f, 0.069159f, -0.036958f, 0.109351f, 0.031247f, 0.023482f, -0.002725f, -0.022943f,
0.012627f, 0.058658f, 0.176998f, 0.108343f, -0.036048f, -0.056835f
};
const float model_0_bn2_weight[] = {
1.054538f, 0.931477f, 0.969864f, 1.035080f, 1.077142f, 1.078504f, 0.937346f, 0.956436f
};
const float model_0_bn2_bias[] = {
0.039834f, -0.122232f, 0.065701f, -0.073010f, -0.044030f, 0.041129f, 0.051529f, 0.209637f
};
const float model_0_bn2_running_mean[] = {
-0.392422f, 0.227343f, -0.035734f, 0.313774f, 0.117040f, -0.379531f, 0.207329f, -0.044316f
};
const float model_0_bn2_running_var[] = {
0.432793f, 0.193741f, 0.201132f, 0.389541f, 0.287001f, 0.415304f, 0.162628f, 0.244164f
};
const float model_0_bn2_num_batches_tracked[] = {
18200.000000f
};
const float model_0_shortcut_0_weight[] = {
0.312424f, 0.764575f, -0.697405f, 0.226322f, 0.828887f, -0.058952f, 0.134354f, -0.817283f
};
const float model_0_shortcut_1_weight[] = {
1.112601f, 0.868460f, 1.074875f, 0.923626f, 1.017895f, 0.887559f, 0.961523f, 0.988623f
};
const float model_0_shortcut_1_bias[] = {
0.039834f, -0.122232f, 0.065701f, -0.073010f, -0.044030f, 0.041129f, 0.051529f, 0.209637f
};
const float model_0_shortcut_1_running_mean[] = {
0.000000f, -0.000000f, 0.000000f, 0.000000f, 0.000000f, -0.000000f, 0.000000f, 0.000000f
};
const float model_0_shortcut_1_running_var[] = {
0.097376f, 0.582617f, 0.484457f, 0.051018f, 0.684787f, 0.003454f, 0.018011f, 0.665698f
};
const float model_0_shortcut_1_num_batches_tracked[] = {
18200.000000f
};
const float model_2_conv1_weight[] = {
0.199327f, -0.017018f, 0.125462f, -0.092728f, -0.141210f, 0.033049f, 0.046040f, 0.039758f, -0.097909f, -0.034847f, -0.034653f, -0.048657f, -0.156195f, 0.033233f, -0.197262f,
0.112457f, -0.047983f, 0.117267f, 0.039876f, 0.102850f, -0.092255f, 0.021183f, 0.113329f, 0.103323f, -0.081050f, -0.082096f, -0.045507f, 0.035929f, 0.050478f, -0.112537f,
0.217317f, 0.228397f, 0.090915f, -0.023376f, -0.041034f, 0.023586f, -0.135820f, -0.090402f, -0.167624f, -0.051448f, -0.045172f, 0.022959f, -0.074829f, 0.087820f, -0.039912f,
-0.109892f, 0.125142f, 0.121671f, 0.045147f, -0.048165f, -0.050853f, -0.097275f, -0.011124f, -0.066105f, -0.015108f, -0.060325f, -0.072825f, 0.031875f, 0.021100f, -0.098377f,
-0.120090f, -0.169710f, -0.080971f, -0.065409f, 0.073285f, 0.009320f, 0.097362f, 0.080261f, -0.029417f, 0.055711f, 0.120902f, 0.098553f, 0.231331f, 0.029482f, 0.118916f,
-0.133751f, -0.011470f, 0.038784f, -0.238229f, 0.186865f, 0.053943f, 0.109321f, -0.001616f, 0.083169f, 0.028033f, -0.016285f, 0.038666f, -0.116593f, -0.107699f, -0.139589f,
-0.032228f, -0.216697f, -0.112921f, 0.084850f, 0.080077f, 0.152149f, 0.143956f, 0.216784f, 0.022989f, 0.102827f, -0.130023f, -0.117174f, -0.064277f, -0.034331f, 0.022086f,
-0.098954f, 0.032694f, 0.020736f, -0.031980f, -0.001226f, -0.153315f, 0.019168f, 0.007911f, 0.024226f, -0.098106f, -0.000438f, 0.016349f, -0.208638f, -0.212952f, -0.030826f,
-0.100144f, -0.188055f, 0.011448f, -0.006320f, 0.088098f, -0.195172f, 0.010593f, -0.059614f, -0.035914f, 0.086711f, 0.040697f, 0.082274f, -0.112491f, 0.008377f, 0.073677f,
-0.088451f, 0.002026f, 0.025051f, -0.029974f, -0.034032f, -0.091349f, 0.111111f, -0.099884f, 0.001179f, 0.221782f, 0.188358f, 0.114701f, -0.010085f, 0.020731f, 0.006759f,
-0.094052f, -0.140043f, -0.059856f, -0.149399f, 0.054180f, -0.033149f, -0.063982f, 0.021982f, 0.027484f, -0.119873f, -0.057239f, 0.046751f, -0.050755f, 0.056261f, -0.022614f,
-0.126349f, 0.084957f, 0.066695f, -0.043026f, -0.037194f, -0.002676f, 0.009452f, 0.103150f, -0.023443f, 0.011411f, 0.121006f, 0.015747f, -0.165365f, 0.039375f, -0.075772f,
0.173732f, -0.018360f, -0.008338f, 0.013956f, -0.117594f, 0.020432f, -0.341455f, -0.128358f, -0.169289f, -0.062853f, 0.062463f, -0.012869f, 0.035517f, -0.119910f, 0.054748f,
0.034803f, -0.015395f, 0.027676f, -0.119650f, 0.201737f, 0.017965f, -0.044213f, 0.069921f, -0.024879f, -0.026901f, -0.058276f, -0.062803f, -0.137926f, -0.114130f, -0.048043f,
-0.038744f, -0.129373f, 0.024613f, 0.101216f, 0.016967f, -0.011167f, -0.136391f, 0.029064f, -0.111711f, -0.111997f, 0.103139f, 0.053726f, 0.018833f, 0.272571f, 0.042986f,
0.043899f, -0.048122f, -0.111767f, -0.014705f, -0.231793f, -0.095451f, 0.135095f, -0.078352f, -0.075872f, -0.036493f, -0.186011f, -0.106037f, -0.000224f, -0.255495f, -0.160589f,
0.133370f, -0.135311f, 0.048433f, -0.009592f, -0.096517f, 0.047915f, 0.068278f, -0.110587f, -0.002569f, -0.066078f, -0.028152f, -0.040761f, -0.024048f, 0.148424f, 0.069522f,
0.050071f, 0.031222f, 0.077368f, 0.077899f, 0.096156f, 0.093962f, 0.016726f, 0.060537f, -0.023190f, -0.078367f, -0.057249f, 0.036109f, -0.041915f, -0.021596f, -0.151206f,
0.046041f, -0.109379f, 0.009629f, 0.191876f, 0.010114f, -0.189893f, -0.099952f, 0.106638f, -0.141328f, 0.108946f, 0.034988f, 0.033928f, -0.074484f, 0.102162f, 0.070631f,
-0.068902f, 0.132850f, -0.048274f, -0.021201f, -0.036388f, -0.241725f, 0.126580f, 0.152773f, -0.035969f, 0.099442f, -0.018536f, -0.008920f, -0.171342f, -0.066335f, 0.109532f,
-0.061249f, 0.099715f, 0.015035f, -0.047852f, -0.157047f, 0.036829f, 0.021266f, 0.055396f, -0.071974f, -0.095540f, 0.081914f, 0.137860f, 0.101805f, 0.035501f, 0.196615f,
0.029349f, 0.084690f, -0.131358f, -0.015786f, 0.207293f, 0.031890f, 0.025664f, 0.190031f, 0.099836f, -0.132094f, -0.035194f, 0.059730f, -0.114542f, -0.053798f, 0.003089f,
0.089908f, -0.098316f, 0.070187f, -0.023388f, 0.145106f, 0.141990f, 0.067948f, -0.156414f, -0.052111f, 0.179791f, -0.131246f, -0.065533f, -0.052244f, -0.093222f, 0.019605f,
-0.234092f, -0.075385f, 0.043615f, 0.013277f, 0.042946f, 0.000725f, -0.022299f, 0.139242f, 0.055007f, -0.065552f, -0.095736f, -0.077667f, -0.050904f, 0.012566f, -0.001657f,
0.031285f, -0.090477f, -0.028729f, -0.058551f, 0.077903f, 0.006634f, -0.092131f, -0.134567f, 0.085235f, -0.037326f, 0.128851f, -0.016830f, -0.029683f, -0.067425f, 0.043850f,
0.037970f, 0.005611f, 0.108199f, 0.164464f, 0.030048f, 0.065537f, -0.085776f, -0.206072f, -0.149513f, 0.165892f, 0.191181f, 0.191359f, 0.054927f, 0.128450f, 0.073024f,
0.001105f, -0.073123f, 0.114160f, -0.101435f, -0.045086f, -0.022041f, 0.016220f, 0.121940f, -0.149789f, 0.062086f, -0.032342f, -0.188575f, 0.055404f, -0.011522f, 0.105043f,
0.205821f, 0.217692f, 0.034227f, 0.086730f, -0.066695f, -0.142600f, -0.219309f, -0.315491f, -0.166167f, 0.074181f, 0.027543f, 0.098242f, -0.055447f, 0.008448f, 0.021237f,
0.122287f, 0.120406f, -0.077157f, 0.102792f, -0.148103f, 0.106211f, 0.051324f, 0.036882f, 0.014608f, -0.030617f, -0.036289f, -0.002195f, 0.006808f, 0.043216f, -0.016430f,
0.108639f, 0.050424f, -0.201980f, -0.150555f, -0.129486f, 0.171402f, -0.134837f, 0.089024f, 0.235468f, 0.020622f, -0.023557f, -0.122568f, -0.023313f, -0.110563f, 0.018722f,
-0.031189f, -0.036656f, 0.066093f, -0.037998f, -0.090437f, 0.005456f, -0.087804f, -0.180361f, -0.076944f, -0.013823f, -0.109823f, -0.156623f, -0.147127f, -0.216815f, 0.078343f,
0.074712f, -0.212445f, -0.007784f, -0.164998f, -0.182714f, -0.129047f, 0.008892f, 0.096936f, -0.034266f, 0.045399f, 0.045043f, -0.101022f, 0.150820f, 0.043325f, 0.038512f,
-0.023914f, -0.128810f, -0.091856f, 0.027250f, 0.093435f, 0.025445f, -0.000338f, -0.069663f, 0.023251f, -0.238783f, 0.017049f, 0.036290f, -0.026067f, 0.071500f, -0.047630f,
-0.051777f, -0.154324f, -0.099868f, 0.011305f, -0.011767f, 0.045372f, -0.030417f, -0.159477f, 0.126510f, -0.151781f, -0.148667f, 0.066807f, -0.112179f, -0.063390f, -0.003740f,
-0.003534f, 0.073564f, -0.136994f, 0.050281f, 0.197486f, 0.040150f, -0.045094f, 0.035525f, 0.024074f, 0.003853f, 0.040873f, -0.064259f, -0.054107f, -0.065778f, -0.255332f,
-0.054023f, -0.049099f, -0.081511f, -0.022526f, -0.292821f, -0.141667f, -0.209482f, 0.095675f, 0.019997f, -0.061236f, -0.079040f, 0.001478f, 0.123460f, -0.074039f, -0.019084f,
-0.057491f, 0.010736f, -0.093986f, -0.098243f, 0.061337f, -0.066764f, 0.107973f, -0.038182f, -0.047147f, 0.085248f, -0.070254f, 0.049462f, -0.044235f, 0.056530f, 0.093785f,
-0.133420f, -0.094098f, 0.057139f, -0.003262f, -0.267104f, 0.044462f, -0.117187f, 0.039771f, -0.020195f, -0.020471f, -0.162702f, -0.078030f, 0.087601f, -0.025838f, 0.003510f,
0.131401f, -0.062147f, -0.007893f, -0.191618f, -0.107842f, 0.005369f, 0.106818f, 0.082282f, 0.112655f, -0.102274f, -0.046458f, -0.088292f, -0.151464f, -0.070013f, -0.098786f,
-0.208924f, 0.017287f, -0.197644f, 0.086748f, -0.138446f, 0.074260f, -0.000812f, 0.082681f, 0.002807f, -0.093295f, -0.214067f, -0.206039f, -0.064458f, 0.014365f, -0.091417f,
-0.056832f, 0.008977f, -0.048645f, -0.065696f, -0.140369f, -0.055152f, 0.061664f, -0.121504f, 0.001512f, 0.084034f, 0.011907f, 0.044444f, -0.188389f, -0.079167f, -0.066602f,
-0.021589f, 0.075949f, 0.047404f, 0.189045f, 0.128406f, 0.057073f, -0.141752f, -0.203278f, -0.017045f, 0.108660f, 0.097271f, 0.161357f, 0.027115f, 0.116064f, 0.050337f,
-0.097113f, -0.137106f, -0.066687f, -0.172887f, 0.059196f, -0.013898f, 0.099031f, -0.034792f, 0.124633f, 0.119310f, 0.039855f, 0.112091f, -0.187257f, -0.166561f, -0.023179f,
-0.041702f, 0.066759f, -0.116071f, -0.285690f, -0.003286f, -0.085427f, -0.103185f, -0.107111f, -0.031818f, -0.097648f, -0.140961f, 0.017606f, 0.020382f, 0.082932f, -0.084926f,
-0.027197f, 0.033531f, 0.001971f, -0.095899f, 0.028013f, -0.080429f, 0.023890f, -0.085879f, -0.036159f, -0.069089f, 0.018296f, 0.000065f, 0.001875f, 0.048459f, 0.112422f,
0.039048f, 0.127362f, 0.081141f, -0.098191f, 0.074706f, -0.148258f, 0.015355f, 0.118161f, 0.126243f, -0.018198f, -0.023382f, -0.040165f, -0.153511f, -0.224793f, -0.230730f,
0.042330f, -0.126971f, -0.009073f, -0.075283f, -0.059602f, -0.013105f, -0.094778f, 0.034893f, -0.039770f, -0.073481f, -0.109038f, -0.125418f, -0.043346f, -0.074398f, -0.075768f,
-0.048187f, -0.155363f, -0.146698f, 0.099278f, 0.126760f, 0.040418f, -0.049559f, -0.277182f, -0.028109f, -0.096864f, 0.051561f, 0.029727f, -0.031668f, -0.108857f, -0.131504f,
0.065362f, 0.087073f, 0.197076f, -0.073971f, -0.146643f, -0.173629f, -0.098763f, 0.040531f, 0.259447f, -0.044921f, -0.053274f, 0.039704f, 0.126573f, -0.084414f, 0.137466f,
0.022351f, -0.013367f, 0.032802f, -0.080976f, -0.194218f, -0.002526f, 0.007736f, 0.087904f, -0.061304f, -0.223416f, -0.070468f, 0.154790f, -0.094397f, 0.039124f, -0.065756f,
0.011996f, -0.041510f, 0.032690f, 0.010567f, 0.163411f, 0.143991f, -0.102461f, -0.096119f, -0.126569f, 0.007405f, -0.199800f, -0.038981f, -0.154738f, -0.134515f, -0.040065f,
-0.125983f, 0.050772f, -0.002961f, -0.120401f, -0.089031f, 0.029638f, 0.048482f, 0.023039f, -0.127745f, 0.101810f, 0.118621f, 0.092262f, -0.030399f, -0.114882f, 0.038893f,
0.098636f, -0.102687f, 0.050698f, 0.004406f, 0.086932f, 0.008908f, -0.013090f, 0.086501f, 0.067953f, -0.089557f, 0.013091f, -0.046585f, -0.054986f, -0.039053f, 0.049100f,
0.057731f, -0.202047f, -0.031543f, -0.157625f, 0.030049f, 0.203836f, -0.028486f, 0.208347f, -0.079591f, -0.012828f, 0.108144f, -0.050203f, -0.065032f, 0.050139f, 0.002658f,
-0.144546f, 0.015419f, 0.020106f, -0.153513f, 0.131103f, -0.230143f, 0.060397f, -0.001999f, -0.289591f, 0.070657f, -0.014128f, 0.016965f, 0.196993f, 0.137425f, 0.130937f,
0.105345f, 0.289374f, -0.065057f, -0.132818f, 0.033768f, -0.013893f, 0.012925f, -0.037393f, 0.044535f, 0.029482f, -0.135301f, 0.036953f, 0.001200f, -0.024259f, -0.163927f,
-0.004813f, -0.273324f, -0.116070f, -0.006042f, 0.137519f, -0.163216f, 0.016088f, 0.124841f, 0.026723f, -0.025423f, -0.076294f, 0.077571f, 0.019196f, 0.120307f, -0.178184f,
-0.038897f, 0.096343f, -0.011338f, -0.014705f, -0.042995f, -0.029626f, 0.105694f, -0.092699f, 0.048453f, 0.070120f, -0.245579f, -0.058983f, -0.090007f, -0.048635f, 0.022924f,
-0.119591f, -0.092219f, -0.068796f, -0.058531f, 0.104172f, 0.034197f, -0.019127f, 0.089187f, 0.032206f, 0.067347f, -0.088839f, 0.026180f, -0.103710f, -0.150145f, -0.166108f,
-0.212097f, -0.097383f, -0.141812f, -0.124158f, -0.240859f, -0.047287f, -0.125297f, -0.053050f, -0.082223f, -0.001116f, -0.066378f, 0.067265f, 0.122952f, -0.062835f, -0.087016f,
-0.259820f, -0.006112f, 0.087675f, 0.036871f, -0.042201f, 0.135556f, 0.070974f, 0.227045f, 0.059102f, 0.147501f, 0.055965f, -0.001023f, 0.006852f, -0.175472f, 0.003171f,
-0.104365f, -0.051950f, 0.015904f, -0.042871f, 0.060547f, -0.037305f, -0.162259f, -0.107237f, 0.132952f, 0.119185f, 0.048521f, 0.018201f, 0.142207f, -0.207807f, -0.034445f,
0.044762f, -0.154342f, 0.082736f, 0.012945f, 0.039690f, -0.005662f, -0.029966f, 0.004669f, -0.109935f, 0.078507f, 0.115451f, 0.068434f, -0.050144f, 0.133825f, 0.046954f,
-0.065541f, 0.000233f, -0.017835f, -0.097119f, -0.013043f, -0.062102f, -0.037081f, -0.080464f, -0.017321f, 0.134359f, -0.133281f, -0.053695f, -0.201612f, -0.067642f, -0.064380f,
-0.110929f, -0.107142f, -0.095879f, 0.054844f, -0.026537f, 0.051806f, 0.093531f, 0.076017f, 0.160784f, -0.069337f, 0.052637f, 0.118378f, 0.097471f, 0.086608f, -0.119945f,
0.058914f, -0.119183f, -0.069943f, -0.070020f, -0.032057f, 0.124998f, -0.127349f, -0.170308f, -0.007790f, -0.149185f, -0.029548f, 0.006040f, 0.017689f, 0.064619f, -0.070147f,
0.043343f, -0.029005f, -0.032666f, 0.091507f, 0.043921f, 0.045224f, 0.093948f, -0.120314f, -0.059835f, -0.209612f, 0.035987f, 0.224164f, 0.048594f, 0.011157f, -0.024889f,
0.277062f, -0.024822f, -0.139309f, -0.133981f, -0.204652f, 0.059608f, -0.189748f, -0.183806f, 0.109959f, -0.025763f, -0.142820f, 0.114546f, 0.022883f, -0.003604f, -0.050882f,
0.132886f, 0.025734f, 0.056201f, -0.076385f, 0.059085f, -0.065213f, -0.037442f, -0.184846f, -0.191223f, -0.108533f, -0.101269f, -0.061608f, -0.098402f, -0.006866f, -0.053052f,
0.008897f, -0.016575f, -0.102322f, 0.046796f, -0.146647f, -0.158307f, 0.003626f, 0.178271f, 0.004050f, 0.045909f, -0.038363f, 0.024228f, 0.033126f, 0.126583f, -0.014612f,
-0.076963f, 0.238029f, 0.119459f, -0.055263f, 0.015002f, 0.102592f, 0.013339f, 0.083583f, 0.223458f, 0.066709f, -0.032737f, -0.043437f, -0.014789f, 0.113680f, -0.044792f,
-0.052262f, 0.116308f, 0.007881f, -0.063270f, 0.167938f, -0.029486f, 0.004161f, 0.006872f, 0.114750f, -0.004511f, 0.039266f, 0.007402f, -0.107241f, 0.149621f, -0.036373f,
0.077562f, 0.104210f, -0.000546f, -0.213394f, -0.024397f, 0.134490f, 0.189582f, 0.102772f, 0.269428f, 0.065879f, 0.090540f, -0.028925f, 0.011781f, -0.013285f, 0.071551f,
0.179240f, 0.054086f, 0.152231f, 0.037196f, 0.097460f, 0.015407f, -0.013999f, 0.093911f, -0.029974f, -0.068523f, 0.108776f, 0.072680f, 0.058786f, -0.003710f, 0.099039f,
0.100621f, -0.043978f, -0.009866f, -0.107941f, 0.172858f, 0.124166f, -0.040120f, 0.032403f, 0.081137f, 0.007035f, 0.037389f, -0.016225f, -0.053653f, 0.102330f, -0.108545f,
-0.019247f, 0.013917f, 0.193562f, 0.101709f, -0.024909f, 0.217379f, 0.106575f, -0.005657f, -0.091168f, 0.014936f, 0.103648f, 0.127625f, -0.008095f, -0.052792f, 0.168823f,
-0.024034f, 0.218384f, 0.286702f, 0.013029f, 0.148455f, 0.224278f, -0.072018f, 0.086941f, 0.014247f, -0.015816f, -0.015279f, -0.026854f, -0.081123f, 0.010612f, -0.194151f,
-0.038490f, 0.060823f, 0.015661f, 0.189424f, 0.006924f, -0.075316f, -0.109399f, -0.156322f, -0.048331f, -0.061957f, 0.040587f, -0.049257f, 0.173147f, 0.025509f, 0.006375f,
-0.011559f, -0.169107f, 0.063121f, 0.010816f, -0.006000f, -0.151521f, -0.026359f, 0.099966f, -0.076272f, -0.083678f, 0.086064f, 0.110129f, 0.035469f, 0.023034f, -0.082558f,
-0.070732f, 0.061079f, -0.030912f, 0.069502f, 0.145221f, 0.212014f, 0.103816f, 0.003251f, 0.010160f, -0.054266f, 0.188396f, 0.092625f, -0.240580f, -0.277011f, -0.039959f,
0.036206f, -0.101993f, 0.106888f, 0.092382f, 0.094785f, -0.076336f, -0.176837f, -0.105484f, 0.070968f, -0.127759f, -0.012986f, 0.015883f, -0.004992f, 0.077293f, -0.004782f,
-0.117195f, 0.149707f, 0.023655f, 0.062944f, -0.009753f, 0.043407f, 0.076177f, -0.196773f, -0.044846f, 0.052314f, 0.019454f, 0.139847f, -0.193789f, -0.049390f, -0.138218f,
0.034027f, 0.073078f, 0.118914f, 0.007526f, 0.093716f, 0.068296f, -0.128512f, 0.194590f, 0.062634f, -0.160423f, 0.068872f, -0.003739f, 0.132417f, 0.094420f, 0.121765f,
-0.139656f, -0.093209f, -0.123776f, 0.004559f, 0.045707f, 0.212810f, -0.006047f, 0.111417f, 0.050577f, -0.033538f, 0.002911f, -0.114527f, -0.128637f, -0.060724f, 0.004425f,
0.207846f, 0.085032f, 0.069807f, 0.002510f, 0.044495f, 0.141799f, 0.012889f, -0.105426f, -0.188281f, 0.104321f, 0.028034f, -0.076243f, 0.158663f, -0.164306f, 0.024393f,
0.234803f, 0.183661f, -0.057091f, -0.000823f, -0.019500f, -0.070402f, 0.057455f, -0.063837f, -0.116849f, 0.125402f, 0.042345f, 0.051536f, 0.122399f, 0.070807f, 0.104332f,
-0.093027f, -0.023022f, -0.128960f, 0.040050f, -0.112957f, -0.016242f, 0.064145f, 0.134911f, 0.048331f, -0.029403f, -0.123203f, -0.078322f, 0.012751f, -0.109345f, 0.078120f,
-0.116989f, -0.040781f, -0.022180f, -0.078503f, -0.035942f, -0.073350f, -0.056401f, 0.162571f, -0.049876f, -0.209897f, -0.053243f, 0.055715f, -0.230300f, -0.187835f, -0.153143f,
-0.044133f, -0.102376f, -0.207876f, 0.098464f, 0.131067f, 0.067119f, -0.035903f, -0.034694f, 0.121948f, 0.027499f, 0.064436f, 0.037085f, -0.089706f, -0.021137f, -0.089662f,
-0.087316f, -0.031578f, -0.112432f, -0.001591f, -0.035102f, -0.029549f, 0.016849f, 0.094742f, -0.119961f, -0.093579f, 0.097920f, 0.042018f, 0.079642f, 0.122392f, 0.041147f,
0.149457f, 0.056668f, 0.006236f, -0.021068f, -0.017135f, 0.009972f, -0.135620f, -0.031539f, -0.009326f, 0.098643f, -0.049609f, 0.062039f, -0.024915f, -0.056449f, 0.100268f,
-0.216310f, -0.212719f, 0.028086f, 0.145908f, 0.013270f, -0.119156f, 0.089643f, -0.102640f, 0.093779f, 0.004326f, -0.116262f, -0.140121f, 0.005640f, -0.107195f, -0.017801f,
-0.182480f, -0.008695f, 0.004998f, -0.147704f, -0.020147f, -0.079283f, 0.075587f, 0.043606f, 0.130575f, -0.109235f, 0.084947f, -0.031801f, -0.141249f, -0.098129f, -0.005401f,
-0.085965f, -0.040149f, -0.058455f, 0.016931f, -0.014526f, 0.029642f, -0.149159f, 0.094378f, -0.150349f, 0.019285f, -0.001235f, 0.211282f, 0.052234f, -0.160322f, -0.146681f,
-0.172873f, -0.009411f, -0.198523f, 0.080695f, 0.133140f, 0.236549f, -0.067160f, -0.082960f, -0.024880f, 0.008611f, -0.004051f, 0.027758f, 0.046935f, -0.034239f, -0.043003f,
0.034299f, 0.029225f, 0.038551f, 0.035604f, -0.038203f, 0.025370f, 0.098192f, 0.202590f, 0.058531f, 0.106954f, 0.056174f, -0.021516f, 0.198188f, -0.135995f, -0.153299f,
-0.024348f, 0.082751f, 0.120756f, 0.013320f, -0.029904f, -0.246579f, -0.227505f, -0.047717f, -0.134891f, 0.025019f, -0.050998f, 0.134831f, -0.138400f, 0.053013f, -0.002014f,
-0.153074f, -0.103392f, -0.131642f, -0.113458f, 0.024245f, -0.009180f, 0.169833f, -0.045283f, 0.081862f, 0.004907f, 0.077464f, 0.095830f, -0.114319f, 0.152335f, 0.118925f,
-0.060229f, 0.187832f, -0.014781f, -0.152642f, -0.184093f, -0.200422f, 0.061412f, 0.032343f, -0.138561f, 0.187829f, 0.099074f, 0.020669f, -0.177523f, -0.160600f, 0.057197f,
0.055864f, 0.206519f, 0.067875f, -0.016146f, -0.122072f, -0.078793f, 0.030368f, 0.107577f, 0.112797f, 0.017238f, 0.135628f, 0.028907f, 0.023884f, 0.075782f, -0.044045f,
0.064086f, -0.038142f, 0.118472f, -0.180965f, 0.012963f, -0.122843f, 0.050568f, 0.061142f, -0.096483f, 0.068345f, -0.049657f, -0.020972f, -0.090768f, -0.130861f, 0.034834f,
0.068097f, -0.121832f, 0.064042f, -0.101256f, -0.073362f, -0.131644f, 0.007957f, -0.117902f, -0.068931f, -0.217545f, -0.109054f, -0.102383f, -0.110789f, 0.002075f, 0.004036f,
0.100826f, 0.074924f, 0.154005f, 0.018643f, -0.152344f, 0.035966f, 0.144126f, 0.100541f, 0.046493f, 0.080982f, -0.001867f, 0.006305f, 0.161264f, 0.032434f, 0.136763f,
-0.142991f, -0.082512f, -0.054361f, -0.125416f, -0.016306f, 0.039744f, -0.016774f, -0.121512f, -0.092616f, 0.153301f, 0.139197f, -0.003585f, -0.043456f, 0.089368f, -0.081546f,
0.034797f, -0.032956f, -0.119917f, -0.165774f, 0.014902f, -0.322363f, 0.030017f, -0.131987f, 0.156188f, 0.087442f, 0.031329f, 0.028854f, 0.056766f, 0.169588f, 0.106202f,
-0.132888f, -0.058777f, -0.046661f, 0.081970f, -0.083395f, 0.000705f, -0.076629f, -0.044113f, 0.002949f, -0.186266f, 0.016383f, -0.081259f, 0.007348f, -0.165202f, -0.004499f,
-0.060389f, 0.079022f, -0.080070f, 0.045830f, -0.086809f, 0.030157f, 0.200630f, -0.055982f, -0.016694f, -0.022539f, -0.015939f, 0.064844f, 0.103852f, -0.003351f, -0.063962f,
0.030881f, 0.124173f, 0.018757f, 0.129850f, 0.055159f, 0.027055f, -0.077176f, 0.148622f, 0.247691f, -0.026579f, 0.130065f, 0.000037f, -0.134262f, 0.088871f, -0.058558f,
0.038539f, -0.022718f, -0.147298f, 0.161407f, -0.096811f, -0.030311f, 0.116112f, 0.083370f, -0.020351f, 0.128121f, 0.018298f, -0.142957f, 0.063486f, 0.131962f, -0.117310f,
-0.061866f, -0.113532f, -0.208982f, -0.032394f, 0.105468f, -0.030903f, -0.070206f, -0.137829f, -0.017379f, 0.058168f, 0.029195f, 0.131215f, -0.132150f, -0.169371f, -0.093761f,
-0.040979f, -0.034481f, -0.157573f, 0.064096f, 0.227685f, -0.016607f, -0.118175f, -0.157542f, -0.006468f, -0.066699f, -0.078859f, 0.118612f, -0.126844f, 0.171752f, 0.127952f,
-0.161418f, 0.025199f, -0.040898f, -0.134335f, 0.062190f, -0.143451f, 0.036177f, 0.131515f, -0.110789f, 0.022990f, 0.044027f, 0.046888f, -0.053898f, 0.076318f, -0.058076f,
-0.057626f, 0.175493f, 0.116385f, 0.052932f, 0.076566f, -0.121852f, -0.173428f, -0.075002f, 0.055126f, 0.049057f, 0.086093f, 0.103419f, 0.087662f, -0.063297f, -0.066837f,
0.118996f, 0.088971f, -0.061342f, 0.150681f, 0.166748f, 0.055552f, 0.090469f, -0.166825f, -0.179788f, 0.114881f, 0.159925f, -0.086690f, 0.092675f, 0.011076f, -0.076650f,
0.176698f, -0.042281f, -0.013274f, -0.021441f, -0.000542f, -0.043050f, -0.020732f, -0.082632f, -0.082511f, 0.078194f, 0.087068f, -0.038021f, -0.159247f, -0.163626f, 0.045748f,
0.146301f, -0.020913f, -0.162737f
};
const float model_2_bn1_weight[] = {
1.017114f, 0.891561f, 1.077384f, 1.053091f, 0.980442f, 0.934516f, 1.023697f, 1.079360f, 1.058013f, 1.117125f, 0.892089f, 0.975712f, 0.952580f, 0.948921f, 1.000209f,
0.910500f, 0.975130f, 0.948485f, 0.975147f, 0.988162f, 0.976452f, 0.931724f, 0.886219f, 0.999203f
};
const float model_2_bn1_bias[] = {
-0.117409f, -0.106303f, -0.182375f, -0.168643f, -0.213736f, -0.127782f, 0.106970f, -0.003976f, -0.258958f, -0.044054f, -0.059808f, -0.330002f, -0.157892f, -0.296170f, -0.098094f,
-0.017185f, 0.065168f, -0.066523f, -0.211626f, -0.051785f, -0.561276f, -0.242142f, -0.455108f, -0.333835f
};
const float model_2_bn1_running_mean[] = {
-0.068518f, -0.633533f, -0.570339f, -0.407047f, -0.018525f, 0.201991f, -1.311800f, -1.371243f, -0.812888f, -1.718007f, -0.465347f, -0.316899f, -1.077064f, -0.439933f, 0.171031f,
2.027881f, -0.280848f, 0.497684f, -0.902442f, -0.137620f, 0.100211f, -0.582866f, -0.104099f, -0.006762f
};
const float model_2_bn1_running_var[] = {
0.340028f, 0.391435f, 0.365308f, 0.477801f, 0.344509f, 0.776134f, 0.480692f, 0.514929f, 0.613521f, 0.440685f, 0.461486f, 0.630395f, 0.454459f, 0.234544f, 0.326181f,
1.396143f, 0.455335f, 0.478481f, 0.330242f, 0.562240f, 0.340982f, 0.311242f, 0.355378f, 0.304112f
};
const float model_2_bn1_num_batches_tracked[] = {
18200.000000f
};
const float model_2_conv2_weight[] = {
0.113693f, 0.035693f, 0.023542f, 0.042633f, -0.144495f, 0.102941f, 0.094187f, 0.014774f, -0.004093f, -0.014282f, -0.004468f, -0.060562f, 0.026261f, 0.053577f, 0.051229f,
-0.088966f, 0.046038f, -0.024958f, -0.069795f, -0.121238f, -0.078662f, -0.075360f, -0.112278f, -0.004183f, -0.034668f, -0.111336f, 0.015771f, -0.154142f, 0.012517f, -0.065352f,
-0.060313f, 0.004880f, 0.135046f, -0.122314f, 0.071905f, -0.085684f, 0.003372f, 0.062178f, -0.091125f, 0.006141f, -0.009643f, 0.004779f, -0.025871f, -0.142061f, -0.126926f,
-0.071444f, -0.050638f, 0.167374f, -0.148522f, 0.025411f, -0.013829f, -0.117374f, -0.097130f, -0.177640f, 0.025132f, -0.029330f, -0.083143f, 0.147779f, 0.007438f, 0.217291f,
0.051269f, -0.013658f, 0.094160f, -0.063264f, 0.022379f, -0.027842f, -0.068264f, -0.125403f, -0.012060f, -0.007044f, -0.049396f, -0.069304f, 0.022710f, -0.158269f, 0.019010f,
-0.044472f, -0.021366f, 0.070117f, -0.076438f, 0.024438f, 0.020076f, -0.106707f, 0.052846f, -0.177281f, 0.042740f, 0.025457f, 0.196177f, 0.165808f, 0.234651f, 0.030628f,
-0.085004f, -0.005309f, -0.023601f, 0.045513f, 0.040771f, 0.090125f, 0.024225f, 0.064471f, -0.069486f, 0.017242f, -0.057571f, -0.082454f, 0.113125f, -0.073904f, -0.008245f,
-0.066902f, 0.116456f, 0.093331f, -0.033526f, -0.072588f, -0.150069f, -0.026308f, 0.096651f, 0.062097f, -0.060067f, -0.136817f, -0.098739f, -0.092515f, 0.012471f, -0.019004f,
0.101089f, 0.009820f, -0.001357f, -0.066210f, -0.106254f, -0.073243f, -0.073401f, -0.107467f, 0.018684f, 0.058434f, 0.057306f, 0.024355f, -0.090349f, -0.101343f, -0.140894f,
0.046950f, -0.025332f, -0.015920f, 0.035195f, 0.040509f, 0.097180f, -0.065503f, -0.041696f, -0.124731f, -0.007304f, 0.005719f, -0.071781f, 0.027839f, -0.008171f, 0.019866f,
0.126576f, 0.020084f, 0.033873f, -0.029913f, 0.027684f, 0.001471f, 0.087866f, -0.012149f, 0.041064f, -0.194153f, 0.060098f, -0.007396f, -0.053526f, -0.022865f, 0.153576f,
0.153236f, 0.104148f, 0.154884f, -0.056904f, 0.017892f, -0.034351f, -0.043975f, -0.127372f, -0.092681f, -0.117081f, -0.026908f, -0.134767f, 0.090268f, 0.066129f, 0.112520f,
-0.104325f, 0.088400f, 0.054685f, -0.016789f, -0.022158f, -0.219809f, 0.203750f, 0.043756f, 0.051490f, -0.032014f, -0.025378f, 0.013447f, 0.031553f, 0.040390f, 0.033381f,
-0.152736f, -0.011332f, -0.185987f, -0.141854f, 0.079329f, 0.061370f, -0.063647f, -0.042710f, -0.109604f, 0.020452f, 0.052703f, 0.000994f, 0.076916f, -0.017996f, 0.059703f,
-0.246408f, -0.234461f, -0.083989f, 0.119952f, 0.097002f, 0.166250f, 0.086560f, 0.083754f, 0.144338f, 0.034345f, 0.044189f, 0.070904f, -0.038437f, 0.093382f, 0.025179f,
0.086903f, 0.025344f, 0.015611f, -0.106892f, 0.026450f, 0.047007f, 0.027716f, 0.177131f, 0.169581f, -0.002324f, -0.133483f, -0.114628f, -0.166390f, -0.101222f, 0.019197f,
-0.086556f, -0.019310f, -0.067497f, -0.299116f, 0.041471f, -0.028519f, -0.175067f, 0.001699f, -0.087040f, -0.085949f, -0.002369f, 0.123937f, -0.119928f, -0.005269f, -0.142236f,
0.073572f, -0.008053f, -0.304852f, -0.010096f, 0.003869f, 0.004510f, 0.005576f, -0.105530f, -0.147974f, 0.033270f, 0.073370f, -0.113204f, 0.054632f, 0.085003f, 0.044715f,
0.173476f, 0.074169f, 0.202393f, -0.026578f, -0.067314f, -0.030833f, 0.057807f, 0.001797f, 0.099295f, -0.032918f, -0.143952f, -0.070650f, -0.022247f, 0.074801f, -0.006171f,
-0.139277f, -0.036314f, -0.162207f, -0.017414f, 0.011111f, 0.098398f, -0.061504f, -0.138912f, -0.111244f, 0.083178f, -0.081963f, 0.078960f, 0.089003f, 0.096387f, 0.139290f,
-0.008879f, 0.043544f, 0.040839f, -0.105273f, -0.112070f, 0.010366f, -0.028335f, 0.041914f, 0.071303f, 0.080717f, 0.152587f, 0.092191f, 0.064224f, 0.003777f, 0.208922f,
-0.062322f, 0.041687f, 0.069909f, -0.029731f, -0.060550f, 0.061608f, 0.065504f, -0.033190f, 0.053678f, -0.062508f, 0.021028f, -0.032235f, -0.047287f, -0.100917f, -0.129657f,
-0.054234f, -0.080196f, -0.063843f, -0.046755f, 0.019387f, -0.003747f, 0.063556f, -0.006020f, -0.069381f, -0.042591f, -0.100473f, -0.008881f, -0.046880f, -0.076994f, -0.021055f,
-0.001932f, -0.038340f, -0.003589f, 0.054979f, -0.117325f, -0.057246f, -0.044452f, -0.003710f, -0.006250f, -0.042209f, 0.073346f, -0.026253f, 0.019004f, -0.050578f, 0.016562f,
0.015325f, 0.035841f, -0.024789f, 0.060545f, 0.006208f, -0.003374f, 0.052695f, -0.001408f, 0.037219f, 0.106776f, 0.124559f, 0.048398f, -0.122518f, -0.036984f, 0.042559f,
-0.018749f, -0.029592f, 0.072761f, 0.050352f, -0.081852f, 0.106532f, 0.100771f, 0.036340f, 0.135353f, 0.070067f, 0.031942f, 0.081890f, -0.180859f, -0.049197f, 0.025173f,
-0.115840f, -0.018421f, -0.009349f, -0.086768f, 0.062843f, -0.019134f, 0.042905f, 0.108430f, 0.050099f, 0.038069f, 0.078358f, 0.177670f, -0.143295f, -0.075844f, -0.017250f,
-0.054931f, -0.031504f, -0.139119f, -0.085375f, -0.036530f, -0.109525f, 0.065590f, 0.109538f, 0.063768f, -0.255277f, -0.008627f, -0.110762f, -0.059000f, 0.022903f, -0.071122f,
-0.066465f, -0.101031f, -0.069040f, -0.043992f, -0.037598f, -0.012360f, -0.039457f, -0.005859f, 0.068002f, 0.077395f, 0.092176f, 0.103194f, 0.103007f, 0.054229f, 0.131527f,
0.113246f, -0.025865f, 0.032406f, 0.020523f, -0.060944f, 0.098905f, 0.115543f, 0.121015f, -0.060493f, -0.064795f, -0.019052f, 0.019350f, 0.185787f, 0.085313f, 0.043688f,
-0.098131f, -0.107039f, -0.097453f, 0.066411f, 0.018183f, -0.026601f, -0.069514f, 0.024166f, -0.074707f, -0.176339f, 0.026534f, 0.028238f, -0.084642f, -0.022925f, -0.023882f,
-0.012887f, -0.045931f, 0.069822f, 0.044938f, -0.100913f, 0.016322f, 0.042342f, -0.021320f, -0.027776f, -0.083657f, -0.178499f, -0.046919f, -0.000638f, -0.009735f, 0.014858f,
-0.066609f, 0.064677f, -0.124359f, -0.071974f, -0.065617f, -0.138493f, 0.052730f, 0.051930f, 0.178853f, -0.061932f, -0.101782f, -0.071835f, -0.079302f, -0.010427f, 0.005937f,
-0.042035f, -0.089614f, -0.017997f, -0.121129f, -0.023622f, -0.022421f, -0.016129f, -0.041926f, 0.062657f, 0.014144f, -0.044837f, 0.105808f, -0.043027f, -0.020598f, -0.160864f,
-0.012049f, -0.004677f, -0.141356f, 0.093541f, 0.023439f, 0.139685f, 0.066760f, 0.084650f, 0.000438f, -0.239589f, -0.009233f, -0.130348f, -0.028236f, 0.026404f, 0.039115f,
-0.047100f, 0.045306f, 0.020989f, 0.044190f, 0.109185f, 0.062405f, 0.043321f, 0.100570f, 0.021562f, -0.070776f, 0.021201f, 0.038680f, 0.065701f, 0.174191f, 0.080118f,
0.073053f, 0.050191f, -0.072840f, -0.122544f, -0.082297f, -0.109615f, -0.045961f, 0.084760f, -0.068982f, -0.107394f, 0.012562f, -0.006778f, -0.038499f, -0.071684f, -0.081809f,
-0.036736f, -0.174412f, 0.123323f, -0.175644f, -0.138937f, -0.108612f, -0.037559f, -0.001696f, -0.014068f, 0.055056f, -0.117950f, -0.083688f, 0.120427f, 0.114709f, 0.090742f,
-0.014240f, 0.007515f, 0.027471f, 0.109194f, -0.018449f, -0.039069f, 0.105883f, 0.070736f, 0.057928f, -0.038418f, -0.106986f, -0.010375f, 0.176481f, 0.013044f, -0.082650f,
0.057073f, -0.017389f, 0.066312f, -0.086173f, 0.003463f, 0.063664f, -0.123296f, -0.037390f, 0.053083f, 0.003517f, 0.027590f, 0.070032f, 0.108892f, 0.074772f, 0.079437f,
0.170357f, 0.058480f, 0.070656f, -0.131249f, 0.074569f, -0.020921f, 0.038375f, -0.053787f, -0.027306f, 0.025636f, -0.061737f, -0.128090f, -0.112377f, 0.046043f, -0.125995f,
-0.024153f, 0.009709f, 0.017485f, -0.009907f, -0.021706f, -0.011176f, 0.089605f, -0.117927f, -0.002984f, -0.111211f, -0.059189f, -0.035167f, 0.139181f, -0.013131f, -0.091289f,
-0.084808f, 0.009968f, -0.118772f, -0.091458f, 0.018206f, 0.173143f, -0.164979f, -0.029229f, -0.063938f, -0.102900f, 0.032313f, -0.029775f, 0.058076f, 0.056254f, -0.064021f,
0.088565f, 0.041710f, 0.094383f, 0.132413f, 0.001348f, -0.123032f, -0.071724f, -0.130781f, -0.042115f, -0.082414f, 0.002054f, -0.014762f, 0.022673f, 0.083396f, 0.045686f,
-0.135296f, -0.166374f, 0.114177f, 0.062583f, -0.082978f, -0.011423f, -0.090231f, 0.191815f, 0.050398f, -0.141978f, 0.013519f, -0.037043f, -0.012701f, -0.027341f, 0.073120f,
-0.042953f, 0.095923f, 0.005691f, -0.056033f, -0.018424f, -0.072561f, 0.044813f, -0.012152f, -0.029939f, -0.056318f, 0.114196f, 0.039537f, -0.012529f, -0.108336f, 0.078566f,
0.156130f, 0.082850f, 0.028631f, 0.116694f, 0.169792f, 0.040726f, 0.001562f, 0.087595f, 0.061193f, -0.012734f, -0.071364f, 0.010191f, -0.072650f, -0.015386f, -0.070166f,
0.068703f, -0.038374f, -0.017092f, 0.097779f, 0.109239f, -0.000657f, -0.007209f, 0.085290f, -0.016562f, 0.019216f, 0.114339f, 0.089339f, 0.134063f, 0.059115f, -0.020144f,
0.157649f, 0.062692f, 0.160543f, 0.009157f, 0.087111f, 0.087822f, -0.010121f, 0.016822f, -0.124093f, 0.009777f, -0.036700f, -0.077319f, 0.008148f, -0.083450f, -0.093666f,
-0.116790f, -0.090027f, -0.006186f, -0.043735f, -0.120850f, -0.105709f, -0.013904f, 0.072871f, -0.157608f, -0.009919f, 0.102938f, -0.124115f, 0.047086f, 0.103668f, 0.046484f,
-0.088869f, -0.036861f, -0.103646f, 0.036879f, -0.017072f, 0.023616f, 0.007443f, 0.072460f, 0.027378f, 0.039896f, 0.068933f, 0.057857f, -0.007182f, 0.010254f, -0.070325f,
-0.000485f, 0.077198f, 0.158528f, -0.099645f, -0.011173f, 0.026170f, -0.078992f, -0.045417f, 0.101215f, -0.027139f, -0.081815f, 0.105654f, -0.045473f, -0.074947f, -0.004013f,
0.020033f, 0.144303f, -0.000456f, -0.141791f, -0.062559f, 0.003565f, -0.112628f, -0.074091f, -0.021199f, -0.051744f, -0.064230f, -0.078080f, 0.039584f, -0.032993f, 0.039117f,
0.017570f, -0.128311f, -0.065987f, 0.052073f, -0.207621f, 0.010713f, -0.129395f, -0.078603f, -0.082859f, -0.085116f, 0.007026f, -0.075411f, -0.053460f, -0.030505f, 0.051940f,
0.044204f, -0.021039f, -0.046620f, -0.022504f, -0.049901f, 0.002954f, 0.058415f, -0.102159f, -0.015821f, 0.152005f, 0.021379f, 0.197690f, -0.015049f, 0.007466f, 0.040014f,
-0.038249f, 0.052424f, 0.044285f, 0.071024f, -0.046696f, -0.046139f, -0.021827f, -0.124240f, -0.361336f, -0.023973f, -0.038860f, -0.111033f, -0.076154f, -0.023293f, 0.069295f,
0.036209f, 0.015756f, 0.001768f, 0.187758f, 0.061202f, -0.014773f, 0.000331f, 0.030547f, -0.094856f, 0.048946f, -0.066291f, 0.018812f, 0.076063f, 0.082575f, 0.009647f,
0.135276f, 0.096656f, 0.007729f, 0.055300f, -0.139016f, 0.069575f, 0.174190f, -0.085213f, 0.026695f, 0.136771f, 0.091986f, 0.193609f, 0.011639f, 0.071453f, 0.034139f,
-0.065497f, -0.010703f, -0.027335f, 0.044871f, 0.062633f, 0.144868f, 0.033815f, 0.040511f, -0.012389f, 0.027592f, 0.132306f, -0.000059f, -0.036011f, -0.075520f, -0.171118f,
0.025616f, -0.019435f, -0.211081f, -0.104873f, 0.120624f, -0.132947f, -0.121774f, 0.055959f, 0.066687f, -0.053247f, 0.014906f, -0.091787f, -0.027508f, -0.015192f, 0.108810f,
-0.029955f, -0.191256f, 0.090557f, 0.033037f, -0.088269f, -0.118520f, -0.057058f, -0.034439f, -0.033083f, -0.038325f, -0.004563f, -0.046201f, 0.028456f, 0.022350f, -0.114251f,
0.012891f, 0.052520f, -0.018879f, 0.079533f, 0.052979f, 0.238004f, -0.179972f, -0.092489f, -0.020477f, -0.033368f, -0.024103f, -0.009064f, -0.013856f, -0.159643f, -0.081680f,
-0.082472f, 0.076780f, -0.075090f, -0.044184f, -0.011771f, -0.068721f, 0.025710f, -0.069113f, 0.087371f, 0.020106f, 0.021898f, -0.120177f, 0.029165f, -0.117345f, -0.071766f,
0.105510f, 0.007734f, 0.065568f, 0.089943f, 0.022516f, 0.078391f, -0.204632f, -0.037113f, 0.034751f, -0.113774f, -0.024116f, -0.080678f, 0.075579f, 0.009293f, 0.080971f,
0.095803f, 0.062666f, 0.112449f, -0.034181f, 0.034904f, 0.183028f, -0.046438f, 0.000255f, 0.114842f, 0.061271f, 0.161914f, 0.157006f, -0.003863f, 0.094466f, -0.025779f,
-0.135214f, 0.032613f, -0.180387f, -0.047439f, -0.119464f, -0.019093f, -0.140885f, -0.054368f, -0.063963f, -0.021376f, -0.036475f, -0.100319f, -0.057564f, -0.129625f, -0.014935f,
-0.115043f, -0.175546f, -0.150667f, -0.098015f, 0.057736f, -0.017172f, 0.112497f, -0.116612f, -0.024220f, 0.078155f, 0.087539f, 0.083400f, -0.074801f, 0.027762f, -0.031205f,
0.066367f, 0.066757f, 0.011483f, 0.088055f, 0.155020f, -0.011965f, -0.012622f, -0.074324f, -0.107787f, 0.161439f, -0.052446f, -0.031034f, 0.071176f, 0.089276f, 0.097861f,
-0.109843f, -0.016087f, -0.040218f, -0.079826f, -0.074401f, 0.010320f, 0.042073f, 0.102133f, 0.047993f, 0.095660f, -0.018603f, 0.104601f, 0.088276f, 0.051606f, 0.079350f,
-0.116773f, -0.064488f, -0.019887f, -0.019456f, -0.101105f, 0.039973f, 0.039018f, -0.004583f, -0.068036f, -0.043586f, 0.003590f, 0.037841f, 0.027804f, -0.036857f, 0.076552f,
-0.017501f, 0.022644f, -0.186105f, -0.040014f, -0.052561f, -0.039141f, -0.090818f, 0.020504f, -0.102411f, 0.090418f, -0.063110f, 0.084030f, -0.127736f, 0.021145f, -0.123323f,
-0.050217f, -0.039433f, 0.008021f, -0.197443f, -0.039562f, -0.016282f, 0.015211f, 0.006646f, 0.001557f, -0.055313f, 0.047787f, -0.070901f, 0.100089f, 0.073513f, 0.077708f,
-0.016965f, 0.014252f, -0.111016f, -0.089110f, -0.049421f, -0.037959f, -0.049644f, -0.087002f, 0.090422f, 0.128963f, 0.015807f, 0.095160f, -0.016833f, -0.015400f, -0.001558f,
0.046484f, -0.115726f, -0.052390f, 0.147878f, 0.050989f, -0.032856f, 0.009989f, 0.074467f, -0.019898f, 0.022096f, 0.154187f, -0.068200f, -0.091431f, 0.035761f, -0.031488f,
-0.134274f, 0.028056f, -0.003085f, -0.028436f, 0.104898f, -0.126572f, 0.028445f, -0.019450f, 0.127005f, 0.047496f, -0.103241f, 0.082350f, 0.137587f, -0.069898f, 0.073719f,
0.081332f, 0.053322f, 0.147627f, -0.032309f, 0.018614f, 0.040216f, 0.041102f, -0.021056f, 0.075248f, -0.107843f, -0.144990f, -0.089582f, -0.088715f, -0.051932f, 0.067593f,
0.126997f, 0.011636f, -0.001526f, 0.063484f, 0.014453f, 0.062652f, 0.117924f, 0.124022f, 0.141646f, 0.166717f, -0.046769f, -0.027253f, 0.191690f, 0.179893f, 0.232729f,
-0.047947f, 0.092520f, 0.012487f, 0.049264f, -0.154440f, -0.071622f, -0.080544f, -0.070070f, -0.104525f, -0.185087f, -0.076534f, -0.156690f, -0.105981f, -0.075448f, -0.012650f,
-0.080541f, -0.021630f, 0.011397f, -0.008572f, -0.046087f, -0.023809f, 0.058075f, -0.004645f, -0.042558f, -0.104086f, 0.121454f, 0.147082f, -0.141718f, -0.038573f, 0.033681f,
0.062779f, 0.061145f, 0.121689f, 0.022901f, 0.044349f, 0.044389f, 0.178531f, -0.013872f, -0.011518f, -0.043017f, -0.038380f, -0.116439f, 0.106973f, 0.082516f, 0.027241f,
0.086511f, 0.034371f, 0.065851f, 0.005334f, -0.004980f, -0.069161f, -0.015011f, -0.005742f, 0.001086f, 0.032113f, -0.047157f, 0.102205f, 0.085734f, 0.050245f, 0.095387f,
-0.034693f, 0.030420f, -0.058713f, -0.053107f, -0.065772f, -0.103462f, -0.025558f, -0.022186f, -0.014728f, -0.050496f, 0.030403f, 0.015895f, -0.110750f, 0.080944f, -0.088267f,
-0.029217f, -0.108399f, -0.127515f, -0.039209f, -0.217546f, -0.045718f, -0.001118f, -0.008957f, -0.079427f, -0.038919f, 0.015424f, -0.064156f, -0.000902f, -0.012905f, 0.016919f,
-0.002897f, -0.062685f, 0.002051f, -0.130316f, -0.046609f, -0.279087f, 0.017413f, 0.133200f, 0.009863f, -0.000353f, 0.009598f, 0.038431f, -0.019287f, 0.063877f, 0.042372f,
-0.071612f, -0.034668f, 0.031540f, -0.128592f, -0.097003f, -0.171116f, 0.001908f, 0.007708f, 0.044592f, -0.102232f, 0.051468f, 0.045860f, 0.134143f, 0.004519f, 0.015235f,
-0.016719f, 0.049362f, 0.028579f, 0.003209f, 0.039768f, 0.045166f, -0.061527f, -0.078480f, 0.095811f, 0.051415f, -0.085319f, 0.076894f, 0.097822f, 0.120528f, -0.024324f,
0.011830f, -0.074174f, 0.028622f, 0.156274f, -0.027841f, 0.045950f, 0.111185f, 0.056707f, 0.117529f, 0.042771f, -0.078712f, 0.118585f, 0.077702f, 0.083052f, 0.049898f,
0.075519f, 0.067717f, -0.045036f, -0.090529f, -0.078516f, -0.051048f, -0.021686f, 0.027888f, -0.044252f, -0.030443f, -0.120311f, -0.212386f, -0.083831f, -0.086607f, -0.067083f,
-0.011822f, -0.167611f, 0.042658f, -0.183883f, -0.050814f, 0.059389f, -0.078482f, 0.079163f, 0.070354f, -0.137984f, 0.080171f, -0.058796f, 0.002633f, 0.009373f, -0.132667f,
-0.067077f, 0.022100f, -0.082947f, -0.065832f, 0.014482f, -0.233285f, -0.082977f, 0.012004f, 0.067848f, -0.065938f, 0.045102f, -0.008575f, -0.121516f, -0.073017f, -0.086515f,
-0.059369f, 0.030150f, -0.037992f, -0.009340f, 0.055039f, 0.215866f, 0.013435f, -0.044108f, 0.105777f, -0.065373f, -0.004930f, -0.082627f, -0.026308f, -0.053883f, -0.027254f,
-0.029386f, -0.020430f, -0.055502f, -0.047505f, -0.117280f, -0.093478f, -0.070600f, -0.045289f, 0.117701f, -0.028947f, -0.050315f, 0.053277f, -0.123699f, 0.076069f, -0.191700f,
0.177536f, -0.006565f, 0.206473f, 0.096908f, 0.191330f, 0.102984f, -0.087811f, -0.078254f, -0.071359f, 0.082367f, 0.007908f, 0.094104f, 0.027980f, 0.037374f, 0.074062f,
0.045960f, -0.051071f, 0.075111f, 0.037087f, -0.041276f, 0.000838f, 0.145206f, 0.041924f, 0.100896f, -0.075112f, -0.047911f, -0.087383f, -0.017558f, 0.045716f, 0.059428f,
-0.152400f, -0.159138f, -0.118660f, -0.118764f, -0.032978f, 0.039500f, 0.023851f, -0.035299f, -0.037375f, -0.204028f, 0.000688f, -0.093922f, -0.111493f, -0.116616f, 0.059895f,
0.058827f, 0.010204f, -0.000967f, -0.067345f, -0.174323f, -0.188528f, 0.047601f, -0.022985f, 0.051999f, -0.055727f, 0.054833f, 0.062962f, -0.078172f, -0.010415f, -0.099227f,
0.071242f, 0.033042f, -0.121815f, 0.008237f, 0.016601f, 0.060176f, 0.097012f, 0.049146f, 0.035132f, -0.011903f, 0.114933f, 0.007758f, 0.027420f, -0.051968f, 0.047357f,
-0.120853f, 0.038730f, -0.058245f, 0.060223f, -0.099226f, 0.127443f, 0.217091f, 0.155179f, 0.037946f, 0.021603f, -0.046613f, -0.076129f, -0.086762f, -0.082773f, -0.008648f,
-0.193522f, -0.116053f, -0.094559f, 0.110818f, 0.112390f, 0.044680f, -0.191395f, 0.103256f, -0.125143f, -0.053580f, -0.034593f, -0.058675f, 0.095619f, 0.037938f, 0.141551f,
-0.019111f, -0.033735f, -0.106825f, 0.028324f, 0.086291f, -0.009417f, -0.148640f, 0.002576f, -0.136634f, -0.125358f, 0.050287f, -0.129943f, -0.065809f, -0.017626f, -0.119353f,
-0.081873f, 0.123433f, 0.114239f, 0.097325f, -0.006838f, -0.009268f, -0.217773f, -0.172277f, -0.022310f, 0.174539f, 0.129524f, 0.150889f, -0.037454f, -0.063017f, 0.011819f,
-0.066859f, 0.011305f, 0.020736f, -0.158270f, -0.111054f, -0.053495f, -0.028735f, -0.056404f, -0.144863f, 0.051028f, 0.003839f, 0.224257f, -0.064643f, -0.206207f, 0.065807f,
0.073397f, 0.008867f, 0.017099f, 0.031212f, 0.121709f, 0.103153f, 0.017348f, 0.029607f, 0.113660f, -0.174575f, -0.028495f, -0.062144f, 0.002248f, 0.148420f, 0.077515f,
-0.218003f, 0.015721f, -0.192532f, -0.031722f, -0.114554f, 0.034382f, 0.127796f, -0.032846f, 0.154576f, 0.033027f, -0.053586f, 0.107374f, 0.015183f, 0.001650f, 0.096575f,
0.055904f, 0.106841f, 0.019589f, 0.052205f, 0.004755f, 0.048269f, -0.032720f, -0.074301f, -0.020430f, -0.070101f, -0.097153f, -0.062725f, 0.029066f, -0.006212f, -0.018992f,
0.194471f, 0.175409f, -0.013449f, 0.048201f, 0.077106f, 0.081661f, 0.036292f, 0.075027f, 0.092249f, 0.022112f, 0.110460f, 0.087704f, 0.132808f, 0.123339f, -0.007076f,
-0.129831f, -0.101202f, 0.036646f, -0.117371f, -0.141453f, 0.026606f, -0.151684f, -0.068223f, -0.093969f, -0.015115f, -0.162459f, -0.083455f, 0.017330f, -0.013105f, 0.017458f,
-0.141067f, -0.020639f, -0.059195f, -0.071787f, -0.044772f, -0.176747f, -0.136419f, 0.068550f, 0.144140f, -0.020705f, 0.050651f, 0.077588f, 0.035472f, -0.060837f, -0.016955f,
0.058280f, -0.024024f, -0.000403f, 0.014897f, -0.065465f, -0.059437f, 0.063551f, 0.058505f, -0.026957f, 0.004282f, 0.012268f, 0.057489f, 0.054422f, 0.073930f, 0.034367f,
-0.007280f, 0.057574f, -0.065689f, -0.057144f, 0.000759f, 0.004130f, 0.063948f, 0.010302f, -0.007267f, 0.043270f, 0.081134f, 0.130398f, -0.103326f, 0.163852f, 0.108131f,
-0.128384f, -0.052622f, -0.081038f, -0.086342f, -0.059806f, -0.003468f, -0.076564f, -0.069060f, -0.016672f, -0.003643f, 0.016674f, 0.068578f, -0.077783f, 0.024278f, -0.013047f,
0.011117f, -0.135013f, -0.113410f, -0.054787f, -0.116010f, -0.208302f, -0.019324f, 0.209588f, -0.055540f, -0.056396f, -0.068530f, -0.062945f, 0.086245f, -0.041890f, -0.004425f,
-0.003652f, 0.057041f, -0.046769f, -0.011485f, 0.083708f, -0.013577f, 0.095886f, 0.030182f, 0.037388f, -0.026327f, 0.086813f, 0.051475f, 0.041548f, -0.114380f, -0.009173f,
-0.056824f, -0.064889f, -0.018141f, -0.122538f, -0.106452f, -0.091632f, 0.037775f, -0.096186f, -0.000509f, -0.084701f, -0.038678f, 0.160164f, 0.203091f, 0.063142f, -0.052514f,
0.056772f, -0.005316f, -0.049166f, 0.110465f, 0.027743f, 0.022964f, 0.032496f, -0.136007f, 0.053718f, 0.025275f, 0.086714f, -0.012370f, 0.101403f, 0.109820f, 0.020249f,
0.013505f, 0.008601f, -0.050738f, 0.060244f, 0.040036f, 0.121176f, -0.046742f, 0.083252f, 0.047714f, 0.111208f, -0.038236f, 0.024228f, -0.052265f, 0.113267f, -0.026514f,
0.036970f, -0.094574f, -0.121338f, 0.012704f, 0.094516f, -0.031798f, -0.082938f, -0.125099f, -0.241624f, 0.018636f, -0.082763f, -0.043192f, 0.011044f, -0.010174f, -0.107212f,
-0.232956f, -0.129652f, -0.051613f, -0.149720f, 0.090235f, 0.087093f, -0.063025f, -0.040898f, 0.069793f, 0.016017f, 0.002298f, -0.075126f, -0.062679f, 0.040538f, -0.114092f,
-0.057586f, -0.061621f, -0.270548f, -0.051237f, 0.058309f, -0.007900f, -0.061598f, -0.015777f, -0.015885f, -0.070067f, 0.087170f, -0.065888f, -0.122236f, -0.014451f, -0.101400f,
0.005361f, 0.009429f, 0.145327f, 0.001392f, -0.044016f, 0.047246f, -0.010790f, -0.061647f, -0.153112f, -0.007127f, -0.010347f, -0.027227f, 0.014974f, -0.045109f, -0.066685f,
0.097886f, -0.019732f, 0.004908f, 0.007644f, -0.042962f, 0.153427f, -0.054958f, -0.057600f, -0.044633f, -0.130751f, -0.086904f, -0.143091f, 0.128701f, -0.000269f, 0.238396f,
-0.017943f, 0.021889f, 0.051736f, -0.044877f, -0.060320f, 0.010156f, 0.012676f, 0.077418f, -0.073328f, 0.000601f, 0.074260f, -0.012255f, -0.102825f, -0.007832f, 0.065153f,
0.009140f, 0.027819f, 0.062044f, 0.055273f, 0.181077f, 0.183491f, -0.031632f, 0.003081f, -0.045598f, -0.004678f, -0.012018f, -0.125381f, -0.098754f, -0.072357f, -0.100216f,
-0.144476f, -0.140755f, -0.032603f, 0.056067f, 0.023430f, 0.014332f, -0.088721f, -0.117756f, -0.083091f, -0.036179f, -0.144008f, -0.103450f, 0.027180f, 0.031951f, -0.009037f,
0.013614f, -0.107109f, -0.139510f, -0.012153f, 0.044918f, 0.061611f, 0.093631f, 0.019870f, 0.124153f, -0.032248f, -0.016939f, -0.193597f, 0.050622f, 0.052007f, -0.018875f,
-0.016434f, -0.037961f, 0.043295f, 0.109081f, 0.080734f, -0.079543f, 0.047151f, 0.043142f, 0.050565f, -0.062415f, 0.018179f, 0.082869f, -0.095261f, 0.064599f, -0.088586f,
0.020139f, 0.085905f, 0.099919f, 0.180866f, 0.043596f, 0.079728f, 0.050810f, -0.028030f, 0.016187f, -0.174750f, 0.011666f, -0.052651f, -0.142558f, -0.096682f, -0.112269f,
0.063759f, 0.107507f, 0.051314f, -0.024363f, 0.071542f, -0.185804f, -0.058974f, 0.013805f, -0.045340f, 0.090357f, 0.077526f, 0.112383f, -0.004027f, -0.029036f, -0.061162f,
-0.009524f, 0.050343f, -0.015726f, -0.108821f, -0.213848f, -0.174709f, 0.017160f, -0.025456f, -0.040132f, -0.047547f, -0.076700f, -0.036270f, -0.106408f, -0.019453f, 0.029648f,
0.067261f, 0.003290f, 0.007276f, -0.245855f, -0.115845f, -0.153962f, 0.086675f, 0.086083f, 0.154654f, -0.061391f, -0.113029f, 0.096789f, 0.022083f, -0.048902f, -0.017342f,
-0.068285f, -0.042853f, -0.177669f, -0.093130f, 0.119501f, 0.103841f, 0.068213f, 0.000255f, 0.073368f, -0.036667f, -0.200533f, 0.020259f, 0.035454f, 0.095178f, 0.146596f,
-0.102090f, -0.000590f, 0.110811f, -0.035992f, 0.069027f, 0.097212f, -0.160404f, -0.021668f, -0.091593f, -0.058977f, 0.107348f, 0.067537f, -0.046901f, -0.007604f, -0.147518f,
0.042345f, -0.050268f, 0.075955f, 0.094102f, 0.085050f, 0.136355f, -0.045261f, -0.001539f, -0.014377f, 0.104945f, 0.077982f, 0.146183f, 0.010244f, 0.115219f, 0.046987f,
0.018449f, -0.021012f, 0.039188f, -0.067940f, -0.062301f, -0.144838f, -0.024897f, -0.045773f, -0.107619f, 0.002554f, 0.030818f, -0.020113f, 0.093579f, 0.217628f, 0.042293f,
0.007272f, 0.071022f, 0.141385f, 0.046782f, 0.102108f, 0.047120f, -0.000115f, 0.012479f, 0.172393f, 0.002968f, 0.122147f, 0.115019f, -0.020646f, 0.001417f, -0.021900f,
0.006969f, -0.145041f, -0.075527f, -0.088152f, -0.066979f, -0.060337f, 0.003904f, -0.114594f, -0.100536f, 0.026600f, -0.020594f, -0.151360f, -0.120423f, 0.027022f, -0.153461f,
-0.033932f, -0.105533f, 0.049255f, -0.106390f, -0.031262f, -0.022419f, -0.080715f, 0.104173f, 0.109090f, 0.025466f, 0.001024f, -0.062673f, 0.005345f, -0.002844f, 0.038363f,
0.092506f, -0.074171f, 0.000024f, 0.092869f, -0.053890f, 0.005209f, 0.067042f, -0.047819f, 0.155840f, 0.026320f, 0.081286f, 0.102628f, -0.006938f, -0.090476f, -0.035528f,
-0.088638f, 0.012737f, 0.045807f, -0.014199f, -0.132686f, 0.020108f, 0.047424f, 0.035288f, 0.034318f, -0.034243f, 0.010548f, 0.049359f, -0.139260f, -0.046356f, -0.082219f,
-0.014039f, -0.012747f, -0.039496f, -0.043148f, -0.100150f, -0.077475f, -0.017825f, 0.028356f, 0.143316f, -0.069100f, -0.095976f, -0.047177f, -0.078973f, -0.156592f, -0.091823f,
-0.057177f, -0.097211f, -0.110843f, -0.021628f, 0.138274f, 0.055528f, -0.081778f, -0.085370f, -0.045464f, 0.039099f, -0.069146f, -0.109221f, -0.002126f, -0.017500f, -0.076768f,
0.021320f, 0.092243f, 0.046935f, 0.056799f, 0.068538f, 0.074854f, -0.090028f, 0.115169f, 0.107704f, 0.040440f, -0.085377f, -0.147310f, 0.007921f, 0.002457f, -0.040038f,
-0.173577f, -0.242176f, -0.290461f, 0.019530f, -0.039154f, -0.002280f, -0.045229f, 0.028525f, 0.107400f, 0.271429f, -0.010099f, 0.035781f, 0.094282f, -0.059697f, 0.022733f,
0.103320f, 0.067926f, -0.003116f, -0.089731f, 0.032388f, -0.086282f, 0.062355f, 0.088327f, -0.013488f, 0.070337f, 0.016955f, -0.028354f, -0.003668f, 0.046809f, -0.002258f,
0.023137f, -0.013357f, 0.119974f, 0.009216f, -0.043010f, 0.093157f, 0.088041f, 0.049531f, -0.010266f, -0.008223f, 0.012401f, -0.108894f, -0.026069f, -0.083725f, -0.048276f,
0.081505f, 0.044022f, -0.012671f, -0.121012f, -0.213081f, -0.241589f, -0.096445f, -0.111528f, 0.021531f, 0.018920f, -0.036080f, -0.051257f, -0.153736f, -0.120534f, 0.033490f,
0.060132f, 0.073795f, 0.023668f, -0.119658f, 0.010564f, -0.052684f, -0.052801f, -0.136713f, -0.042716f, 0.009887f, -0.059061f, 0.070989f, -0.013287f, -0.031757f, -0.238984f,
-0.042740f, 0.009900f, 0.046315f, -0.079176f, 0.033175f, 0.010185f, 0.055926f, 0.056487f, -0.088530f, -0.123539f, 0.019126f, -0.029921f, 0.029366f, 0.026440f, 0.172790f,
-0.064932f, 0.011181f, 0.175596f, -0.047465f, -0.022980f, -0.131416f, 0.053440f, -0.138910f, -0.081612f, 0.062652f, -0.054747f, -0.045392f, 0.070131f, -0.010940f, 0.077311f,
-0.054674f, 0.043567f, 0.073986f, 0.062261f, 0.032610f, -0.028105f, -0.213663f, -0.022622f, -0.200434f, 0.177204f, -0.019322f, 0.117515f, 0.079406f, 0.089639f, 0.136067f,
-0.055880f, -0.055864f, 0.029000f, 0.076617f, 0.157961f, -0.013078f, -0.117071f, 0.017708f, 0.015079f, 0.053772f, -0.035837f, -0.036289f, 0.065301f, 0.049136f, 0.012025f,
0.001901f, -0.075377f, 0.065283f, -0.111086f, -0.082710f, -0.142317f, -0.001864f, 0.093884f, 0.007423f, -0.079909f, -0.107643f, -0.043991f, -0.075839f, 0.058045f, -0.037440f,
-0.013172f, 0.016597f, 0.019793f, -0.131798f, -0.098332f, -0.088455f, -0.026433f, -0.073875f, -0.045195f, -0.020757f, -0.105022f, -0.136238f, -0.143822f, -0.063005f, -0.085815f,
-0.108997f, 0.026432f, -0.039360f, 0.038434f, 0.058909f, -0.006050f, -0.077980f, -0.094998f, -0.040398f, 0.001678f, 0.003832f, 0.017884f, 0.048440f, 0.016142f, 0.061408f,
0.029446f, -0.050652f, -0.052723f, 0.059446f, -0.030706f, 0.029688f, -0.113309f, -0.012690f, -0.065572f, -0.082276f, 0.000107f, 0.034447f, -0.038746f, -0.022132f, 0.055751f,
0.124845f, 0.045539f, -0.039318f, 0.132760f, -0.051681f, -0.146551f, -0.157634f, 0.016028f, -0.102396f, -0.045018f, -0.097210f, -0.127284f, 0.096154f, 0.169740f, 0.041758f,
0.052497f, 0.228325f, 0.025859f, 0.006736f, 0.098288f, 0.091183f, 0.022891f, -0.127191f, -0.061916f, -0.072410f, -0.050846f, 0.001312f, -0.106090f, 0.104626f, -0.007693f,
-0.080187f, -0.126367f, -0.118646f, -0.044693f, -0.085468f, -0.098082f, -0.100655f, -0.117465f, -0.102097f, -0.149988f, 0.001254f, 0.068476f, 0.124865f, -0.139463f, 0.034285f,
-0.141204f, -0.086072f, 0.025043f, 0.127447f, 0.076340f, 0.011204f, 0.055444f, 0.034698f, 0.097079f, 0.081991f, 0.047596f, 0.088885f, 0.029803f, -0.005940f, 0.023819f,
-0.049852f, 0.125278f, -0.019363f, 0.032747f, -0.046224f, -0.004016f, 0.016959f, 0.013178f, -0.074705f, -0.021773f, -0.146063f, -0.166395f, -0.058394f, -0.155337f, -0.103718f,
-0.050954f, -0.032402f, -0.106248f, -0.194962f, -0.095524f, 0.081038f, -0.006313f, 0.036815f, 0.017313f, -0.143809f, 0.042967f, -0.007687f, -0.011189f, 0.021530f, -0.037541f,
-0.129235f, -0.108078f, -0.095200f, -0.053086f, 0.083136f, -0.128963f, -0.092944f, -0.012795f, -0.067684f, -0.002218f, -0.018275f, -0.102743f, 0.023431f, 0.017550f, -0.005044f,
0.016229f, 0.048534f, -0.042815f, 0.046125f, -0.063871f, 0.091872f, -0.032994f, -0.066971f, 0.047316f, -0.016592f, -0.098294f, -0.021731f, -0.023927f, 0.012858f, -0.118487f,
-0.071673f, 0.010575f, -0.078080f, 0.028346f, -0.021996f, 0.011041f, 0.027234f, -0.011826f, 0.014978f, -0.129293f, -0.099022f, -0.046946f, 0.030468f, -0.004219f, -0.028278f,
0.077733f, 0.043473f, 0.143523f, 0.064306f, 0.096026f, 0.152229f, -0.047344f, -0.063302f, -0.021368f, -0.015038f, 0.045316f, 0.026701f, 0.146586f, 0.051061f, 0.132645f,
0.066658f, -0.022320f, 0.113822f, 0.054681f, 0.031432f, 0.104511f, 0.030054f, 0.068134f, 0.068530f, -0.047071f, -0.060300f, -0.035747f, 0.001901f, -0.055814f, -0.060409f,
-0.167345f, -0.065459f, -0.118702f, -0.157211f, -0.014664f, -0.005750f, -0.004105f, -0.007529f, -0.027745f, -0.186655f, -0.095095f, -0.152119f, -0.081334f, -0.171759f, 0.050907f,
0.065692f, 0.002180f, 0.032391f, -0.079808f, -0.115992f, -0.204149f, -0.072046f, -0.019855f, 0.121020f, 0.071918f, 0.107645f, 0.065023f, -0.012340f, 0.046517f, -0.100546f,
0.088255f, 0.055278f, -0.091998f, -0.004525f, 0.071770f, -0.089889f, 0.097258f, 0.030429f, -0.011952f, -0.099186f, 0.112882f, 0.070153f, -0.009760f, -0.123200f, 0.067735f,
-0.166930f, 0.052628f, -0.040396f, -0.026432f, -0.073277f, 0.225251f, 0.077085f, 0.096440f, 0.116309f, 0.102732f, 0.013847f, 0.018661f, -0.061117f, -0.026221f, -0.025977f,
-0.127478f, -0.103381f, -0.037078f, 0.088441f, 0.044304f, 0.023176f, -0.153774f, 0.033778f, -0.043040f, -0.001688f, -0.094730f, -0.008887f, 0.146101f, 0.103294f, -0.004065f,
-0.036939f, -0.021002f, -0.078359f, -0.088408f, 0.051566f, 0.017164f, -0.043686f, -0.018994f, 0.019375f, -0.039051f, -0.054483f, -0.036708f, -0.211356f, -0.001733f, -0.141079f,
-0.136208f, 0.047149f, 0.006592f, 0.040256f, 0.047168f, -0.053691f, -0.142379f, -0.112996f, 0.014154f, 0.089259f, 0.090094f, 0.137992f, 0.002264f, 0.046801f, 0.073994f,
0.070158f, -0.118630f, -0.129541f, -0.043396f, -0.025874f, -0.189020f, -0.083968f, 0.045910f, -0.076223f, -0.019338f, 0.052252f, 0.055116f, -0.040920f, -0.070657f, 0.002764f,
0.078492f, 0.023686f, 0.034855f, 0.110397f, -0.076753f, 0.030044f, 0.016749f, 0.109169f, 0.064019f, -0.152984f, -0.018629f, 0.017608f, -0.118523f, 0.082131f, 0.087123f,
-0.027033f, -0.014058f, 0.044193f, -0.012087f, 0.067916f, 0.051668f, -0.056000f, -0.022561f, 0.148367f, -0.037567f, 0.028064f, 0.094088f, 0.082759f, 0.101593f, 0.033905f,
-0.004518f, 0.092704f, 0.085127f, -0.080972f, -0.041310f, -0.009339f, -0.010527f, -0.058364f, 0.012882f, -0.048323f, -0.031097f, -0.061118f, 0.038360f, 0.054871f, 0.069467f,
-0.006918f, 0.092392f, 0.154117f, -0.043032f, 0.089253f, 0.006237f, -0.050348f, 0.197709f, 0.043332f, -0.152395f, 0.185951f, 0.022062f, 0.100808f, 0.169237f, 0.196598f,
-0.053314f, 0.082025f, -0.085604f, -0.057617f, -0.092425f, -0.032611f, -0.036780f, -0.091483f, -0.055422f, 0.024500f, -0.177452f, -0.142923f, -0.013624f, 0.019737f, -0.096459f,
-0.081109f, -0.022189f, -0.192466f, -0.010013f, -0.111198f, -0.042712f, 0.050610f, 0.029462f, 0.053808f, -0.144447f, 0.003045f, 0.138853f, -0.119472f, -0.126252f, 0.037655f,
0.011318f, -0.093909f, -0.039296f, 0.056594f, 0.031184f, 0.020201f, 0.093840f, 0.060775f, 0.008655f, 0.033982f, 0.176576f, 0.079606f, 0.093122f, 0.094690f, 0.056489f,
-0.131478f, 0.103236f, 0.007190f, 0.048316f, 0.049358f, 0.087295f, -0.131711f, -0.082501f, -0.046385f, 0.045154f, 0.010620f, -0.010883f, -0.060288f, -0.028652f, 0.034480f,
-0.114646f, -0.126045f, -0.055334f, 0.048388f, -0.046670f, -0.018271f, 0.061331f, -0.022998f, -0.023779f, 0.024804f, -0.012927f, 0.020251f, -0.069755f, -0.029134f, -0.068413f,
-0.177488f, 0.040575f, -0.033545f, -0.104555f, -0.166291f, -0.166492f, -0.091845f, -0.023703f, 0.114379f, -0.015753f, -0.087949f, -0.025181f, -0.038353f, -0.005512f, -0.049789f,
0.009283f, -0.025724f, -0.001345f, 0.014284f, 0.135737f, 0.065051f, 0.034739f, 0.069380f, 0.108966f, -0.080132f, 0.129844f, -0.013330f, -0.040536f, -0.092682f, -0.031669f,
0.056252f, -0.060365f, 0.007976f, -0.027553f, -0.202365f, -0.282173f, 0.015769f, -0.148295f, 0.014709f, 0.039517f, -0.008555f, -0.006060f, 0.167601f, 0.056189f, 0.033920f,
0.011230f, 0.049125f, -0.015911f, 0.072375f, 0.019470f, 0.105620f, -0.024462f, -0.021355f, -0.020614f, 0.089415f, 0.019507f, -0.115808f, 0.114646f, 0.104683f, -0.019540f,
-0.029364f, 0.057065f, -0.046455f, 0.148689f, 0.148446f, 0.117156f, 0.064533f, 0.093728f, 0.032753f, -0.012138f, -0.019646f, -0.019832f, 0.133669f, 0.117598f, 0.086802f,
-0.052265f, -0.064632f, 0.025077f, 0.011718f, 0.222037f, 0.014708f, -0.046791f, -0.042036f, -0.104193f, -0.060674f, -0.023803f, -0.040908f, -0.020943f, 0.043780f, -0.133222f,
-0.201096f, 0.092610f, 0.031103f, -0.094094f, 0.029355f, -0.029956f, -0.030992f, -0.041088f, 0.021312f, -0.060938f, -0.003725f, -0.027755f, -0.077510f, 0.070523f, -0.120905f,
-0.072431f, -0.046151f, -0.047923f, -0.099438f, 0.004007f, -0.003652f, 0.046777f, 0.110967f, -0.150258f, 0.003237f, -0.035023f, -0.016332f, 0.092408f, 0.070541f, 0.214934f,
-0.091556f, -0.073239f, -0.069285f, 0.003481f, -0.008956f, 0.019608f, -0.072792f, -0.130919f, -0.031897f, -0.080781f, 0.095456f, -0.175129f, -0.007104f, -0.085488f, -0.057989f,
-0.057379f, -0.074117f, 0.147111f, 0.064412f, -0.020818f, -0.100554f, -0.110548f, -0.161032f, -0.033100f, 0.148377f, 0.056604f, 0.106020f, 0.047816f, 0.082576f, -0.010324f,
-0.166631f, -0.041835f, 0.040502f, -0.016366f, -0.088300f, -0.019390f, 0.021657f, 0.012958f, 0.101871f, 0.143577f, 0.006905f, 0.035957f, 0.022931f, 0.036125f, 0.165677f,
-0.059424f, -0.049947f, 0.084368f, 0.151377f, 0.056707f, 0.119841f, -0.048170f, 0.024762f, -0.100489f, 0.022203f, 0.000315f, -0.086714f, -0.101040f, -0.074531f, -0.121334f,
-0.144992f, -0.074851f, -0.016384f, 0.016420f, -0.032982f, -0.047143f, -0.050253f, -0.091425f, 0.019181f, -0.113508f, -0.120640f, -0.035130f, -0.049703f, 0.042790f, 0.042279f,
0.038811f, -0.083604f, -0.075463f, 0.081826f, 0.034021f, 0.090309f, -0.072993f, 0.019023f, -0.122391f, 0.117814f, 0.097682f, 0.065210f, 0.062102f, 0.116855f, -0.005329f,
0.038881f, 0.028809f, -0.118379f, 0.183945f, 0.044016f, -0.028678f, 0.001789f, 0.086087f, 0.103949f, -0.087989f, 0.006215f, -0.075535f, -0.044910f, -0.053307f, 0.061005f,
0.016450f, 0.074069f, 0.150520f, 0.127010f, 0.048412f, 0.129974f, 0.044183f, 0.034000f, 0.122834f, -0.070434f, -0.071850f, -0.052379f, -0.092071f, -0.151634f, 0.025291f,
-0.030551f, 0.065599f, -0.080397f, -0.018745f, 0.000825f, 0.032144f, 0.094381f, 0.017100f, 0.004183f, -0.035874f, -0.036107f, -0.206128f, -0.032488f, -0.010865f, -0.052579f,
-0.096970f, -0.085316f, -0.059585f, 0.007716f, 0.033109f, 0.110054f, -0.152244f, -0.040933f, -0.049257f, -0.009004f, -0.107345f, 0.026434f, -0.185296f, -0.058704f, -0.116119f,
-0.098888f, 0.007681f, 0.013329f, -0.057731f, 0.006264f, -0.017455f, 0.134841f, 0.116012f, 0.106422f, -0.098658f, -0.074274f, 0.073336f, 0.010754f, -0.018640f, -0.075148f,
-0.091500f, -0.159402f, -0.100170f, -0.021542f, 0.083656f, -0.019039f, 0.002493f, 0.049874f, 0.060541f, -0.069398f, -0.156140f, 0.061246f, 0.033800f, 0.067433f, 0.092093f,
0.056313f, 0.105113f, 0.179784f, 0.032429f, 0.077925f, 0.024191f, -0.183764f, 0.004441f, -0.100943f, -0.012410f, 0.150336f, 0.038181f, -0.090615f, 0.022403f, -0.079137f,
-0.030100f, -0.034506f, 0.070934f, 0.140414f, 0.011189f, 0.177781f, 0.005730f, -0.002422f, 0.103837f, 0.028042f, 0.037961f, 0.101813f, 0.056091f, 0.128383f, 0.107176f,
0.030866f, -0.068881f, 0.118417f, -0.037047f, -0.138959f, -0.071626f, -0.004799f, -0.034440f, -0.051868f, -0.040718f, -0.030969f, -0.035886f, 0.172845f, 0.164083f, -0.001806f,
0.074438f, 0.102333f, 0.084934f, 0.080192f, 0.068255f, 0.103582f, 0.068909f, 0.074595f, 0.042277f, 0.020634f, 0.137916f, 0.071207f, -0.174456f, 0.005745f, 0.009653f,
-0.141007f, -0.046805f, 0.023663f, -0.125405f, -0.182196f, 0.012498f, -0.013040f, -0.114243f, -0.098813f, 0.028481f, -0.035911f, -0.049853f, -0.092378f, -0.093368f, -0.125875f,
-0.071912f, -0.140274f, -0.023730f, -0.067441f, 0.010327f, -0.065232f, -0.010627f, -0.061880f, 0.138497f, 0.047404f, 0.020457f, 0.099598f, 0.116907f, 0.046398f, -0.002480f,
0.107925f, -0.015997f, -0.101925f, 0.067497f, -0.041523f, -0.068521f, 0.067311f, 0.110432f, 0.003013f, 0.093964f, 0.051788f, 0.044988f, 0.092544f, -0.064096f, -0.062282f,
-0.039351f, -0.009356f, 0.065699f, -0.007170f, 0.052591f, -0.021555f, 0.020532f, 0.085291f, -0.008839f, -0.003594f, -0.016684f, 0.069433f, -0.052903f, -0.135833f, -0.128404f,
-0.063262f, -0.025547f, -0.024944f, -0.079596f, -0.125043f, -0.106034f, -0.060714f, 0.017878f, 0.134026f, -0.104680f, -0.085111f, 0.068340f, -0.067873f, -0.101293f, -0.091185f,
-0.125561f, -0.013742f, -0.114608f, -0.057250f, 0.187944f, 0.020736f, -0.141343f, 0.009900f, -0.013548f, -0.010973f, -0.069244f, -0.098111f, -0.022589f, 0.019159f, -0.028570f,
0.012662f, 0.101991f, 0.066186f, 0.013100f, -0.015493f, 0.008473f, -0.076155f, 0.068304f, 0.038166f, 0.062188f, -0.113674f, -0.105538f, -0.022188f, -0.169519f, -0.007837f,
-0.168960f, -0.124075f, -0.250843f, 0.109298f, -0.067904f, 0.044870f, -0.028532f, -0.089899f, 0.194689f, 0.110125f, 0.060959f, 0.054916f, 0.062302f, -0.048086f, -0.015125f,
0.048663f, 0.019224f, 0.043507f, 0.077947f, -0.039672f, -0.042772f, 0.037750f, 0.046643f, -0.104567f, -0.004755f, 0.083346f, -0.004949f, -0.071254f, 0.071325f, -0.152748f,
0.048653f, -0.132753f, 0.003959f, -0.102340f, 0.012444f, 0.003326f, -0.078362f, -0.016371f, 0.011606f, 0.130711f, 0.061100f, 0.091890f, 0.002292f, 0.018057f, 0.105804f,
-0.037629f, -0.132024f, -0.038804f, 0.057699f, -0.022261f, 0.130396f, 0.032804f, 0.034510f, 0.046766f, -0.046113f, 0.052515f, 0.077137f, -0.056725f, -0.020818f, -0.056556f,
-0.093344f, -0.071761f, 0.074915f, -0.036922f, -0.014835f, -0.138301f, -0.061993f, 0.088340f, 0.051461f, 0.007471f, -0.024785f, 0.026552f, 0.127042f, 0.015731f, 0.000196f,
0.079843f, 0.085751f, 0.112295f, 0.039645f, -0.060124f, -0.011394f, 0.140074f, -0.042484f, 0.083711f, -0.120580f, -0.120317f, -0.174306f, 0.023674f, -0.035586f, -0.038965f,
0.009319f, 0.013243f, 0.052175f, 0.079332f, 0.067107f, 0.041848f, 0.030934f, 0.157362f, 0.061486f, 0.011699f, 0.050535f, -0.130211f, 0.240329f, 0.043721f, 0.277937f,
-0.033894f, 0.086598f, 0.001163f, -0.097562f, -0.103158f, 0.034269f, 0.042052f, -0.052625f, -0.132945f, -0.141384f, -0.080517f, -0.065469f, -0.066891f, -0.105598f, -0.050454f,
-0.039646f, -0.071891f, -0.167764f, -0.052190f, 0.013785f, -0.083304f, -0.045751f, 0.006827f, -0.041769f, -0.021238f, 0.246600f, 0.152977f, -0.032093f, -0.074627f, -0.173009f,
0.184930f, 0.106906f, 0.013593f, -0.007245f, -0.056616f, -0.004375f, 0.052147f, 0.031603f, 0.002292f, -0.070165f, -0.181744f, -0.079078f, 0.171128f, -0.022885f, 0.112328f,
-0.024996f, 0.013706f, -0.124397f, 0.093532f, -0.097007f, -0.017914f, -0.001863f, -0.002868f, 0.092717f, -0.017523f, 0.007018f, -0.008320f, 0.135995f, 0.058778f, 0.138482f,
-0.089168f, 0.000559f, -0.038501f, -0.035647f, -0.052920f, -0.048375f, -0.090706f, -0.005223f, -0.062476f, -0.045428f, -0.110613f, 0.087544f, -0.017368f, -0.028953f, 0.047764f,
-0.049065f, -0.163325f, -0.015681f, -0.108471f, -0.131802f, -0.063202f, -0.071855f, -0.008835f, -0.005565f, -0.003646f, -0.047778f, 0.000380f, 0.004624f, 0.012999f, 0.010215f,
0.000916f, 0.018521f, 0.088458f, -0.099778f, -0.069683f, -0.259777f, 0.140406f, 0.120498f, 0.079119f, 0.055122f, 0.038702f, 0.048966f, 0.063755f, 0.002403f, 0.084439f,
-0.013454f, -0.049431f, 0.041685f, -0.057221f, -0.124444f, -0.163651f, -0.071096f, 0.004218f, 0.008808f, -0.049229f, -0.002897f, 0.011078f, 0.050047f, 0.055292f, 0.065192f,
0.034555f, 0.005357f, 0.094264f, 0.023392f, -0.028325f, 0.077604f, -0.078822f, 0.041330f, 0.049130f, 0.197838f, -0.006011f, 0.024162f, 0.144075f, 0.093188f, -0.087907f,
-0.120657f, -0.002138f, 0.019073f, 0.097861f, 0.046858f, 0.024117f, 0.178175f, 0.094388f, 0.163300f, 0.020983f, 0.064371f, 0.080770f, -0.025328f, 0.012955f, -0.029005f,
0.078573f, 0.010319f, 0.057952f, -0.045102f, 0.051356f, 0.034552f, 0.092630f, 0.212765f, -0.011385f, -0.037580f, -0.068306f, -0.141334f, -0.027535f, -0.011695f, -0.104227f,
-0.041430f, 0.089203f, -0.107443f, -0.174346f, 0.076037f, 0.100672f, -0.174206f, 0.070148f, -0.086791f, 0.003442f, -0.056755f, 0.087994f, -0.032493f, -0.048740f, -0.045691f,
0.017092f, -0.033356f, -0.064147f, -0.092376f, -0.049033f, -0.043990f, -0.090292f, 0.004942f, 0.031230f, 0.073297f, 0.111775f, -0.104551f, 0.019569f, -0.091777f, -0.122932f,
0.152332f, 0.070231f, 0.228645f, -0.160016f, -0.064091f, -0.005806f, 0.052338f, -0.030839f, -0.020097f, -0.078592f, -0.134359f, -0.073026f, -0.109051f, 0.109710f, -0.149821f,
-0.040129f, -0.023946f, -0.008506f, -0.103526f, -0.055855f, 0.105104f, -0.130281f, -0.043102f, -0.112270f, 0.034925f, -0.103047f, 0.001583f, 0.170586f, 0.067055f, 0.109236f,
0.039152f, -0.006838f, -0.057885f, -0.183810f, -0.002774f, 0.169710f, -0.000897f, 0.094118f, -0.037768f, 0.069978f, -0.040792f, 0.128841f, 0.044662f, 0.056524f, 0.111476f,
-0.061423f, 0.039601f, 0.119829f, -0.052065f, -0.008939f, 0.067321f, 0.059445f, 0.109847f, 0.099287f, 0.023188f, -0.011880f, -0.120275f, -0.031935f, 0.003461f, -0.012949f,
-0.045030f, -0.104353f, -0.076227f, -0.081350f, -0.084491f, 0.015178f, 0.010894f, 0.013152f, -0.114207f, -0.028874f, -0.159607f, 0.074429f, -0.116916f, -0.152012f, -0.049917f,
-0.013670f, 0.045202f, 0.066997f, 0.085882f, -0.105189f, -0.041799f, 0.021533f, 0.089345f, 0.100619f, -0.021843f, -0.048058f, -0.088840f, 0.105031f, 0.099712f, -0.002749f,
0.044418f, 0.150168f, 0.012302f, 0.029128f, -0.079732f, -0.036125f, 0.110756f, 0.008385f, -0.015693f, 0.081498f, 0.133752f, 0.051122f, -0.105645f, -0.029060f, -0.039342f,
-0.119200f, -0.003373f, -0.006435f, 0.062682f, -0.004815f, 0.110678f, 0.125201f, 0.039472f, 0.140764f, 0.032201f, 0.016139f, 0.083017f, -0.160167f, -0.020825f, -0.076050f,
-0.099998f, -0.133302f, 0.046634f, 0.033465f, 0.017460f, -0.053919f, -0.106606f, 0.014618f, 0.041025f, 0.127204f, -0.019450f, 0.051888f, -0.099280f, -0.112295f, -0.217676f,
-0.080224f, -0.049631f, -0.059723f, -0.116840f, -0.038093f, -0.021756f, 0.172550f, -0.023436f, 0.089356f, -0.171936f, 0.042247f, -0.111708f, -0.052321f, -0.039830f, 0.051748f,
-0.206507f, -0.044448f, -0.056047f, -0.048830f, 0.023326f, 0.020064f, -0.013153f, 0.004366f, -0.014942f, 0.113352f, 0.150507f, 0.088378f, 0.000351f, 0.077175f, 0.047471f,
0.032471f, 0.053177f, 0.167064f, 0.167012f, 0.058401f, 0.119837f, 0.018273f, 0.093338f, -0.049965f, 0.032281f, -0.067382f, -0.048075f, -0.002387f, 0.048635f, 0.007443f,
-0.017534f, -0.113700f, -0.133006f, -0.078965f, -0.046278f, -0.005273f, -0.026256f, -0.105038f, -0.119681f, -0.298444f, -0.132534f, -0.002078f, 0.047984f, 0.110511f, 0.100332f,
-0.146703f, -0.044382f, 0.071833f, 0.004913f, 0.051935f, -0.160891f, -0.012050f, -0.015499f, 0.085876f, -0.016603f, 0.055822f, -0.151743f, -0.009616f, 0.048715f, -0.002233f,
-0.030972f, -0.028341f, 0.084472f, -0.089893f, 0.019473f, -0.141717f, -0.088055f, -0.029649f, -0.119528f, -0.012547f, 0.033545f, 0.168580f, -0.071665f, -0.036815f, 0.058727f,
-0.036692f, -0.020724f, -0.071153f, -0.046654f, -0.102868f, -0.030359f, 0.053958f, -0.058735f, -0.128617f, 0.093177f, 0.040187f, 0.006761f, -0.039238f, -0.020599f, 0.101703f,
-0.051170f, 0.026127f, -0.039712f, -0.065477f, -0.025895f, -0.038973f, 0.141726f, 0.077236f, 0.137830f, 0.096788f, 0.099794f, 0.125657f, -0.016088f, 0.042659f, -0.048126f,
0.006027f, 0.025818f, -0.029181f, -0.023445f, 0.052417f, 0.092895f, -0.012174f, -0.074208f, 0.036422f, -0.076565f, 0.096092f, 0.103524f, 0.028119f, -0.031594f, 0.155173f,
-0.106282f, 0.016199f, -0.122363f, -0.035245f, -0.011352f, -0.001595f, -0.065187f, -0.143391f, -0.117021f, -0.218891f, -0.002883f, -0.092100f, 0.027675f, -0.018205f, -0.011785f,
0.013770f, -0.044720f, -0.152183f, -0.090333f, -0.145924f, -0.050241f, 0.080134f, -0.072740f, -0.075950f, -0.072095f, -0.116619f, -0.170506f, -0.066639f, 0.014575f, 0.094046f,
0.037256f, 0.044527f, 0.027925f, -0.033407f, -0.104530f, -0.144563f, 0.098069f, -0.004252f, 0.055942f, 0.030899f, 0.001850f, 0.016410f, 0.122414f, 0.026628f, -0.074959f,
0.020248f, 0.095422f, 0.053624f, -0.057209f, -0.035172f, 0.028400f, -0.073073f, 0.017761f, -0.001051f, 0.062662f, -0.024049f, 0.120838f, 0.122544f, 0.116613f, 0.150439f,
0.155340f, -0.003171f, 0.062195f, -0.042578f, -0.047191f, 0.005997f, -0.151844f, -0.063593f, -0.155028f, 0.054337f, 0.073947f, 0.099779f, 0.006327f, 0.043569f, -0.043501f,
0.004942f, -0.154444f, 0.025720f, -0.041392f, -0.104468f, 0.005702f, -0.050945f, -0.052780f, -0.097059f, -0.013960f, 0.061488f, -0.030502f, -0.088722f, -0.111578f, -0.035853f,
-0.157745f, 0.084574f, -0.050066f, -0.063806f, -0.003925f, -0.061127f, -0.197907f, -0.170738f, -0.022202f, -0.015933f, -0.021912f, -0.045951f, -0.214166f, -0.149443f, -0.009519f,
0.088199f, 0.166521f, 0.130410f, -0.014606f, -0.017502f, 0.037923f, 0.121149f, 0.015361f, 0.140045f, 0.061827f, -0.043370f, 0.004044f, -0.041420f, 0.041041f, -0.104419f,
0.064866f, -0.011400f, 0.035710f, 0.038813f, 0.066070f, -0.105466f, -0.158177f, -0.157796f, -0.186677f, 0.103231f, 0.049940f, -0.066947f, -0.100935f, 0.062554f, -0.135583f,
-0.155219f, -0.207736f, -0.067668f, 0.019923f, 0.034459f, 0.100400f, -0.009669f, -0.070132f, 0.135463f, 0.022542f, 0.018539f, 0.028939f, -0.004637f, -0.131594f, -0.073037f,
0.013593f, -0.065392f, -0.220507f, 0.026245f, 0.027043f, 0.044153f, -0.096353f, 0.025766f, 0.013963f, -0.014600f, -0.133201f, -0.367482f, -0.182364f, -0.125122f, -0.075927f,
0.048595f, 0.032194f, 0.222915f, 0.003149f, -0.050821f, 0.006732f, -0.155327f, -0.115971f, -0.084200f, 0.042089f, -0.027188f, -0.083844f, 0.046450f, -0.048854f, -0.043810f,
0.030398f, -0.039144f, -0.008615f, 0.025083f, -0.033699f, 0.186779f, -0.125212f, -0.056990f, -0.177856f, -0.028936f, 0.012088f, -0.116623f, 0.025188f, -0.022953f, 0.039376f,
0.126657f, 0.132826f, 0.182930f, -0.074933f, 0.020418f, -0.028479f, -0.050777f, -0.078107f, -0.035242f, 0.109488f, 0.024342f, 0.027115f, -0.016478f, -0.000987f, 0.008306f,
-0.000583f, -0.022685f, 0.149030f, 0.077441f, 0.146426f, 0.127958f, -0.143113f, 0.042362f, -0.115169f, -0.039207f, -0.030700f, -0.078678f, -0.056370f, -0.091605f, 0.011626f,
-0.112772f, -0.107553f, -0.085370f, -0.006516f, 0.040701f, -0.061789f, -0.099909f, -0.119245f, -0.003580f, -0.035769f, -0.059514f, -0.159689f, 0.011344f, -0.054735f, -0.039407f,
-0.017690f, -0.026006f, -0.077467f, 0.064608f, 0.014346f, 0.038386f, 0.070629f, 0.121977f, 0.152173f, -0.040307f, 0.005766f, -0.114943f, 0.033309f, 0.081602f, 0.028732f,
-0.038510f, 0.069595f, 0.001504f, 0.211383f, -0.054777f, -0.087995f, -0.084277f, 0.101930f, -0.035725f, -0.071300f, 0.034488f, 0.054656f, -0.166715f, 0.020506f, -0.084649f,
0.078919f, 0.107657f, 0.003726f, 0.041470f, 0.081308f, 0.138859f, -0.015297f, 0.017427f, -0.052564f, -0.104806f, -0.053096f, -0.098072f, -0.085344f, -0.130312f, -0.126000f,
0.133237f, 0.083526f, 0.079399f, -0.005959f, -0.043053f, -0.028702f, -0.044772f, -0.151858f, -0.119547f, 0.006208f, 0.065347f, 0.000409f, -0.059510f, 0.030369f, -0.152462f,
-0.010825f, -0.074350f, 0.015385f, -0.051115f, -0.090318f, -0.129789f, 0.052540f, -0.050118f, 0.048988f, -0.048758f, -0.086127f, 0.060972f, -0.109598f, 0.022875f, 0.003349f,
0.031507f, 0.047502f, -0.021011f, -0.033617f, -0.099834f, -0.148843f, 0.122090f, 0.096301f, 0.077133f, -0.041829f, -0.057718f, -0.008350f, -0.039044f, -0.137389f, -0.077889f,
-0.033415f, 0.009605f, -0.140560f, 0.032183f, 0.156193f, 0.013499f, 0.013148f, -0.005309f, -0.060645f, -0.020404f, -0.120118f, -0.030638f, 0.088454f, 0.090738f, 0.042331f,
0.045794f, -0.003181f, 0.073292f, 0.104058f, -0.035769f, 0.006379f, -0.183846f, -0.025933f, 0.062284f, 0.046181f, 0.004461f, 0.061194f, -0.086889f, -0.083219f, 0.017250f,
-0.084287f, 0.016408f, 0.079057f, -0.119609f, 0.060378f, 0.039379f, -0.003115f, 0.074637f, 0.110245f, -0.022952f, 0.165044f, 0.128063f, -0.026200f, 0.003662f, 0.010711f,
0.020981f, -0.015112f, 0.071087f, -0.102761f, -0.041380f, -0.142417f, 0.010868f, 0.027090f, 0.070064f, -0.002073f, 0.068378f, -0.014319f, 0.058875f, 0.034494f, 0.178902f,
0.014980f, 0.064432f, 0.123069f, -0.053977f, 0.041856f, 0.044128f, 0.120678f, 0.081222f, 0.271434f, -0.020755f, 0.222406f, -0.031792f, 0.040394f, -0.101446f, -0.008126f,
-0.039917f, -0.075493f, -0.125896f, 0.012404f, -0.050108f, -0.143695f, -0.052976f, -0.092153f, -0.092082f, -0.040676f, -0.101662f, -0.091417f, 0.012909f, -0.037538f, -0.119126f,
0.119071f, -0.062150f, -0.101106f, 0.027515f, 0.134215f, 0.198696f, -0.181387f, -0.054520f, -0.019922f, -0.014056f, 0.083654f, 0.134388f, 0.080831f, 0.053795f, -0.033904f,
0.096091f, 0.091650f, 0.044342f, 0.009229f, -0.103339f, -0.062727f, 0.030726f, 0.047719f, -0.003733f, 0.060097f, -0.073569f, -0.050254f, 0.070090f, -0.022849f, 0.095254f,
-0.050645f, -0.003434f, 0.097618f, -0.048404f, -0.012807f, -0.131636f, 0.056534f, 0.082277f, -0.063471f, -0.019585f, -0.132409f, -0.047659f, -0.040574f, -0.025966f, -0.120021f,
-0.123882f, -0.051761f, -0.019017f, 0.088865f, 0.029673f, -0.033566f, 0.040917f, -0.150756f, -0.107421f, -0.074268f, -0.148209f, -0.001315f, -0.110292f, -0.058423f, -0.032481f,
0.011940f, -0.077738f, 0.049139f, -0.076178f, -0.055024f, -0.003505f, -0.055158f, -0.025634f, -0.084946f, -0.026365f, 0.099298f, -0.017119f, -0.029194f, -0.101346f, -0.178174f,
0.105581f, 0.092785f, 0.149657f, 0.004314f, 0.095182f, 0.050518f, -0.023612f, 0.137532f, 0.055110f, -0.042835f, -0.014080f, 0.064977f, -0.122982f, -0.092371f, -0.169519f,
-0.033129f, -0.052830f, -0.038627f, -0.058715f, -0.006200f, 0.069771f, 0.006587f, 0.086807f, 0.025110f, 0.067052f, 0.082418f, 0.027899f, -0.106541f, 0.040173f, 0.019907f,
-0.114608f, 0.070241f, 0.049113f, 0.000027f, 0.074793f, 0.068231f, 0.114771f, 0.117955f, -0.066197f, -0.090496f, 0.015799f, 0.042990f, 0.096279f, 0.039183f, -0.033081f,
0.036609f, 0.067919f, -0.052679f, -0.014709f, -0.081568f, -0.066179f, -0.057813f, -0.016759f, -0.102664f, -0.008572f, -0.023857f, 0.021097f, 0.047899f, 0.052062f, 0.058343f,
-0.082846f, -0.077629f, -0.089953f, 0.046867f, 0.116484f, -0.027436f, -0.027671f, 0.041302f, 0.034450f, 0.055125f, 0.031800f, 0.032401f, -0.253817f, -0.039256f, -0.027273f,
-0.108019f, 0.100259f, 0.028858f, -0.046786f, 0.016401f, 0.013718f, 0.058188f, -0.093923f, 0.121330f, 0.054319f, -0.056539f, 0.162962f, 0.018251f, -0.022546f, 0.098775f,
0.093055f, 0.045200f, 0.134376f, 0.012912f, 0.036959f, 0.042200f, -0.050854f, -0.025251f, -0.017447f, -0.066678f, 0.009487f, -0.042217f, 0.036712f, -0.066729f, -0.013754f,
-0.007579f, 0.016941f, 0.002755f, 0.026669f, 0.185055f, 0.161521f, 0.059399f, 0.058573f, 0.053345f, 0.057580f, 0.064914f, 0.061263f, -0.037659f, 0.158896f, 0.091146f,
0.008026f, 0.212833f, 0.079418f, -0.048881f, 0.067093f, -0.126627f, -0.160566f, -0.117899f, -0.110070f, -0.093777f, -0.086556f, 0.007711f, -0.025725f, -0.074244f, -0.118892f,
-0.005928f, 0.022170f, -0.067922f, -0.022076f, -0.091504f, -0.101992f, -0.048776f, -0.086875f, -0.097044f, 0.044913f, -0.017268f, 0.122807f, -0.215267f, 0.037837f, 0.109048f,
-0.230161f, -0.064723f, 0.045102f, 0.089153f, 0.010828f, -0.000685f, 0.057056f, -0.032702f, -0.052821f, 0.159349f, 0.063946f, -0.006576f, 0.127656f, 0.164099f, 0.011968f,
0.045141f, 0.078962f, 0.066763f, -0.185466f, 0.018590f, 0.096936f, 0.041372f, 0.015776f, 0.079149f, -0.052726f, -0.082628f, 0.026214f, 0.123139f, -0.018195f, 0.067186f,
-0.032863f, 0.013117f, 0.055944f, -0.155406f, -0.067579f, -0.095622f, -0.041861f, -0.002496f, -0.050424f, 0.045176f, 0.079859f, -0.026697f, -0.018730f, 0.078390f, 0.041789f,
-0.132096f, -0.037107f, -0.153102f, -0.110140f, -0.101407f, -0.144336f, -0.126727f, -0.055696f, -0.166954f, -0.066418f, 0.045263f, 0.019050f, 0.023524f, -0.106648f, -0.160880f,
0.044309f, -0.003539f, 0.006279f, -0.003076f, -0.129218f, -0.098655f, -0.021453f, 0.178402f, 0.073510f, -0.126162f, 0.127613f, 0.068897f, -0.051393f, 0.119598f, 0.048877f,
0.015118f, 0.029138f, -0.088868f, -0.087990f, -0.056357f, 0.053508f, 0.016370f, -0.069117f, -0.235786f, 0.037099f, -0.069075f, 0.006617f, -0.005358f, -0.035746f, 0.033478f,
0.127121f, 0.085195f, 0.003027f, -0.031143f, 0.064900f, 0.009712f, -0.069509f, 0.122602f, 0.093564f, -0.105513f, -0.063158f, 0.027727f, 0.184737f, -0.078874f, 0.028701f,
0.034143f, 0.024384f, 0.001084f, -0.002980f, -0.011145f, 0.020896f, -0.022586f, 0.044743f, 0.040957f, 0.076262f, 0.000733f, 0.106026f, 0.092885f, 0.000156f, 0.084028f,
-0.087873f, 0.049166f, 0.005268f, 0.062416f, 0.017804f, -0.083836f, 0.023425f, 0.140732f, -0.077438f, -0.112509f, -0.078821f, -0.195530f, -0.043174f, 0.014538f, -0.132698f,
0.022191f, -0.039095f, -0.018716f, -0.262688f, -0.088455f, 0.000745f, 0.023607f, 0.086745f, 0.098889f, -0.061827f, -0.046340f, 0.028879f, 0.079351f, 0.057877f, -0.094324f,
-0.087089f, -0.023227f, -0.015867f, 0.020144f, 0.001927f, -0.269438f, 0.009327f, 0.043978f, 0.071017f, 0.002109f, -0.014959f, 0.012552f, -0.092509f, -0.021698f, -0.190145f,
-0.102256f, -0.053315f, -0.119292f, 0.086130f, 0.020305f, 0.243903f, 0.001070f, -0.087407f, 0.087314f, -0.071298f, -0.057711f, -0.069469f, -0.050438f, -0.009401f, -0.084766f,
0.023720f, 0.042742f, -0.084442f, 0.012192f, -0.032355f, 0.031766f, 0.030739f, -0.119801f, 0.172647f, -0.094062f, -0.082371f, -0.100498f, -0.073191f, -0.003408f, -0.115093f,
0.088277f, 0.003411f, 0.115878f, 0.048364f, 0.150667f, 0.111328f, -0.024165f, -0.054143f, -0.073070f, 0.017532f, -0.017163f, 0.024983f, 0.066536f, 0.015186f, -0.057044f,
-0.021556f, -0.056992f, 0.109709f, 0.054378f, -0.001213f, 0.080136f, 0.114641f, 0.149007f, 0.170851f, -0.102563f, -0.053850f, -0.087102f, -0.019205f, 0.061283f, -0.016451f,
-0.051224f, -0.112538f, -0.194857f, -0.187597f, -0.106649f, -0.036702f, 0.072376f, 0.021111f, -0.023836f, -0.142118f, -0.033822f, -0.071718f, -0.089594f, -0.069049f, -0.102977f,
0.040284f, -0.058397f, 0.016245f, -0.042329f, -0.130483f, -0.090895f, -0.029182f, 0.062848f, 0.084872f, 0.048949f, 0.048532f, 0.097790f, -0.024011f, 0.015517f, -0.191232f,
0.065298f, 0.078039f, -0.040772f, 0.017743f, 0.015023f, -0.000748f, 0.155416f, 0.121663f, -0.030271f, -0.013937f, 0.106553f, -0.008521f, -0.055642f, -0.015762f, 0.091978f,
-0.032426f, 0.063551f, -0.097507f, 0.027628f, 0.032825f, 0.101686f, 0.139641f, 0.108867f, 0.041258f, 0.021737f, 0.000072f, 0.047746f, -0.144799f, -0.018668f, -0.032843f,
-0.128779f, -0.161116f, -0.110750f, 0.023577f, 0.050311f, 0.071909f, -0.092083f, 0.045915f, -0.118806f, -0.072325f, -0.035892f, -0.104481f, 0.123605f, 0.036940f, 0.049476f,
-0.097182f, -0.055701f, -0.084275f, 0.047085f, -0.033993f, -0.031233f, -0.105945f, -0.071351f, -0.115835f, 0.004837f, -0.008552f, -0.009918f, -0.119950f, -0.185465f, -0.045945f,
-0.118694f, 0.047121f, -0.000899f, 0.055014f, 0.048464f, -0.002756f, -0.135232f, -0.121848f, -0.114432f, 0.134287f, 0.079279f, 0.128198f, 0.052152f, 0.006023f, 0.209068f,
0.058811f, -0.092142f, 0.031528f, 0.027513f, 0.005192f, 0.075860f, 0.111467f, -0.036627f, 0.002356f, 0.002595f, 0.003175f, 0.137018f, 0.006604f, 0.010913f, -0.036098f,
0.038665f, -0.042488f, -0.209338f, -0.195495f, -0.171385f, -0.117303f, 0.023051f, -0.041696f, -0.062772f, -0.053085f, 0.088148f, 0.041853f, -0.000836f, -0.025161f, -0.041112f,
0.046163f, -0.047064f, 0.110124f, 0.023135f, -0.126518f, 0.079625f, -0.034322f, -0.080111f, -0.107305f, -0.066836f, -0.035273f, -0.012316f, -0.047689f, -0.047515f, -0.040032f,
-0.100552f, -0.149338f, -0.133207f, 0.014485f, -0.038077f, -0.019064f, 0.100869f, 0.088700f, 0.136957f, -0.094030f, 0.043124f, 0.050571f, -0.178983f, 0.064823f, 0.001829f,
0.025545f, 0.042935f, -0.008878f, -0.092301f, -0.116866f, -0.065682f, 0.015742f, -0.053692f, -0.027591f, 0.050992f, -0.106820f, 0.068892f, -0.100403f, -0.034543f, -0.037945f,
0.111994f, 0.110640f, -0.057193f, 0.093878f, 0.051491f, -0.011718f, -0.053820f, 0.000558f, 0.031284f, 0.028345f, 0.176946f, 0.011832f, -0.101464f, 0.057002f, -0.030474f,
0.045747f, 0.033875f, 0.086063f, 0.043714f, 0.078733f, 0.149557f, -0.115914f, 0.088297f, 0.047158f, 0.027265f, 0.054464f, -0.012151f, 0.006034f, 0.100334f, 0.002922f,
-0.041383f, 0.079856f, -0.134784f, 0.051507f, 0.049271f, 0.029728f, -0.113182f, -0.103085f, -0.065328f, -0.058736f, -0.043019f, 0.013200f, 0.057626f, -0.017542f, -0.043880f,
-0.134743f, -0.114576f, -0.051799f, 0.004307f, -0.236925f, -0.049401f, 0.103439f, -0.007070f, 0.017149f, -0.078256f, -0.174105f, -0.121488f, -0.023418f, 0.069311f, 0.079475f,
0.005852f, 0.046683f, 0.009883f, -0.026330f, -0.029213f, -0.009261f, 0.083920f, -0.002026f, 0.113366f, 0.081880f, -0.117900f, -0.064670f, 0.025199f, 0.067633f, -0.011110f,
0.027213f, -0.004885f, 0.007235f, 0.094609f, -0.021308f, 0.013792f, -0.056794f, 0.014952f, -0.142391f, -0.121083f, -0.099797f, 0.162898f, 0.052161f, 0.187271f, 0.142141f,
0.123549f, -0.115014f, 0.027516f, -0.159381f, -0.077355f, -0.087916f, 0.090870f, 0.049086f, 0.016946f, 0.008882f, 0.017148f, -0.004163f, 0.125268f, -0.117759f, 0.067005f,
0.006272f, -0.078108f, -0.035424f, 0.164814f, 0.118195f, -0.027205f, -0.080576f, 0.035901f, -0.033632f, 0.048431f, -0.015409f, 0.028657f, -0.048502f, 0.043026f, -0.134197f,
-0.380620f, -0.049034f, -0.031037f, -0.163865f, -0.107967f, -0.023379f, -0.022475f, 0.020121f, 0.014146f, -0.062702f, -0.016663f, -0.010403f, -0.040518f, -0.051514f, 0.039788f,
-0.046298f, 0.101611f, 0.004409f, 0.102540f, 0.052752f, 0.040851f, 0.096442f, -0.022217f, 0.099577f, 0.059272f, -0.017646f, -0.082799f, 0.060794f, 0.057412f, -0.003351f,
0.065205f, -0.042739f, 0.037466f, 0.017607f, -0.014498f, -0.014656f, -0.061521f, -0.166263f, -0.171204f, -0.143412f, -0.098321f, -0.024155f, 0.036735f, -0.075970f, 0.032676f,
-0.019151f, -0.069413f, 0.106701f, 0.066119f, 0.034843f, 0.020410f, 0.002057f, -0.139830f, 0.043274f, -0.043126f, 0.018222f, -0.062628f, -0.030220f, 0.007908f, -0.032419f,
-0.033127f, -0.009175f, 0.010115f, -0.082918f, 0.077417f, -0.044218f, -0.120399f, -0.002003f, -0.081714f, -0.042614f, -0.122814f, -0.133555f, -0.015116f, 0.027466f, -0.044520f,
0.024507f, 0.081377f, 0.112115f, 0.031727f, 0.002465f, 0.009204f, -0.136873f, -0.035635f, -0.082617f, 0.010504f, -0.132284f, 0.064216f, 0.068338f, -0.058849f, -0.093129f,
-0.028773f, -0.112769f, -0.129521f, -0.045666f, 0.038548f, -0.025873f, -0.064642f, 0.035975f, -0.077081f, -0.029633f, 0.002263f, -0.038559f, 0.115607f, 0.033744f, 0.098426f,
0.182418f, 0.142136f, 0.217352f, -0.052412f, 0.056385f, 0.032812f, -0.005548f, 0.050051f, 0.068421f, -0.002579f, 0.082376f, 0.106992f, 0.056685f, -0.051608f, 0.060807f,
-0.063134f, 0.022991f, 0.043316f, 0.134967f, 0.059470f, 0.098307f, -0.090188f, -0.093604f, -0.138952f, 0.024715f, -0.009664f, 0.030959f, -0.088125f, -0.156590f, -0.162895f,
-0.104966f, -0.072554f, -0.180381f, -0.056255f, -0.000647f, -0.051250f, -0.093020f, -0.099285f, -0.173218f, -0.095490f, -0.116000f, -0.055224f, 0.107411f, -0.058500f, 0.023921f,
-0.096832f, -0.053235f, -0.134328f, 0.028657f, -0.022696f, 0.063363f, 0.035923f, 0.019287f, 0.080566f, 0.032523f, 0.018285f, -0.102230f, 0.022908f, 0.035586f, 0.046507f,
0.020881f, -0.014065f, 0.000428f, 0.092073f, 0.062622f, 0.036677f, 0.078038f, 0.050206f, -0.057044f, -0.083964f, 0.019555f, 0.020321f, -0.144508f, -0.042868f, -0.108763f,
-0.018314f, -0.000205f, 0.019612f, 0.120296f, 0.190742f, 0.078037f, 0.027741f, -0.076850f, -0.093103f, -0.035742f, -0.093555f, -0.094895f, -0.141971f, -0.009768f, -0.086300f,
0.117144f, 0.132670f, 0.024246f, 0.003555f, 0.045120f, -0.175922f, 0.046166f, -0.112037f, 0.005527f, 0.173254f, 0.039981f, 0.031297f, -0.043697f, -0.066894f, 0.026918f,
-0.026978f, 0.068805f, -0.031032f, -0.046619f, 0.031757f, -0.084750f, -0.185915f, -0.100309f, -0.015034f, -0.055873f, -0.057287f, -0.111837f, -0.028204f, -0.013066f, 0.079644f,
0.009367f, 0.003978f, -0.004620f, -0.304274f, -0.155604f, -0.021819f, 0.175472f, 0.150525f, 0.132789f
};
const float model_2_bn2_weight[] = {
1.246546f, 1.180112f, 1.104763f, 1.226604f, 1.103862f, 1.130908f, 1.287168f, 1.235798f, 1.160061f, 1.253877f, 1.174839f, 1.065965f, 1.280414f, 1.138156f, 1.240492f,
1.104265f, 1.199128f, 1.203396f, 1.222960f, 1.267230f, 1.269952f, 1.165882f, 1.138456f, 1.158637f
};
const float model_2_bn2_bias[] = {
-0.458807f, -0.452444f, -0.502941f, -0.435035f, -0.494258f, -0.463971f, -0.445597f, -0.490063f, -0.526286f, -0.514097f, -0.456517f, -0.409473f, -0.416722f, -0.492722f, -0.478903f,
-0.553386f, -0.539577f, -0.399116f, -0.594575f, -0.466792f, -0.403472f, -0.499733f, -0.421462f, -0.339106f
};
const float model_2_bn2_running_mean[] = {
-0.355034f, -0.127009f, -0.182161f, -0.111200f, -0.186518f, -0.025881f, -0.389704f, -0.170563f, -0.495816f, -0.188230f, -0.767262f, -0.375889f, -0.061580f, -0.026247f, -0.219809f,
-0.150040f, 0.004092f, -0.352350f, -0.593383f, -0.013502f, -0.026711f, -0.320547f, -0.275166f, -0.375736f
};
const float model_2_bn2_running_var[] = {
0.258089f, 0.249641f, 0.194139f, 0.242331f, 0.183152f, 0.189712f, 0.261965f, 0.185630f, 0.186993f, 0.165616f, 0.324048f, 0.185616f, 0.200105f, 0.169021f, 0.160559f,
0.172389f, 0.167975f, 0.282436f, 0.204129f, 0.162064f, 0.196806f, 0.203691f, 0.243759f, 0.255593f
};
const float model_2_bn2_num_batches_tracked[] = {
18200.000000f
};
const float model_2_shortcut_0_weight[] = {
0.280337f, 0.243979f, 0.209692f, 0.348537f, 0.253475f, 0.305308f, 0.007533f, 0.154799f, 0.037555f, 0.141017f, -0.087281f, -0.004194f, 0.176830f, -0.198417f, 0.020229f,
-0.262244f, -0.270705f, -0.188679f, -0.137860f, 0.051610f, 0.032230f, 0.129289f, -0.437667f, -0.263802f, 0.250667f, 0.010575f, 0.126646f, 0.270288f, 0.248425f, -0.083200f,
0.339358f, 0.118760f, -0.054474f, -0.120128f, -0.120477f, 0.063487f, -0.081556f, -0.166933f, -0.196422f, -0.034154f, -0.067982f, -0.228848f, -0.165194f, -0.152096f, -0.120417f,
-0.244820f, -0.345006f, -0.100298f, 0.245176f, 0.276814f, 0.064070f, 0.142866f, 0.149189f, 0.238772f, 0.213645f, 0.064478f, -0.092854f, -0.031840f, -0.242211f, -0.488914f,
-0.382583f, -0.045770f, -0.039459f, -0.255232f, 0.256797f, -0.361508f, 0.138496f, -0.194778f, -0.084769f, -0.390740f, -0.360548f, -0.190205f, -0.305825f, 0.110416f, -0.420029f,
-0.258554f, 0.014193f, 0.214495f, 0.054304f, -0.225434f, -0.036010f, 0.373736f, 0.204382f, 0.157063f, 0.169234f, -0.331728f, 0.057585f, 0.020606f, 0.347659f, 0.147136f,
-0.191298f, -0.292356f, 0.054233f, -0.379438f, -0.129352f, 0.057449f, -0.365567f, 0.227042f, 0.067919f, -0.062877f, 0.015699f, 0.158081f, 0.478839f, -0.205499f, 0.126187f,
0.032348f, -0.315914f, -0.213407f, -0.226403f, -0.047731f, -0.438018f, 0.065504f, -0.463863f, 0.028040f, -0.235023f, -0.320355f, -0.249970f, 0.157383f, -0.094800f, -0.191730f,
0.110519f, 0.025504f, -0.372407f, -0.321405f, 0.253943f, -0.120168f, -0.199014f, 0.036855f, -0.227812f, -0.333398f, -0.299503f, -0.023841f, -0.001186f, 0.134309f, -0.420625f,
-0.208328f, 0.176010f, 0.331822f, 0.171757f, -0.110126f, 0.174081f, -0.169894f, 0.296560f, -0.105926f, -0.092160f, -0.444566f, -0.195635f, 0.129617f, -0.115071f, -0.128670f,
-0.185197f, 0.134013f, -0.025854f, 0.062772f, -0.220156f, 0.132998f, 0.260573f, -0.205451f, 0.059777f, 0.238724f, 0.069930f, -0.056101f, -0.060236f, 0.111827f, -0.304820f,
0.011403f, 0.402844f, -0.162955f, 0.090165f, -0.449873f, 0.000444f, -0.367306f, -0.255282f, 0.243202f, -0.004381f, 0.136933f, -0.016359f, 0.124901f, 0.144699f, 0.290156f,
0.081958f, -0.039600f, 0.081455f, 0.003425f, 0.115326f, 0.113207f, -0.110418f, 0.207924f, 0.310262f, 0.029414f, 0.111775f, 0.151317f
};
const float model_2_shortcut_1_weight[] = {
0.734522f, 0.646983f, 0.726142f, 0.621645f, 0.789846f, 0.740952f, 0.691093f, 0.713350f, 0.691837f, 0.685817f, 0.640848f, 0.723152f, 0.686298f, 0.698247f, 0.760536f,
0.777240f, 0.626753f, 0.614933f, 0.746952f, 0.630271f, 0.644619f, 0.595481f, 0.787263f, 0.694389f
};
const float model_2_shortcut_1_bias[] = {
-0.458807f, -0.452444f, -0.502941f, -0.435035f, -0.494258f, -0.463971f, -0.445597f, -0.490063f, -0.526286f, -0.514097f, -0.456517f, -0.409473f, -0.416722f, -0.492722f, -0.478903f,
-0.553386f, -0.539577f, -0.399116f, -0.594575f, -0.466792f, -0.403472f, -0.499733f, -0.421462f, -0.339106f
};
const float model_2_shortcut_1_running_mean[] = {
1.229954f, -0.274552f, -0.823623f, 0.868310f, -0.553326f, -1.064913f, 0.962697f, -1.110253f, -1.008305f, -0.518931f, 0.346223f, -0.389971f, 0.318628f, -0.763898f, -0.858350f,
-0.441416f, -0.998396f, 0.457450f, -0.591241f, 0.239220f, -0.019261f, -0.256968f, 0.427019f, 0.645052f
};
const float model_2_shortcut_1_running_var[] = {
0.478644f, 0.199720f, 0.333657f, 0.419837f, 0.101787f, 0.427498f, 0.375203f, 0.406561f, 0.529103f, 0.136327f, 0.340788f, 0.272692f, 0.327965f, 0.373366f, 0.328854f,
0.241620f, 0.471976f, 0.389973f, 0.274545f, 0.169829f, 0.189352f, 0.558957f, 0.144323f, 0.234596f
};
const float model_2_shortcut_1_num_batches_tracked[] = {
18200.000000f
};
const float output_1_weight[] = {
0.163398f, 0.205474f, 0.394962f, -0.399615f, 0.442609f, -0.193818f, 0.298584f, -0.133768f, 0.237721f, -0.334317f, 0.440967f, 0.327812f, -0.078832f, 0.128035f, -0.112760f,
-0.357083f, 0.124038f, 0.132128f, 0.407876f, -0.303511f, -0.227459f, 0.263146f, 0.399503f, 0.338420f, -0.480289f, -0.285545f, -0.317570f, 0.268636f, -0.208773f, 0.422351f,
-0.251126f, 0.439896f, -0.406613f, 0.248217f, -0.382296f, -0.252544f, 0.400298f, -0.420594f, 0.408756f, 0.481905f, -0.387872f, -0.349808f, -0.389176f, 0.196791f, 0.209141f,
-0.347771f, -0.383940f, -0.172333f
};
const float output_1_bias[] = {
-0.347371f, 0.366827f
};
